<?xml version="1.0"?>
<opencv_storage>
<cascade>
  <stageType>BOOST</stageType>
  <featureType>HAAR</featureType>
  <height>38</height>
  <width>50</width>
  <stageParams>
    <boostType>GAB</boostType>
    <minHitRate>9.9900001287460327e-01</minHitRate>
    <maxFalseAlarm>5.0000000000000000e-01</maxFalseAlarm>
    <weightTrimRate>9.4999999999999996e-01</weightTrimRate>
    <maxDepth>1</maxDepth>
    <maxWeakCount>100</maxWeakCount></stageParams>
  <featureParams>
    <maxCatCount>0</maxCatCount>
    <featSize>1</featSize>
    <mode>BASIC</mode></featureParams>
  <stageNum>13</stageNum>
  <stages>
    <!-- stage 0 -->
    <_>
      <maxWeakCount>14</maxWeakCount>
      <stageThreshold>-9.4176638126373291e-01</stageThreshold>
      <weakClassifiers>
        <_>
          <internalNodes>
            0 -1 117 -3.0114795081317425e-03</internalNodes>
          <leafValues>
            -4.3215030431747437e-01 5.8386802673339844e-01</leafValues></_>
        <_>
          <internalNodes>
            0 -1 23 4.8289880156517029e-02</internalNodes>
          <leafValues>
            2.1779222786426544e-01 -8.2707780599594116e-01</leafValues></_>
        <_>
          <internalNodes>
            0 -1 49 -5.8170575648546219e-02</internalNodes>
          <leafValues>
            -8.4651422500610352e-01 1.8093554675579071e-01</leafValues></_>
        <_>
          <internalNodes>
            0 -1 189 4.6509956009685993e-03</internalNodes>
          <leafValues>
            -2.3557883501052856e-01 7.1499198675155640e-01</leafValues></_>
        <_>
          <internalNodes>
            0 -1 190 -2.6819999329745770e-03</internalNodes>
          <leafValues>
            7.2155869007110596e-01 -2.4165119230747223e-01</leafValues></_>
        <_>
          <internalNodes>
            0 -1 197 3.5207122564315796e-03</internalNodes>
          <leafValues>
            -8.6279965937137604e-02 7.5724965333938599e-01</leafValues></_>
        <_>
          <internalNodes>
            0 -1 21 5.4597002454102039e-03</internalNodes>
          <leafValues>
            -2.3003825545310974e-01 5.7331752777099609e-01</leafValues></_>
        <_>
          <internalNodes>
            0 -1 26 3.0527892522513866e-03</internalNodes>
          <leafValues>
            -2.8318807482719421e-01 5.8483737707138062e-01</leafValues></_>
        <_>
          <internalNodes>
            0 -1 139 3.0283754691481590e-02</internalNodes>
          <leafValues>
            -1.7622548341751099e-01 6.4898800849914551e-01</leafValues></_>
        <_>
          <internalNodes>
            0 -1 126 1.5620280057191849e-02</internalNodes>
          <leafValues>
            -2.8513088822364807e-01 5.8634740114212036e-01</leafValues></_>
        <_>
          <internalNodes>
            0 -1 222 2.6181438006460667e-03</internalNodes>
          <leafValues>
            -2.0653109252452850e-01 6.3747459650039673e-01</leafValues></_>
        <_>
          <internalNodes>
            0 -1 109 -1.3884118525311351e-03</internalNodes>
          <leafValues>
            6.5269333124160767e-01 -1.7661724984645844e-01</leafValues></_>
        <_>
          <internalNodes>
            0 -1 103 1.1305975494906306e-03</internalNodes>
          <leafValues>
            -2.7162599563598633e-01 6.5304023027420044e-01</leafValues></_>
        <_>
          <internalNodes>
            0 -1 134 7.1992084849625826e-04</internalNodes>
          <leafValues>
            -1.4743021130561829e-01 6.5801197290420532e-01</leafValues></_></weakClassifiers></_>
    <!-- stage 1 -->
    <_>
      <maxWeakCount>15</maxWeakCount>
      <stageThreshold>-1.1382499933242798e+00</stageThreshold>
      <weakClassifiers>
        <_>
          <internalNodes>
            0 -1 87 6.5321147441864014e-02</internalNodes>
          <leafValues>
            4.3708115816116333e-01 -6.9162994623184204e-01</leafValues></_>
        <_>
          <internalNodes>
            0 -1 127 2.9990362003445625e-02</internalNodes>
          <leafValues>
            -3.1133925914764404e-01 4.2907127737998962e-01</leafValues></_>
        <_>
          <internalNodes>
            0 -1 120 -4.5938044786453247e-02</internalNodes>
          <leafValues>
            -7.6589757204055786e-01 2.3992572724819183e-01</leafValues></_>
        <_>
          <internalNodes>
            0 -1 166 7.3111979290843010e-03</internalNodes>
          <leafValues>
            -2.1569114923477173e-01 7.8773295879364014e-01</leafValues></_>
        <_>
          <internalNodes>
            0 -1 165 -4.1069146245718002e-03</internalNodes>
          <leafValues>
            7.3441010713577271e-01 -2.0240160822868347e-01</leafValues></_>
        <_>
          <internalNodes>
            0 -1 55 4.0310230106115341e-02</internalNodes>
          <leafValues>
            1.9124953448772430e-01 -8.5126173496246338e-01</leafValues></_>
        <_>
          <internalNodes>
            0 -1 48 -7.5468935072422028e-02</internalNodes>
          <leafValues>
            -8.9039713144302368e-01 9.8300948739051819e-02</leafValues></_>
        <_>
          <internalNodes>
            0 -1 174 1.7997033428400755e-03</internalNodes>
          <leafValues>
            -2.1241605281829834e-01 6.1895442008972168e-01</leafValues></_>
        <_>
          <internalNodes>
            0 -1 14 -9.6086546778678894e-02</internalNodes>
          <leafValues>
            -6.7829787731170654e-01 1.9237646460533142e-01</leafValues></_>
        <_>
          <internalNodes>
            0 -1 16 2.2991284728050232e-02</internalNodes>
          <leafValues>
            1.5543776750564575e-01 -7.0557290315628052e-01</leafValues></_>
        <_>
          <internalNodes>
            0 -1 185 1.8601944902911782e-03</internalNodes>
          <leafValues>
            -2.2430686652660370e-01 6.0316479206085205e-01</leafValues></_>
        <_>
          <internalNodes>
            0 -1 40 -5.7583402842283249e-02</internalNodes>
          <leafValues>
            -8.5840409994125366e-01 1.6576857864856720e-01</leafValues></_>
        <_>
          <internalNodes>
            0 -1 15 1.3980673393234611e-03</internalNodes>
          <leafValues>
            -2.1387308835983276e-01 7.0639145374298096e-01</leafValues></_>
        <_>
          <internalNodes>
            0 -1 51 -1.7455997876822948e-03</internalNodes>
          <leafValues>
            4.6765124797821045e-01 -2.3418651521205902e-01</leafValues></_>
        <_>
          <internalNodes>
            0 -1 186 -5.1136761903762817e-03</internalNodes>
          <leafValues>
            8.3318829536437988e-01 -1.4316500723361969e-01</leafValues></_></weakClassifiers></_>
    <!-- stage 2 -->
    <_>
      <maxWeakCount>15</maxWeakCount>
      <stageThreshold>-8.4553140401840210e-01</stageThreshold>
      <weakClassifiers>
        <_>
          <internalNodes>
            0 -1 81 2.1760378032922745e-02</internalNodes>
          <leafValues>
            3.8364779949188232e-01 -8.5611510276794434e-01</leafValues></_>
        <_>
          <internalNodes>
            0 -1 53 -6.7551024258136749e-02</internalNodes>
          <leafValues>
            -8.1519019603729248e-01 1.7325812578201294e-01</leafValues></_>
        <_>
          <internalNodes>
            0 -1 201 6.1930394731462002e-03</internalNodes>
          <leafValues>
            -1.5783077478408813e-01 8.9186167716979980e-01</leafValues></_>
        <_>
          <internalNodes>
            0 -1 235 -3.2332013361155987e-03</internalNodes>
          <leafValues>
            6.0540568828582764e-01 -2.3884436488151550e-01</leafValues></_>
        <_>
          <internalNodes>
            0 -1 146 -4.5794280595146120e-04</internalNodes>
          <leafValues>
            -4.3063995242118835e-01 3.0514079332351685e-01</leafValues></_>
        <_>
          <internalNodes>
            0 -1 169 8.1528606824576855e-04</internalNodes>
          <leafValues>
            -2.0103383064270020e-01 6.2931364774703979e-01</leafValues></_>
        <_>
          <internalNodes>
            0 -1 57 4.7146817669272423e-03</internalNodes>
          <leafValues>
            -1.0166056454181671e-01 7.5588113069534302e-01</leafValues></_>
        <_>
          <internalNodes>
            0 -1 70 -1.7209716606885195e-03</internalNodes>
          <leafValues>
            6.9142663478851318e-01 -1.8604700267314911e-01</leafValues></_>
        <_>
          <internalNodes>
            0 -1 159 -9.9661492276936769e-04</internalNodes>
          <leafValues>
            6.4955347776412964e-01 -1.4184306561946869e-01</leafValues></_>
        <_>
          <internalNodes>
            0 -1 158 8.7464135140180588e-03</internalNodes>
          <leafValues>
            -2.3907659947872162e-01 5.0326716899871826e-01</leafValues></_>
        <_>
          <internalNodes>
            0 -1 149 6.4985256176441908e-04</internalNodes>
          <leafValues>
            -1.6079424321651459e-01 5.7982379198074341e-01</leafValues></_>
        <_>
          <internalNodes>
            0 -1 89 2.1117016673088074e-02</internalNodes>
          <leafValues>
            1.6382023692131042e-01 -6.4453047513961792e-01</leafValues></_>
        <_>
          <internalNodes>
            0 -1 187 5.0237504765391350e-03</internalNodes>
          <leafValues>
            -1.5215286612510681e-01 7.2446137666702271e-01</leafValues></_>
        <_>
          <internalNodes>
            0 -1 232 -4.8093479126691818e-03</internalNodes>
          <leafValues>
            5.6529897451400757e-01 -1.6438113152980804e-01</leafValues></_>
        <_>
          <internalNodes>
            0 -1 236 -4.0934658609330654e-03</internalNodes>
          <leafValues>
            7.7222257852554321e-01 -1.2773393094539642e-01</leafValues></_></weakClassifiers></_>
    <!-- stage 3 -->
    <_>
      <maxWeakCount>19</maxWeakCount>
      <stageThreshold>-1.0679080486297607e+00</stageThreshold>
      <weakClassifiers>
        <_>
          <internalNodes>
            0 -1 150 -7.6436763629317284e-03</internalNodes>
          <leafValues>
            -6.2841528654098511e-01 3.9293438196182251e-01</leafValues></_>
        <_>
          <internalNodes>
            0 -1 113 3.1563829630613327e-02</internalNodes>
          <leafValues>
            1.3004991412162781e-01 -7.9025447368621826e-01</leafValues></_>
        <_>
          <internalNodes>
            0 -1 32 -2.4135862477123737e-03</internalNodes>
          <leafValues>
            6.9812804460525513e-01 -1.4929771423339844e-01</leafValues></_>
        <_>
          <internalNodes>
            0 -1 118 -3.9836307987570763e-03</internalNodes>
          <leafValues>
            4.8767492175102234e-01 -1.9609589874744415e-01</leafValues></_>
        <_>
          <internalNodes>
            0 -1 214 -4.7542811371386051e-03</internalNodes>
          <leafValues>
            3.8959720730781555e-01 -3.0798736214637756e-01</leafValues></_>
        <_>
          <internalNodes>
            0 -1 41 -9.4432756304740906e-04</internalNodes>
          <leafValues>
            5.9705173969268799e-01 -1.9377519190311432e-01</leafValues></_>
        <_>
          <internalNodes>
            0 -1 102 -2.8031762689352036e-02</internalNodes>
          <leafValues>
            -7.4834489822387695e-01 1.9406329095363617e-01</leafValues></_>
        <_>
          <internalNodes>
            0 -1 124 -1.0474188020452857e-03</internalNodes>
          <leafValues>
            5.4258662462234497e-01 -2.4821843206882477e-01</leafValues></_>
        <_>
          <internalNodes>
            0 -1 96 2.4696434848010540e-03</internalNodes>
          <leafValues>
            -1.2375483661890030e-01 7.7502310276031494e-01</leafValues></_>
        <_>
          <internalNodes>
            0 -1 221 6.7988708615303040e-03</internalNodes>
          <leafValues>
            -1.3842555880546570e-01 6.4521747827529907e-01</leafValues></_>
        <_>
          <internalNodes>
            0 -1 17 1.0834430344402790e-02</internalNodes>
          <leafValues>
            -1.5976558625698090e-01 5.9658300876617432e-01</leafValues></_>
        <_>
          <internalNodes>
            0 -1 224 4.5775733888149261e-03</internalNodes>
          <leafValues>
            -1.1879504472017288e-01 6.5140938758850098e-01</leafValues></_>
        <_>
          <internalNodes>
            0 -1 24 2.7110824361443520e-02</internalNodes>
          <leafValues>
            1.6203017532825470e-01 -6.3185095787048340e-01</leafValues></_>
        <_>
          <internalNodes>
            0 -1 99 -4.6669505536556244e-03</internalNodes>
          <leafValues>
            7.7322101593017578e-01 -1.4130072295665741e-01</leafValues></_>
        <_>
          <internalNodes>
            0 -1 130 5.5652987211942673e-03</internalNodes>
          <leafValues>
            -1.2705761194229126e-01 7.1421265602111816e-01</leafValues></_>
        <_>
          <internalNodes>
            0 -1 105 4.2577562853693962e-03</internalNodes>
          <leafValues>
            -1.2396863847970963e-01 6.6837322711944580e-01</leafValues></_>
        <_>
          <internalNodes>
            0 -1 143 -6.7076915875077248e-03</internalNodes>
          <leafValues>
            8.1940603256225586e-01 -8.7044119834899902e-02</leafValues></_>
        <_>
          <internalNodes>
            0 -1 86 6.1539091169834137e-02</internalNodes>
          <leafValues>
            1.5138377249240875e-01 -7.2667402029037476e-01</leafValues></_>
        <_>
          <internalNodes>
            0 -1 78 3.9103530347347260e-02</internalNodes>
          <leafValues>
            9.3071825802326202e-02 -8.2572382688522339e-01</leafValues></_></weakClassifiers></_>
    <!-- stage 4 -->
    <_>
      <maxWeakCount>20</maxWeakCount>
      <stageThreshold>-1.0374846458435059e+00</stageThreshold>
      <weakClassifiers>
        <_>
          <internalNodes>
            0 -1 77 -9.7965024411678314e-02</internalNodes>
          <leafValues>
            -7.4193549156188965e-01 3.6099585890769958e-01</leafValues></_>
        <_>
          <internalNodes>
            0 -1 9 6.3310667872428894e-02</internalNodes>
          <leafValues>
            2.0712284743785858e-01 -5.6754899024963379e-01</leafValues></_>
        <_>
          <internalNodes>
            0 -1 208 -6.2395734712481499e-03</internalNodes>
          <leafValues>
            7.7445429563522339e-01 -1.7729467153549194e-01</leafValues></_>
        <_>
          <internalNodes>
            0 -1 239 -7.4362743180245161e-04</internalNodes>
          <leafValues>
            3.9440760016441345e-01 -2.5975754857063293e-01</leafValues></_>
        <_>
          <internalNodes>
            0 -1 188 -3.6341873928904533e-03</internalNodes>
          <leafValues>
            8.2133632898330688e-01 -1.1157787591218948e-01</leafValues></_>
        <_>
          <internalNodes>
            0 -1 176 1.7827730334829539e-04</internalNodes>
          <leafValues>
            -2.0467644929885864e-01 4.4118922948837280e-01</leafValues></_>
        <_>
          <internalNodes>
            0 -1 211 1.8496506381779909e-03</internalNodes>
          <leafValues>
            -1.7311498522758484e-01 6.0840976238250732e-01</leafValues></_>
        <_>
          <internalNodes>
            0 -1 71 -4.6500557800754905e-04</internalNodes>
          <leafValues>
            5.3488969802856445e-01 -1.6290007531642914e-01</leafValues></_>
        <_>
          <internalNodes>
            0 -1 233 -4.9219066277146339e-03</internalNodes>
          <leafValues>
            6.9273716211318970e-01 -1.5333448350429535e-01</leafValues></_>
        <_>
          <internalNodes>
            0 -1 225 -1.5448464080691338e-02</internalNodes>
          <leafValues>
            7.1811962127685547e-01 -1.3689216971397400e-01</leafValues></_>
        <_>
          <internalNodes>
            0 -1 162 1.0458770208060741e-02</internalNodes>
          <leafValues>
            -2.0916968584060669e-01 4.5244660973548889e-01</leafValues></_>
        <_>
          <internalNodes>
            0 -1 179 -3.6473576910793781e-03</internalNodes>
          <leafValues>
            4.7982484102249146e-01 -2.1131072938442230e-01</leafValues></_>
        <_>
          <internalNodes>
            0 -1 82 -1.3662147335708141e-02</internalNodes>
          <leafValues>
            -4.9683919548988342e-01 2.3204569518566132e-01</leafValues></_>
        <_>
          <internalNodes>
            0 -1 27 -3.0092494562268257e-02</internalNodes>
          <leafValues>
            -5.4167532920837402e-01 1.9137984514236450e-01</leafValues></_>
        <_>
          <internalNodes>
            0 -1 213 9.0068280696868896e-03</internalNodes>
          <leafValues>
            -1.7211629450321198e-01 5.9716147184371948e-01</leafValues></_>
        <_>
          <internalNodes>
            0 -1 148 4.0073823183774948e-03</internalNodes>
          <leafValues>
            1.7207673192024231e-01 -6.8154174089431763e-01</leafValues></_>
        <_>
          <internalNodes>
            0 -1 223 -4.9087246879935265e-03</internalNodes>
          <leafValues>
            6.0012489557266235e-01 -1.8425013124942780e-01</leafValues></_>
        <_>
          <internalNodes>
            0 -1 156 1.9647000590339303e-04</internalNodes>
          <leafValues>
            -2.0497566461563110e-01 4.2358061671257019e-01</leafValues></_>
        <_>
          <internalNodes>
            0 -1 167 1.9677274394780397e-04</internalNodes>
          <leafValues>
            -2.2776456177234650e-01 4.6883720159530640e-01</leafValues></_>
        <_>
          <internalNodes>
            0 -1 155 4.1795270517468452e-03</internalNodes>
          <leafValues>
            -1.1249729990959167e-01 7.8999990224838257e-01</leafValues></_></weakClassifiers></_>
    <!-- stage 5 -->
    <_>
      <maxWeakCount>22</maxWeakCount>
      <stageThreshold>-8.8205772638320923e-01</stageThreshold>
      <weakClassifiers>
        <_>
          <internalNodes>
            0 -1 182 -7.0487824268639088e-04</internalNodes>
          <leafValues>
            -5.5555558204650879e-01 3.8129496574401855e-01</leafValues></_>
        <_>
          <internalNodes>
            0 -1 181 3.8521729875355959e-03</internalNodes>
          <leafValues>
            1.3250795006752014e-01 -8.1485676765441895e-01</leafValues></_>
        <_>
          <internalNodes>
            0 -1 131 -1.5245815739035606e-03</internalNodes>
          <leafValues>
            7.7288055419921875e-01 -1.4187066256999969e-01</leafValues></_>
        <_>
          <internalNodes>
            0 -1 114 4.2147547937929630e-03</internalNodes>
          <leafValues>
            -1.2098834663629532e-01 7.0147609710693359e-01</leafValues></_>
        <_>
          <internalNodes>
            0 -1 133 2.0421990193426609e-03</internalNodes>
          <leafValues>
            -1.1293639987707138e-01 7.0719617605209351e-01</leafValues></_>
        <_>
          <internalNodes>
            0 -1 204 5.4211798124015331e-04</internalNodes>
          <leafValues>
            2.1432758867740631e-01 -4.3131396174430847e-01</leafValues></_>
        <_>
          <internalNodes>
            0 -1 33 5.2733710035681725e-03</internalNodes>
          <leafValues>
            -2.4011079967021942e-01 4.2178314924240112e-01</leafValues></_>
        <_>
          <internalNodes>
            0 -1 164 1.2536429567262530e-03</internalNodes>
          <leafValues>
            -1.2716519832611084e-01 6.3624054193496704e-01</leafValues></_>
        <_>
          <internalNodes>
            0 -1 92 -3.5227779299020767e-02</internalNodes>
          <leafValues>
            -6.3412487506866455e-01 1.5768539905548096e-01</leafValues></_>
        <_>
          <internalNodes>
            0 -1 207 5.5019306018948555e-03</internalNodes>
          <leafValues>
            -2.0930585265159607e-01 4.8494154214859009e-01</leafValues></_>
        <_>
          <internalNodes>
            0 -1 8 -2.4088150262832642e-01</internalNodes>
          <leafValues>
            -9.2457556724548340e-01 1.3218916952610016e-01</leafValues></_>
        <_>
          <internalNodes>
            0 -1 229 4.6127755194902420e-03</internalNodes>
          <leafValues>
            -1.6314305365085602e-01 7.1226656436920166e-01</leafValues></_>
        <_>
          <internalNodes>
            0 -1 147 -1.2184511870145798e-03</internalNodes>
          <leafValues>
            4.7237831354141235e-01 -1.7475003004074097e-01</leafValues></_>
        <_>
          <internalNodes>
            0 -1 240 2.0687186624854803e-03</internalNodes>
          <leafValues>
            -1.6316214203834534e-01 5.9471505880355835e-01</leafValues></_>
        <_>
          <internalNodes>
            0 -1 100 -3.2184459269046783e-02</internalNodes>
          <leafValues>
            -8.9459770917892456e-01 1.1684888601303101e-01</leafValues></_>
        <_>
          <internalNodes>
            0 -1 256 2.6895487681031227e-03</internalNodes>
          <leafValues>
            2.3604287207126617e-01 -3.6955282092094421e-01</leafValues></_>
        <_>
          <internalNodes>
            0 -1 195 -1.3770279474556446e-03</internalNodes>
          <leafValues>
            5.4080563783645630e-01 -1.6483049094676971e-01</leafValues></_>
        <_>
          <internalNodes>
            0 -1 22 -1.6075468156486750e-03</internalNodes>
          <leafValues>
            5.8470344543457031e-01 -1.4413022994995117e-01</leafValues></_>
        <_>
          <internalNodes>
            0 -1 231 -3.7299110554158688e-03</internalNodes>
          <leafValues>
            6.1450892686843872e-01 -1.1774100363254547e-01</leafValues></_>
        <_>
          <internalNodes>
            0 -1 56 -9.0380227193236351e-03</internalNodes>
          <leafValues>
            -4.1243338584899902e-01 2.3449844121932983e-01</leafValues></_>
        <_>
          <internalNodes>
            0 -1 121 -2.3380756378173828e-02</internalNodes>
          <leafValues>
            -5.7839864492416382e-01 1.4665770530700684e-01</leafValues></_>
        <_>
          <internalNodes>
            0 -1 69 1.5744630247354507e-02</internalNodes>
          <leafValues>
            -1.4838083088397980e-01 6.3835549354553223e-01</leafValues></_></weakClassifiers></_>
    <!-- stage 6 -->
    <_>
      <maxWeakCount>22</maxWeakCount>
      <stageThreshold>-1.1191331148147583e+00</stageThreshold>
      <weakClassifiers>
        <_>
          <internalNodes>
            0 -1 28 -3.1526058912277222e-02</internalNodes>
          <leafValues>
            -7.0212763547897339e-01 3.7018895149230957e-01</leafValues></_>
        <_>
          <internalNodes>
            0 -1 35 -2.3547699674963951e-03</internalNodes>
          <leafValues>
            6.4646583795547485e-01 -1.1511063575744629e-01</leafValues></_>
        <_>
          <internalNodes>
            0 -1 84 5.6475684046745300e-02</internalNodes>
          <leafValues>
            -1.8325515091419220e-01 5.5659312009811401e-01</leafValues></_>
        <_>
          <internalNodes>
            0 -1 75 -5.4066352546215057e-02</internalNodes>
          <leafValues>
            -8.2944273948669434e-01 1.3588622212409973e-01</leafValues></_>
        <_>
          <internalNodes>
            0 -1 29 2.9991129413247108e-03</internalNodes>
          <leafValues>
            -1.8439051508903503e-01 6.5318816900253296e-01</leafValues></_>
        <_>
          <internalNodes>
            0 -1 42 1.6393875703215599e-03</internalNodes>
          <leafValues>
            -1.7695547640323639e-01 5.7363820075988770e-01</leafValues></_>
        <_>
          <internalNodes>
            0 -1 110 2.2567948326468468e-02</internalNodes>
          <leafValues>
            1.2805376946926117e-01 -8.3544766902923584e-01</leafValues></_>
        <_>
          <internalNodes>
            0 -1 220 4.4718668796122074e-03</internalNodes>
          <leafValues>
            -1.4921456575393677e-01 7.3463982343673706e-01</leafValues></_>
        <_>
          <internalNodes>
            0 -1 46 1.4925653114914894e-02</internalNodes>
          <leafValues>
            -1.7983144521713257e-01 5.0366550683975220e-01</leafValues></_>
        <_>
          <internalNodes>
            0 -1 171 1.0766519699245691e-04</internalNodes>
          <leafValues>
            -2.2475253045558929e-01 4.0149357914924622e-01</leafValues></_>
        <_>
          <internalNodes>
            0 -1 47 -1.4336357126012444e-03</internalNodes>
          <leafValues>
            6.5844351053237915e-01 -1.6226196289062500e-01</leafValues></_>
        <_>
          <internalNodes>
            0 -1 217 3.8016326725482941e-03</internalNodes>
          <leafValues>
            -1.2574987113475800e-01 6.2998074293136597e-01</leafValues></_>
        <_>
          <internalNodes>
            0 -1 112 -3.0871811322867870e-03</internalNodes>
          <leafValues>
            6.4708203077316284e-01 -1.3404700160026550e-01</leafValues></_>
        <_>
          <internalNodes>
            0 -1 183 2.0823907107114792e-03</internalNodes>
          <leafValues>
            1.5441158413887024e-01 -6.4443391561508179e-01</leafValues></_>
        <_>
          <internalNodes>
            0 -1 93 -1.4797821640968323e-02</internalNodes>
          <leafValues>
            6.4411610364913940e-01 -1.5261358022689819e-01</leafValues></_>
        <_>
          <internalNodes>
            0 -1 58 1.2351265177130699e-02</internalNodes>
          <leafValues>
            2.0662763714790344e-01 -4.9993416666984558e-01</leafValues></_>
        <_>
          <internalNodes>
            0 -1 218 -1.9773067906498909e-03</internalNodes>
          <leafValues>
            -6.8673568964004517e-01 1.3065339624881744e-01</leafValues></_>
        <_>
          <internalNodes>
            0 -1 38 -4.9682572484016418e-02</internalNodes>
          <leafValues>
            -8.6820024251937866e-01 1.0541214793920517e-01</leafValues></_>
        <_>
          <internalNodes>
            0 -1 88 -2.6277753058820963e-03</internalNodes>
          <leafValues>
            5.1729089021682739e-01 -2.2477002441883087e-01</leafValues></_>
        <_>
          <internalNodes>
            0 -1 128 -6.5901987254619598e-03</internalNodes>
          <leafValues>
            5.7527393102645874e-01 -1.4701597392559052e-01</leafValues></_>
        <_>
          <internalNodes>
            0 -1 45 -9.0003153309226036e-04</internalNodes>
          <leafValues>
            6.6843813657760620e-01 -1.2537977099418640e-01</leafValues></_>
        <_>
          <internalNodes>
            0 -1 107 -2.7512267231941223e-02</internalNodes>
          <leafValues>
            -6.7203181982040405e-01 1.5800039470195770e-01</leafValues></_></weakClassifiers></_>
    <!-- stage 7 -->
    <_>
      <maxWeakCount>24</maxWeakCount>
      <stageThreshold>-1.1203147172927856e+00</stageThreshold>
      <weakClassifiers>
        <_>
          <internalNodes>
            0 -1 76 -1.5119425952434540e-02</internalNodes>
          <leafValues>
            -8.5416668653488159e-01 3.4735414385795593e-01</leafValues></_>
        <_>
          <internalNodes>
            0 -1 180 6.7009003832936287e-03</internalNodes>
          <leafValues>
            -1.3424795866012573e-01 6.3322436809539795e-01</leafValues></_>
        <_>
          <internalNodes>
            0 -1 160 -1.7234429717063904e-02</internalNodes>
          <leafValues>
            3.9496505260467529e-01 -2.5320822000503540e-01</leafValues></_>
        <_>
          <internalNodes>
            0 -1 192 8.1385998055338860e-04</internalNodes>
          <leafValues>
            1.3604636490345001e-01 -6.4704936742782593e-01</leafValues></_>
        <_>
          <internalNodes>
            0 -1 12 4.1539609432220459e-02</internalNodes>
          <leafValues>
            -1.7532490193843842e-01 5.6712716817855835e-01</leafValues></_>
        <_>
          <internalNodes>
            0 -1 141 -3.2130980398505926e-03</internalNodes>
          <leafValues>
            7.4286317825317383e-01 -1.3204391300678253e-01</leafValues></_>
        <_>
          <internalNodes>
            0 -1 206 -1.4728477690368891e-03</internalNodes>
          <leafValues>
            5.2400189638137817e-01 -1.5985614061355591e-01</leafValues></_>
        <_>
          <internalNodes>
            0 -1 196 3.9999689906835556e-03</internalNodes>
          <leafValues>
            -1.1703394353389740e-01 7.3485088348388672e-01</leafValues></_>
        <_>
          <internalNodes>
            0 -1 194 1.6878837486729026e-03</internalNodes>
          <leafValues>
            -1.2352944165468216e-01 6.6630649566650391e-01</leafValues></_>
        <_>
          <internalNodes>
            0 -1 253 8.0217223148792982e-04</internalNodes>
          <leafValues>
            -1.2801004946231842e-01 6.0238045454025269e-01</leafValues></_>
        <_>
          <internalNodes>
            0 -1 172 5.0010876730084419e-03</internalNodes>
          <leafValues>
            1.3992902636528015e-01 -7.2072899341583252e-01</leafValues></_>
        <_>
          <internalNodes>
            0 -1 250 -1.0964414104819298e-03</internalNodes>
          <leafValues>
            5.4047232866287231e-01 -2.0351478457450867e-01</leafValues></_>
        <_>
          <internalNodes>
            0 -1 136 -2.4024754762649536e-02</internalNodes>
          <leafValues>
            -9.7992151975631714e-01 1.2991499900817871e-01</leafValues></_>
        <_>
          <internalNodes>
            0 -1 144 9.0522747486829758e-03</internalNodes>
          <leafValues>
            8.3565399050712585e-02 -7.7981990575790405e-01</leafValues></_>
        <_>
          <internalNodes>
            0 -1 228 -6.7349128425121307e-02</internalNodes>
          <leafValues>
            -4.5158156752586365e-01 2.0016463100910187e-01</leafValues></_>
        <_>
          <internalNodes>
            0 -1 73 4.3766379356384277e-02</internalNodes>
          <leafValues>
            1.5643320977687836e-01 -6.5285235643386841e-01</leafValues></_>
        <_>
          <internalNodes>
            0 -1 178 -6.2911510467529297e-03</internalNodes>
          <leafValues>
            6.2036615610122681e-01 -1.8085411190986633e-01</leafValues></_>
        <_>
          <internalNodes>
            0 -1 30 1.8401429057121277e-02</internalNodes>
          <leafValues>
            1.8198406696319580e-01 -5.8921873569488525e-01</leafValues></_>
        <_>
          <internalNodes>
            0 -1 245 1.6264731530100107e-03</internalNodes>
          <leafValues>
            -2.0815908908843994e-01 5.0464791059494019e-01</leafValues></_>
        <_>
          <internalNodes>
            0 -1 135 1.4833126217126846e-02</internalNodes>
          <leafValues>
            1.5516601502895355e-01 -6.6565686464309692e-01</leafValues></_>
        <_>
          <internalNodes>
            0 -1 175 3.5155718214809895e-03</internalNodes>
          <leafValues>
            -1.7764218151569366e-01 5.7918387651443481e-01</leafValues></_>
        <_>
          <internalNodes>
            0 -1 198 -7.1756592951714993e-03</internalNodes>
          <leafValues>
            7.1398246288299561e-01 -1.3263952732086182e-01</leafValues></_>
        <_>
          <internalNodes>
            0 -1 199 4.8554474487900734e-03</internalNodes>
          <leafValues>
            -1.1285749077796936e-01 7.9380410909652710e-01</leafValues></_>
        <_>
          <internalNodes>
            0 -1 138 -2.1599963307380676e-02</internalNodes>
          <leafValues>
            6.4270210266113281e-01 -1.6035747528076172e-01</leafValues></_></weakClassifiers></_>
    <!-- stage 8 -->
    <_>
      <maxWeakCount>16</maxWeakCount>
      <stageThreshold>-7.2202509641647339e-01</stageThreshold>
      <weakClassifiers>
        <_>
          <internalNodes>
            0 -1 44 1.4260134100914001e-01</internalNodes>
          <leafValues>
            3.7935844063758850e-01 -8.3823531866073608e-01</leafValues></_>
        <_>
          <internalNodes>
            0 -1 11 -6.4519926905632019e-02</internalNodes>
          <leafValues>
            -5.5544847249984741e-01 2.2199323773384094e-01</leafValues></_>
        <_>
          <internalNodes>
            0 -1 157 -5.0393054261803627e-03</internalNodes>
          <leafValues>
            5.2930682897567749e-01 -2.2572691738605499e-01</leafValues></_>
        <_>
          <internalNodes>
            0 -1 132 -1.4795786701142788e-03</internalNodes>
          <leafValues>
            8.0283683538436890e-01 -1.6737249493598938e-01</leafValues></_>
        <_>
          <internalNodes>
            0 -1 246 -3.9360793307423592e-03</internalNodes>
          <leafValues>
            5.4430323839187622e-01 -1.8224655091762543e-01</leafValues></_>
        <_>
          <internalNodes>
            0 -1 68 -2.6281001046299934e-03</internalNodes>
          <leafValues>
            4.0581953525543213e-01 -2.9131191968917847e-01</leafValues></_>
        <_>
          <internalNodes>
            0 -1 63 -4.1428990662097931e-03</internalNodes>
          <leafValues>
            5.4780519008636475e-01 -1.9074261188507080e-01</leafValues></_>
        <_>
          <internalNodes>
            0 -1 248 -8.0641388194635510e-04</internalNodes>
          <leafValues>
            5.5203527212142944e-01 -1.9112022221088409e-01</leafValues></_>
        <_>
          <internalNodes>
            0 -1 59 4.3343855068087578e-03</internalNodes>
          <leafValues>
            -1.6206426918506622e-01 5.7731080055236816e-01</leafValues></_>
        <_>
          <internalNodes>
            0 -1 62 -2.8178277425467968e-03</internalNodes>
          <leafValues>
            4.5023000240325928e-01 -2.0173712074756622e-01</leafValues></_>
        <_>
          <internalNodes>
            0 -1 161 -1.2591881677508354e-03</internalNodes>
          <leafValues>
            -5.6680399179458618e-01 1.8182024359703064e-01</leafValues></_>
        <_>
          <internalNodes>
            0 -1 0 -1.6146388370543718e-03</internalNodes>
          <leafValues>
            -4.7456294298171997e-01 2.0926474034786224e-01</leafValues></_>
        <_>
          <internalNodes>
            0 -1 145 -1.6382255125790834e-03</internalNodes>
          <leafValues>
            4.6071931719779968e-01 -2.4908411502838135e-01</leafValues></_>
        <_>
          <internalNodes>
            0 -1 142 4.3257111683487892e-03</internalNodes>
          <leafValues>
            -1.7798891663551331e-01 5.5040895938873291e-01</leafValues></_>
        <_>
          <internalNodes>
            0 -1 153 -6.8760793656110764e-03</internalNodes>
          <leafValues>
            7.6852715015411377e-01 -1.2133834511041641e-01</leafValues></_>
        <_>
          <internalNodes>
            0 -1 215 -1.4161171857267618e-03</internalNodes>
          <leafValues>
            5.1425886154174805e-01 -1.6687457263469696e-01</leafValues></_></weakClassifiers></_>
    <!-- stage 9 -->
    <_>
      <maxWeakCount>23</maxWeakCount>
      <stageThreshold>-1.3435651063919067e+00</stageThreshold>
      <weakClassifiers>
        <_>
          <internalNodes>
            0 -1 95 7.2272554039955139e-02</internalNodes>
          <leafValues>
            4.0044742822647095e-01 -4.6724891662597656e-01</leafValues></_>
        <_>
          <internalNodes>
            0 -1 243 6.3581799622625113e-04</internalNodes>
          <leafValues>
            -1.6358625888824463e-01 4.8835134506225586e-01</leafValues></_>
        <_>
          <internalNodes>
            0 -1 43 -3.2169762998819351e-03</internalNodes>
          <leafValues>
            3.2469302415847778e-01 -2.5134953856468201e-01</leafValues></_>
        <_>
          <internalNodes>
            0 -1 2 3.6674015223979950e-02</internalNodes>
          <leafValues>
            -3.3951684832572937e-01 2.9993683099746704e-01</leafValues></_>
        <_>
          <internalNodes>
            0 -1 242 3.0356606002897024e-03</internalNodes>
          <leafValues>
            -9.6296265721321106e-02 7.0903408527374268e-01</leafValues></_>
        <_>
          <internalNodes>
            0 -1 247 -1.7216431442648172e-03</internalNodes>
          <leafValues>
            6.9304203987121582e-01 -1.6165226697921753e-01</leafValues></_>
        <_>
          <internalNodes>
            0 -1 230 2.7149766683578491e-03</internalNodes>
          <leafValues>
            -1.2872746586799622e-01 7.3645138740539551e-01</leafValues></_>
        <_>
          <internalNodes>
            0 -1 216 -2.9976749792695045e-03</internalNodes>
          <leafValues>
            4.9216863512992859e-01 -1.9415934383869171e-01</leafValues></_>
        <_>
          <internalNodes>
            0 -1 244 2.0881509408354759e-03</internalNodes>
          <leafValues>
            -9.3104206025600433e-02 9.1731464862823486e-01</leafValues></_>
        <_>
          <internalNodes>
            0 -1 85 2.7295801788568497e-02</internalNodes>
          <leafValues>
            1.9426645338535309e-01 -5.3352636098861694e-01</leafValues></_>
        <_>
          <internalNodes>
            0 -1 177 -3.7508909590542316e-03</internalNodes>
          <leafValues>
            -8.0486029386520386e-01 1.1126635968685150e-01</leafValues></_>
        <_>
          <internalNodes>
            0 -1 170 8.9714440036914311e-06</internalNodes>
          <leafValues>
            -3.8402956724166870e-01 2.3374016582965851e-01</leafValues></_>
        <_>
          <internalNodes>
            0 -1 5 -1.3685587327927351e-03</internalNodes>
          <leafValues>
            -4.7704681754112244e-01 2.0011611282825470e-01</leafValues></_>
        <_>
          <internalNodes>
            0 -1 39 -5.3192615509033203e-02</internalNodes>
          <leafValues>
            -5.7803559303283691e-01 1.6407154500484467e-01</leafValues></_>
        <_>
          <internalNodes>
            0 -1 252 -5.0144083797931671e-03</internalNodes>
          <leafValues>
            4.8194026947021484e-01 -2.0301823318004608e-01</leafValues></_>
        <_>
          <internalNodes>
            0 -1 116 -1.1450328864157200e-02</internalNodes>
          <leafValues>
            -5.9306597709655762e-01 1.6668692231178284e-01</leafValues></_>
        <_>
          <internalNodes>
            0 -1 25 4.0307589806616306e-03</internalNodes>
          <leafValues>
            -1.3031814992427826e-01 7.9035878181457520e-01</leafValues></_>
        <_>
          <internalNodes>
            0 -1 154 3.5600580740720034e-03</internalNodes>
          <leafValues>
            1.1909293383359909e-01 -8.9248758554458618e-01</leafValues></_>
        <_>
          <internalNodes>
            0 -1 202 -6.1794333159923553e-03</internalNodes>
          <leafValues>
            8.1164133548736572e-01 -1.3076737523078918e-01</leafValues></_>
        <_>
          <internalNodes>
            0 -1 125 -2.4851243942975998e-03</internalNodes>
          <leafValues>
            8.6828404664993286e-01 -8.2738198339939117e-02</leafValues></_>
        <_>
          <internalNodes>
            0 -1 72 8.3325058221817017e-04</internalNodes>
          <leafValues>
            -1.0926731675863266e-01 7.1384245157241821e-01</leafValues></_>
        <_>
          <internalNodes>
            0 -1 74 4.5029824832454324e-04</internalNodes>
          <leafValues>
            3.2102033495903015e-01 -3.2434856891632080e-01</leafValues></_>
        <_>
          <internalNodes>
            0 -1 83 -1.5564974397420883e-02</internalNodes>
          <leafValues>
            -5.5152165889739990e-01 1.8170592188835144e-01</leafValues></_></weakClassifiers></_>
    <!-- stage 10 -->
    <_>
      <maxWeakCount>21</maxWeakCount>
      <stageThreshold>-9.3528807163238525e-01</stageThreshold>
      <weakClassifiers>
        <_>
          <internalNodes>
            0 -1 65 1.7241401597857475e-02</internalNodes>
          <leafValues>
            3.5655736923217773e-01 -8.6792451143264771e-01</leafValues></_>
        <_>
          <internalNodes>
            0 -1 7 1.2311895377933979e-02</internalNodes>
          <leafValues>
            -2.1208420395851135e-01 6.2093627452850342e-01</leafValues></_>
        <_>
          <internalNodes>
            0 -1 108 6.0011100023984909e-02</internalNodes>
          <leafValues>
            1.2677037715911865e-01 -8.4092402458190918e-01</leafValues></_>
        <_>
          <internalNodes>
            0 -1 1 -8.2658976316452026e-03</internalNodes>
          <leafValues>
            -5.0761395692825317e-01 1.8394881486892700e-01</leafValues></_>
        <_>
          <internalNodes>
            0 -1 119 2.0892410539090633e-03</internalNodes>
          <leafValues>
            -1.3810747861862183e-01 7.9052639007568359e-01</leafValues></_>
        <_>
          <internalNodes>
            0 -1 64 -2.9892504215240479e-02</internalNodes>
          <leafValues>
            -5.5767387151718140e-01 2.0400597155094147e-01</leafValues></_>
        <_>
          <internalNodes>
            0 -1 151 3.2930332235991955e-03</internalNodes>
          <leafValues>
            -2.0867946743965149e-01 6.0164427757263184e-01</leafValues></_>
        <_>
          <internalNodes>
            0 -1 237 6.0822023078799248e-03</internalNodes>
          <leafValues>
            -1.7711921036243439e-01 5.5188626050949097e-01</leafValues></_>
        <_>
          <internalNodes>
            0 -1 52 2.2055421024560928e-02</internalNodes>
          <leafValues>
            1.7276509106159210e-01 -5.4867172241210938e-01</leafValues></_>
        <_>
          <internalNodes>
            0 -1 238 -2.3884191177785397e-03</internalNodes>
          <leafValues>
            6.2607222795486450e-01 -1.6595618426799774e-01</leafValues></_>
        <_>
          <internalNodes>
            0 -1 255 3.1079980544745922e-04</internalNodes>
          <leafValues>
            -2.4854123592376709e-01 4.2508429288864136e-01</leafValues></_>
        <_>
          <internalNodes>
            0 -1 152 -7.9026967287063599e-03</internalNodes>
          <leafValues>
            6.4019286632537842e-01 -1.2873601913452148e-01</leafValues></_>
        <_>
          <internalNodes>
            0 -1 163 -7.2416285984218121e-03</internalNodes>
          <leafValues>
            8.5963976383209229e-01 -9.3993976712226868e-02</leafValues></_>
        <_>
          <internalNodes>
            0 -1 90 2.8086317703127861e-02</internalNodes>
          <leafValues>
            1.5700815618038177e-01 -6.8160653114318848e-01</leafValues></_>
        <_>
          <internalNodes>
            0 -1 251 -2.1687541157007217e-03</internalNodes>
          <leafValues>
            5.4183441400527954e-01 -1.9325323402881622e-01</leafValues></_>
        <_>
          <internalNodes>
            0 -1 80 2.1151066757738590e-03</internalNodes>
          <leafValues>
            -1.2335373461246490e-01 6.8887120485305786e-01</leafValues></_>
        <_>
          <internalNodes>
            0 -1 98 -7.3291326407343149e-04</internalNodes>
          <leafValues>
            5.5983203649520874e-01 -1.7795252799987793e-01</leafValues></_>
        <_>
          <internalNodes>
            0 -1 111 1.4866336714476347e-03</internalNodes>
          <leafValues>
            -1.4608521759510040e-01 6.0548949241638184e-01</leafValues></_>
        <_>
          <internalNodes>
            0 -1 61 -9.5603838562965393e-03</internalNodes>
          <leafValues>
            -5.5906617641448975e-01 2.1006847918033600e-01</leafValues></_>
        <_>
          <internalNodes>
            0 -1 4 -5.5693782633170485e-04</internalNodes>
          <leafValues>
            -4.0426501631736755e-01 2.3756785690784454e-01</leafValues></_>
        <_>
          <internalNodes>
            0 -1 254 -3.1655081547796726e-03</internalNodes>
          <leafValues>
            6.3226103782653809e-01 -1.4852434396743774e-01</leafValues></_></weakClassifiers></_>
    <!-- stage 11 -->
    <_>
      <maxWeakCount>20</maxWeakCount>
      <stageThreshold>-8.3671116828918457e-01</stageThreshold>
      <weakClassifiers>
        <_>
          <internalNodes>
            0 -1 137 4.9303054809570312e-02</internalNodes>
          <leafValues>
            3.6161336302757263e-01 -6.8181818723678589e-01</leafValues></_>
        <_>
          <internalNodes>
            0 -1 10 -1.6657406464219093e-02</internalNodes>
          <leafValues>
            4.1674599051475525e-01 -2.1383157372474670e-01</leafValues></_>
        <_>
          <internalNodes>
            0 -1 18 2.3392881266772747e-03</internalNodes>
          <leafValues>
            -1.6869242489337921e-01 5.5422437191009521e-01</leafValues></_>
        <_>
          <internalNodes>
            0 -1 212 2.0071924664080143e-03</internalNodes>
          <leafValues>
            -1.7420153319835663e-01 6.0955780744552612e-01</leafValues></_>
        <_>
          <internalNodes>
            0 -1 79 -4.6394988894462585e-03</internalNodes>
          <leafValues>
            7.3889988660812378e-01 -1.2594985961914062e-01</leafValues></_>
        <_>
          <internalNodes>
            0 -1 94 -7.2631411254405975e-02</internalNodes>
          <leafValues>
            -4.8172584176063538e-01 2.0699980854988098e-01</leafValues></_>
        <_>
          <internalNodes>
            0 -1 34 -3.5512790083885193e-02</internalNodes>
          <leafValues>
            6.5491902828216553e-01 -1.6708990931510925e-01</leafValues></_>
        <_>
          <internalNodes>
            0 -1 66 4.2115729302167892e-03</internalNodes>
          <leafValues>
            -1.2704844772815704e-01 6.0159510374069214e-01</leafValues></_>
        <_>
          <internalNodes>
            0 -1 31 2.4424379225820303e-03</internalNodes>
          <leafValues>
            -1.5907962620258331e-01 5.7041418552398682e-01</leafValues></_>
        <_>
          <internalNodes>
            0 -1 129 3.0947159975767136e-03</internalNodes>
          <leafValues>
            -1.4286626875400543e-01 5.5921220779418945e-01</leafValues></_>
        <_>
          <internalNodes>
            0 -1 36 4.3144924566149712e-03</internalNodes>
          <leafValues>
            -2.5101327896118164e-01 3.6634641885757446e-01</leafValues></_>
        <_>
          <internalNodes>
            0 -1 115 -4.3054018169641495e-03</internalNodes>
          <leafValues>
            5.4004448652267456e-01 -1.6079224646091461e-01</leafValues></_>
        <_>
          <internalNodes>
            0 -1 122 2.7320473454892635e-03</internalNodes>
          <leafValues>
            -1.6046622395515442e-01 5.2104687690734863e-01</leafValues></_>
        <_>
          <internalNodes>
            0 -1 200 -8.0968346446752548e-03</internalNodes>
          <leafValues>
            -5.8064275979995728e-01 1.7574703693389893e-01</leafValues></_>
        <_>
          <internalNodes>
            0 -1 241 -9.1212670668028295e-05</internalNodes>
          <leafValues>
            4.6054625511169434e-01 -2.1203130483627319e-01</leafValues></_>
        <_>
          <internalNodes>
            0 -1 106 -2.1633626893162727e-03</internalNodes>
          <leafValues>
            -5.6511366367340088e-01 1.7968550324440002e-01</leafValues></_>
        <_>
          <internalNodes>
            0 -1 123 -4.1079400107264519e-03</internalNodes>
          <leafValues>
            6.5970712900161743e-01 -1.3329583406448364e-01</leafValues></_>
        <_>
          <internalNodes>
            0 -1 226 3.2364483922719955e-03</internalNodes>
          <leafValues>
            -1.4779019355773926e-01 5.4231035709381104e-01</leafValues></_>
        <_>
          <internalNodes>
            0 -1 20 3.4393575042486191e-03</internalNodes>
          <leafValues>
            -1.6818681359291077e-01 5.3662669658660889e-01</leafValues></_>
        <_>
          <internalNodes>
            0 -1 37 1.1107798665761948e-02</internalNodes>
          <leafValues>
            2.2339715063571930e-01 -4.0041306614875793e-01</leafValues></_></weakClassifiers></_>
    <!-- stage 12 -->
    <_>
      <maxWeakCount>26</maxWeakCount>
      <stageThreshold>-7.4989628791809082e-01</stageThreshold>
      <weakClassifiers>
        <_>
          <internalNodes>
            0 -1 6 -1.0946545004844666e-01</internalNodes>
          <leafValues>
            -5.4117649793624878e-01 3.7285715341567993e-01</leafValues></_>
        <_>
          <internalNodes>
            0 -1 101 1.8335567787289619e-02</internalNodes>
          <leafValues>
            1.4028188586235046e-01 -6.2707930803298950e-01</leafValues></_>
        <_>
          <internalNodes>
            0 -1 173 -7.7120994683355093e-04</internalNodes>
          <leafValues>
            5.0586163997650146e-01 -1.7629384994506836e-01</leafValues></_>
        <_>
          <internalNodes>
            0 -1 140 4.3364223092794418e-03</internalNodes>
          <leafValues>
            -1.1337617039680481e-01 6.8910866975784302e-01</leafValues></_>
        <_>
          <internalNodes>
            0 -1 219 2.4933684617280960e-03</internalNodes>
          <leafValues>
            -1.1370139569044113e-01 6.9143742322921753e-01</leafValues></_>
        <_>
          <internalNodes>
            0 -1 97 -3.0717879533767700e-02</internalNodes>
          <leafValues>
            -6.9429516792297363e-01 1.2074254453182220e-01</leafValues></_>
        <_>
          <internalNodes>
            0 -1 184 1.8122725188732147e-02</internalNodes>
          <leafValues>
            -1.4073859155178070e-01 6.9773322343826294e-01</leafValues></_>
        <_>
          <internalNodes>
            0 -1 191 2.9937399085611105e-03</internalNodes>
          <leafValues>
            -1.6248512268066406e-01 5.6576967239379883e-01</leafValues></_>
        <_>
          <internalNodes>
            0 -1 193 -9.5296869403682649e-05</internalNodes>
          <leafValues>
            -4.1217422485351562e-01 2.2312469780445099e-01</leafValues></_>
        <_>
          <internalNodes>
            0 -1 249 -6.7158495076000690e-03</internalNodes>
          <leafValues>
            6.4005869626998901e-01 -1.3930088281631470e-01</leafValues></_>
        <_>
          <internalNodes>
            0 -1 210 -4.5777703635394573e-03</internalNodes>
          <leafValues>
            6.4166021347045898e-01 -1.2946143746376038e-01</leafValues></_>
        <_>
          <internalNodes>
            0 -1 205 -6.6926039755344391e-02</internalNodes>
          <leafValues>
            -6.2512987852096558e-01 1.6598714888095856e-01</leafValues></_>
        <_>
          <internalNodes>
            0 -1 104 1.0861132293939590e-02</internalNodes>
          <leafValues>
            1.1399334669113159e-01 -6.4132082462310791e-01</leafValues></_>
        <_>
          <internalNodes>
            0 -1 60 -2.4523981846868992e-03</internalNodes>
          <leafValues>
            6.5467923879623413e-01 -1.5156185626983643e-01</leafValues></_>
        <_>
          <internalNodes>
            0 -1 91 -1.7698010429739952e-02</internalNodes>
          <leafValues>
            -9.2619794607162476e-01 1.2861846387386322e-01</leafValues></_>
        <_>
          <internalNodes>
            0 -1 227 3.8631975185126066e-03</internalNodes>
          <leafValues>
            -1.7243766784667969e-01 6.5094715356826782e-01</leafValues></_>
        <_>
          <internalNodes>
            0 -1 234 -3.5574473440647125e-03</internalNodes>
          <leafValues>
            6.1656409502029419e-01 -1.3615658879280090e-01</leafValues></_>
        <_>
          <internalNodes>
            0 -1 203 1.0942505672574043e-02</internalNodes>
          <leafValues>
            -1.9384893774986267e-01 5.1381009817123413e-01</leafValues></_>
        <_>
          <internalNodes>
            0 -1 67 1.3959604548290372e-03</internalNodes>
          <leafValues>
            -1.4848613739013672e-01 5.3244858980178833e-01</leafValues></_>
        <_>
          <internalNodes>
            0 -1 54 2.9186721891164780e-02</internalNodes>
          <leafValues>
            1.4781643450260162e-01 -7.5962829589843750e-01</leafValues></_>
        <_>
          <internalNodes>
            0 -1 19 -6.1962264589965343e-04</internalNodes>
          <leafValues>
            3.8748517632484436e-01 -2.4431653320789337e-01</leafValues></_>
        <_>
          <internalNodes>
            0 -1 168 4.9707409925758839e-03</internalNodes>
          <leafValues>
            9.9302269518375397e-02 -8.7308651208877563e-01</leafValues></_>
        <_>
          <internalNodes>
            0 -1 13 -4.4049452990293503e-02</internalNodes>
          <leafValues>
            -5.5749350786209106e-01 1.4167244732379913e-01</leafValues></_>
        <_>
          <internalNodes>
            0 -1 50 -1.3716789544560015e-04</internalNodes>
          <leafValues>
            5.2773326635360718e-01 -1.8414433300495148e-01</leafValues></_>
        <_>
          <internalNodes>
            0 -1 3 -3.9329938590526581e-04</internalNodes>
          <leafValues>
            -6.4291930198669434e-01 1.5183657407760620e-01</leafValues></_>
        <_>
          <internalNodes>
            0 -1 209 8.9298456441611052e-04</internalNodes>
          <leafValues>
            -1.5867072343826294e-01 6.3937145471572876e-01</leafValues></_></weakClassifiers></_></stages>
  <features>
    <_>
      <rects>
        <_>
          0 0 4 6 -1.</_>
        <_>
          0 3 4 3 2.</_></rects>
      <tilted>0</tilted></_>
    <_>
      <rects>
        <_>
          0 1 5 15 -1.</_>
        <_>
          0 6 5 5 3.</_></rects>
      <tilted>0</tilted></_>
    <_>
      <rects>
        <_>
          0 1 32 28 -1.</_>
        <_>
          16 1 16 28 2.</_></rects>
      <tilted>0</tilted></_>
    <_>
      <rects>
        <_>
          0 2 3 2 -1.</_>
        <_>
          0 3 3 1 2.</_></rects>
      <tilted>0</tilted></_>
    <_>
      <rects>
        <_>
          0 4 6 3 -1.</_>
        <_>
          3 4 3 3 2.</_></rects>
      <tilted>0</tilted></_>
    <_>
      <rects>
        <_>
          0 6 2 8 -1.</_>
        <_>
          0 10 2 4 2.</_></rects>
      <tilted>0</tilted></_>
    <_>
      <rects>
        <_>
          0 6 32 14 -1.</_>
        <_>
          0 13 32 7 2.</_></rects>
      <tilted>0</tilted></_>
    <_>
      <rects>
        <_>
          0 22 30 4 -1.</_>
        <_>
          10 22 10 4 3.</_></rects>
      <tilted>0</tilted></_>
    <_>
      <rects>
        <_>
          1 2 49 24 -1.</_>
        <_>
          1 10 49 8 3.</_></rects>
      <tilted>0</tilted></_>
    <_>
      <rects>
        <_>
          1 9 18 28 -1.</_>
        <_>
          1 23 18 14 2.</_></rects>
      <tilted>0</tilted></_>
    <_>
      <rects>
        <_>
          1 30 34 8 -1.</_>
        <_>
          1 34 34 4 2.</_></rects>
      <tilted>0</tilted></_>
    <_>
      <rects>
        <_>
          2 0 38 21 -1.</_>
        <_>
          2 7 38 7 3.</_></rects>
      <tilted>0</tilted></_>
    <_>
      <rects>
        <_>
          2 7 12 31 -1.</_>
        <_>
          8 7 6 31 2.</_></rects>
      <tilted>0</tilted></_>
    <_>
      <rects>
        <_>
          2 14 48 10 -1.</_>
        <_>
          26 14 24 10 2.</_></rects>
      <tilted>0</tilted></_>
    <_>
      <rects>
        <_>
          4 5 36 32 -1.</_>
        <_>
          16 5 12 32 3.</_></rects>
      <tilted>0</tilted></_>
    <_>
      <rects>
        <_>
          4 21 10 3 -1.</_>
        <_>
          4 22 10 1 3.</_></rects>
      <tilted>0</tilted></_>
    <_>
      <rects>
        <_>
          5 13 34 7 -1.</_>
        <_>
          22 13 17 7 2.</_></rects>
      <tilted>0</tilted></_>
    <_>
      <rects>
        <_>
          5 20 11 9 -1.</_>
        <_>
          5 23 11 3 3.</_></rects>
      <tilted>0</tilted></_>
    <_>
      <rects>
        <_>
          6 17 6 6 -1.</_>
        <_>
          6 17 3 3 2.</_>
        <_>
          9 20 3 3 2.</_></rects>
      <tilted>0</tilted></_>
    <_>
      <rects>
        <_>
          7 11 9 1 -1.</_>
        <_>
          10 11 3 1 3.</_></rects>
      <tilted>0</tilted></_>
    <_>
      <rects>
        <_>
          7 12 6 8 -1.</_>
        <_>
          7 12 3 4 2.</_>
        <_>
          10 16 3 4 2.</_></rects>
      <tilted>0</tilted></_>
    <_>
      <rects>
        <_>
          7 21 13 6 -1.</_>
        <_>
          7 24 13 3 2.</_></rects>
      <tilted>0</tilted></_>
    <_>
      <rects>
        <_>
          7 23 4 6 -1.</_>
        <_>
          7 23 2 3 2.</_>
        <_>
          9 26 2 3 2.</_></rects>
      <tilted>0</tilted></_>
    <_>
      <rects>
        <_>
          8 7 30 15 -1.</_>
        <_>
          23 7 15 15 2.</_></rects>
      <tilted>0</tilted></_>
    <_>
      <rects>
        <_>
          8 9 30 12 -1.</_>
        <_>
          23 9 15 12 2.</_></rects>
      <tilted>0</tilted></_>
    <_>
      <rects>
        <_>
          8 13 3 6 -1.</_>
        <_>
          8 15 3 2 3.</_></rects>
      <tilted>0</tilted></_>
    <_>
      <rects>
        <_>
          8 20 7 6 -1.</_>
        <_>
          8 22 7 2 3.</_></rects>
      <tilted>0</tilted></_>
    <_>
      <rects>
        <_>
          9 6 33 12 -1.</_>
        <_>
          20 6 11 12 3.</_></rects>
      <tilted>0</tilted></_>
    <_>
      <rects>
        <_>
          9 7 10 25 -1.</_>
        <_>
          14 7 5 25 2.</_></rects>
      <tilted>0</tilted></_>
    <_>
      <rects>
        <_>
          9 8 6 6 -1.</_>
        <_>
          9 8 3 3 2.</_>
        <_>
          12 11 3 3 2.</_></rects>
      <tilted>0</tilted></_>
    <_>
      <rects>
        <_>
          9 8 27 10 -1.</_>
        <_>
          18 8 9 10 3.</_></rects>
      <tilted>0</tilted></_>
    <_>
      <rects>
        <_>
          9 9 6 6 -1.</_>
        <_>
          9 9 3 3 2.</_>
        <_>
          12 12 3 3 2.</_></rects>
      <tilted>0</tilted></_>
    <_>
      <rects>
        <_>
          9 13 6 4 -1.</_>
        <_>
          9 13 3 2 2.</_>
        <_>
          12 15 3 2 2.</_></rects>
      <tilted>0</tilted></_>
    <_>
      <rects>
        <_>
          9 22 7 9 -1.</_>
        <_>
          9 25 7 3 3.</_></rects>
      <tilted>0</tilted></_>
    <_>
      <rects>
        <_>
          9 25 27 12 -1.</_>
        <_>
          9 29 27 4 3.</_></rects>
      <tilted>0</tilted></_>
    <_>
      <rects>
        <_>
          9 26 2 8 -1.</_>
        <_>
          9 30 2 4 2.</_></rects>
      <tilted>0</tilted></_>
    <_>
      <rects>
        <_>
          9 27 34 6 -1.</_>
        <_>
          9 29 34 2 3.</_></rects>
      <tilted>0</tilted></_>
    <_>
      <rects>
        <_>
          10 0 16 22 -1.</_>
        <_>
          10 0 8 11 2.</_>
        <_>
          18 11 8 11 2.</_></rects>
      <tilted>0</tilted></_>
    <_>
      <rects>
        <_>
          10 7 21 16 -1.</_>
        <_>
          17 7 7 16 3.</_></rects>
      <tilted>0</tilted></_>
    <_>
      <rects>
        <_>
          10 10 36 22 -1.</_>
        <_>
          10 21 36 11 2.</_></rects>
      <tilted>0</tilted></_>
    <_>
      <rects>
        <_>
          10 12 28 16 -1.</_>
        <_>
          24 12 14 16 2.</_></rects>
      <tilted>0</tilted></_>
    <_>
      <rects>
        <_>
          10 13 1 6 -1.</_>
        <_>
          10 15 1 2 3.</_></rects>
      <tilted>0</tilted></_>
    <_>
      <rects>
        <_>
          10 13 6 4 -1.</_>
        <_>
          10 13 3 2 2.</_>
        <_>
          13 15 3 2 2.</_></rects>
      <tilted>0</tilted></_>
    <_>
      <rects>
        <_>
          10 17 21 6 -1.</_>
        <_>
          17 17 7 6 3.</_></rects>
      <tilted>0</tilted></_>
    <_>
      <rects>
        <_>
          10 18 31 18 -1.</_>
        <_>
          10 27 31 9 2.</_></rects>
      <tilted>0</tilted></_>
    <_>
      <rects>
        <_>
          10 22 1 6 -1.</_>
        <_>
          10 24 1 2 3.</_></rects>
      <tilted>0</tilted></_>
    <_>
      <rects>
        <_>
          11 0 35 8 -1.</_>
        <_>
          11 4 35 4 2.</_></rects>
      <tilted>0</tilted></_>
    <_>
      <rects>
        <_>
          11 8 4 4 -1.</_>
        <_>
          11 8 2 2 2.</_>
        <_>
          13 10 2 2 2.</_></rects>
      <tilted>0</tilted></_>
    <_>
      <rects>
        <_>
          11 9 27 20 -1.</_>
        <_>
          11 19 27 10 2.</_></rects>
      <tilted>0</tilted></_>
    <_>
      <rects>
        <_>
          11 13 28 20 -1.</_>
        <_>
          25 13 14 20 2.</_></rects>
      <tilted>0</tilted></_>
    <_>
      <rects>
        <_>
          11 21 2 1 -1.</_>
        <_>
          12 21 1 1 2.</_></rects>
      <tilted>0</tilted></_>
    <_>
      <rects>
        <_>
          11 21 20 4 -1.</_>
        <_>
          11 21 10 2 2.</_>
        <_>
          21 23 10 2 2.</_></rects>
      <tilted>0</tilted></_>
    <_>
      <rects>
        <_>
          12 3 21 17 -1.</_>
        <_>
          19 3 7 17 3.</_></rects>
      <tilted>0</tilted></_>
    <_>
      <rects>
        <_>
          12 3 30 15 -1.</_>
        <_>
          22 3 10 15 3.</_></rects>
      <tilted>0</tilted></_>
    <_>
      <rects>
        <_>
          12 4 5 34 -1.</_>
        <_>
          12 21 5 17 2.</_></rects>
      <tilted>0</tilted></_>
    <_>
      <rects>
        <_>
          12 5 7 28 -1.</_>
        <_>
          12 19 7 14 2.</_></rects>
      <tilted>0</tilted></_>
    <_>
      <rects>
        <_>
          12 6 18 8 -1.</_>
        <_>
          18 6 6 8 3.</_></rects>
      <tilted>0</tilted></_>
    <_>
      <rects>
        <_>
          12 7 8 6 -1.</_>
        <_>
          12 7 4 3 2.</_>
        <_>
          16 10 4 3 2.</_></rects>
      <tilted>0</tilted></_>
    <_>
      <rects>
        <_>
          12 7 24 11 -1.</_>
        <_>
          20 7 8 11 3.</_></rects>
      <tilted>0</tilted></_>
    <_>
      <rects>
        <_>
          12 9 9 4 -1.</_>
        <_>
          15 9 3 4 3.</_></rects>
      <tilted>0</tilted></_>
    <_>
      <rects>
        <_>
          12 11 6 4 -1.</_>
        <_>
          12 11 3 2 2.</_>
        <_>
          15 13 3 2 2.</_></rects>
      <tilted>0</tilted></_>
    <_>
      <rects>
        <_>
          12 11 8 26 -1.</_>
        <_>
          12 11 4 13 2.</_>
        <_>
          16 24 4 13 2.</_></rects>
      <tilted>0</tilted></_>
    <_>
      <rects>
        <_>
          12 17 7 6 -1.</_>
        <_>
          12 19 7 2 3.</_></rects>
      <tilted>0</tilted></_>
    <_>
      <rects>
        <_>
          12 19 6 9 -1.</_>
        <_>
          12 22 6 3 3.</_></rects>
      <tilted>0</tilted></_>
    <_>
      <rects>
        <_>
          13 1 18 15 -1.</_>
        <_>
          22 1 9 15 2.</_></rects>
      <tilted>0</tilted></_>
    <_>
      <rects>
        <_>
          13 6 2 28 -1.</_>
        <_>
          13 20 2 14 2.</_></rects>
      <tilted>0</tilted></_>
    <_>
      <rects>
        <_>
          13 8 8 6 -1.</_>
        <_>
          13 8 4 3 2.</_>
        <_>
          17 11 4 3 2.</_></rects>
      <tilted>0</tilted></_>
    <_>
      <rects>
        <_>
          13 12 6 4 -1.</_>
        <_>
          13 12 3 2 2.</_>
        <_>
          16 14 3 2 2.</_></rects>
      <tilted>0</tilted></_>
    <_>
      <rects>
        <_>
          13 20 12 6 -1.</_>
        <_>
          19 20 6 6 2.</_></rects>
      <tilted>0</tilted></_>
    <_>
      <rects>
        <_>
          13 31 34 6 -1.</_>
        <_>
          13 31 17 3 2.</_>
        <_>
          30 34 17 3 2.</_></rects>
      <tilted>0</tilted></_>
    <_>
      <rects>
        <_>
          14 7 4 6 -1.</_>
        <_>
          14 7 2 3 2.</_>
        <_>
          16 10 2 3 2.</_></rects>
      <tilted>0</tilted></_>
    <_>
      <rects>
        <_>
          14 10 1 4 -1.</_>
        <_>
          14 12 1 2 2.</_></rects>
      <tilted>0</tilted></_>
    <_>
      <rects>
        <_>
          14 10 2 6 -1.</_>
        <_>
          14 10 1 3 2.</_>
        <_>
          15 13 1 3 2.</_></rects>
      <tilted>0</tilted></_>
    <_>
      <rects>
        <_>
          14 10 32 16 -1.</_>
        <_>
          30 10 16 16 2.</_></rects>
      <tilted>0</tilted></_>
    <_>
      <rects>
        <_>
          14 11 8 14 -1.</_>
        <_>
          18 11 4 14 2.</_></rects>
      <tilted>0</tilted></_>
    <_>
      <rects>
        <_>
          14 14 24 20 -1.</_>
        <_>
          26 14 12 20 2.</_></rects>
      <tilted>0</tilted></_>
    <_>
      <rects>
        <_>
          14 20 8 12 -1.</_>
        <_>
          18 20 4 12 2.</_></rects>
      <tilted>0</tilted></_>
    <_>
      <rects>
        <_>
          15 5 19 26 -1.</_>
        <_>
          15 18 19 13 2.</_></rects>
      <tilted>0</tilted></_>
    <_>
      <rects>
        <_>
          15 6 18 22 -1.</_>
        <_>
          21 6 6 22 3.</_></rects>
      <tilted>0</tilted></_>
    <_>
      <rects>
        <_>
          15 7 6 6 -1.</_>
        <_>
          15 7 3 3 2.</_>
        <_>
          18 10 3 3 2.</_></rects>
      <tilted>0</tilted></_>
    <_>
      <rects>
        <_>
          15 10 6 4 -1.</_>
        <_>
          15 10 3 2 2.</_>
        <_>
          18 12 3 2 2.</_></rects>
      <tilted>0</tilted></_>
    <_>
      <rects>
        <_>
          15 12 18 9 -1.</_>
        <_>
          21 12 6 9 3.</_></rects>
      <tilted>0</tilted></_>
    <_>
      <rects>
        <_>
          15 13 24 13 -1.</_>
        <_>
          27 13 12 13 2.</_></rects>
      <tilted>0</tilted></_>
    <_>
      <rects>
        <_>
          15 21 21 13 -1.</_>
        <_>
          22 21 7 13 3.</_></rects>
      <tilted>0</tilted></_>
    <_>
      <rects>
        <_>
          15 23 18 15 -1.</_>
        <_>
          15 28 18 5 3.</_></rects>
      <tilted>0</tilted></_>
    <_>
      <rects>
        <_>
          16 5 27 12 -1.</_>
        <_>
          25 5 9 12 3.</_></rects>
      <tilted>0</tilted></_>
    <_>
      <rects>
        <_>
          16 5 24 33 -1.</_>
        <_>
          28 5 12 33 2.</_></rects>
      <tilted>0</tilted></_>
    <_>
      <rects>
        <_>
          16 5 26 33 -1.</_>
        <_>
          29 5 13 33 2.</_></rects>
      <tilted>0</tilted></_>
    <_>
      <rects>
        <_>
          16 7 4 12 -1.</_>
        <_>
          16 7 2 6 2.</_>
        <_>
          18 13 2 6 2.</_></rects>
      <tilted>0</tilted></_>
    <_>
      <rects>
        <_>
          16 7 24 12 -1.</_>
        <_>
          24 7 8 12 3.</_></rects>
      <tilted>0</tilted></_>
    <_>
      <rects>
        <_>
          16 8 27 9 -1.</_>
        <_>
          25 8 9 9 3.</_></rects>
      <tilted>0</tilted></_>
    <_>
      <rects>
        <_>
          16 10 6 20 -1.</_>
        <_>
          19 10 3 20 2.</_></rects>
      <tilted>0</tilted></_>
    <_>
      <rects>
        <_>
          16 10 27 11 -1.</_>
        <_>
          25 10 9 11 3.</_></rects>
      <tilted>0</tilted></_>
    <_>
      <rects>
        <_>
          16 27 11 9 -1.</_>
        <_>
          16 30 11 3 3.</_></rects>
      <tilted>0</tilted></_>
    <_>
      <rects>
        <_>
          17 0 15 27 -1.</_>
        <_>
          17 9 15 9 3.</_></rects>
      <tilted>0</tilted></_>
    <_>
      <rects>
        <_>
          17 5 28 27 -1.</_>
        <_>
          17 14 28 9 3.</_></rects>
      <tilted>0</tilted></_>
    <_>
      <rects>
        <_>
          17 7 4 6 -1.</_>
        <_>
          17 7 2 3 2.</_>
        <_>
          19 10 2 3 2.</_></rects>
      <tilted>0</tilted></_>
    <_>
      <rects>
        <_>
          17 7 22 10 -1.</_>
        <_>
          28 7 11 10 2.</_></rects>
      <tilted>0</tilted></_>
    <_>
      <rects>
        <_>
          17 8 1 6 -1.</_>
        <_>
          17 10 1 2 3.</_></rects>
      <tilted>0</tilted></_>
    <_>
      <rects>
        <_>
          18 4 6 6 -1.</_>
        <_>
          18 4 3 3 2.</_>
        <_>
          21 7 3 3 2.</_></rects>
      <tilted>0</tilted></_>
    <_>
      <rects>
        <_>
          18 4 14 24 -1.</_>
        <_>
          18 4 7 12 2.</_>
        <_>
          25 16 7 12 2.</_></rects>
      <tilted>0</tilted></_>
    <_>
      <rects>
        <_>
          18 4 18 11 -1.</_>
        <_>
          27 4 9 11 2.</_></rects>
      <tilted>0</tilted></_>
    <_>
      <rects>
        <_>
          18 6 14 18 -1.</_>
        <_>
          25 6 7 18 2.</_></rects>
      <tilted>0</tilted></_>
    <_>
      <rects>
        <_>
          18 8 6 4 -1.</_>
        <_>
          18 8 3 2 2.</_>
        <_>
          21 10 3 2 2.</_></rects>
      <tilted>0</tilted></_>
    <_>
      <rects>
        <_>
          18 19 9 16 -1.</_>
        <_>
          21 19 3 16 3.</_></rects>
      <tilted>0</tilted></_>
    <_>
      <rects>
        <_>
          19 1 4 12 -1.</_>
        <_>
          19 1 2 6 2.</_>
        <_>
          21 7 2 6 2.</_></rects>
      <tilted>0</tilted></_>
    <_>
      <rects>
        <_>
          19 3 2 34 -1.</_>
        <_>
          19 3 1 17 2.</_>
        <_>
          20 20 1 17 2.</_></rects>
      <tilted>0</tilted></_>
    <_>
      <rects>
        <_>
          19 6 21 16 -1.</_>
        <_>
          26 6 7 16 3.</_></rects>
      <tilted>0</tilted></_>
    <_>
      <rects>
        <_>
          19 6 27 12 -1.</_>
        <_>
          28 6 9 12 3.</_></rects>
      <tilted>0</tilted></_>
    <_>
      <rects>
        <_>
          19 7 4 6 -1.</_>
        <_>
          19 7 2 3 2.</_>
        <_>
          21 10 2 3 2.</_></rects>
      <tilted>0</tilted></_>
    <_>
      <rects>
        <_>
          19 7 18 9 -1.</_>
        <_>
          28 7 9 9 2.</_></rects>
      <tilted>0</tilted></_>
    <_>
      <rects>
        <_>
          19 8 1 6 -1.</_>
        <_>
          19 10 1 2 3.</_></rects>
      <tilted>0</tilted></_>
    <_>
      <rects>
        <_>
          19 8 4 8 -1.</_>
        <_>
          19 8 2 4 2.</_>
        <_>
          21 12 2 4 2.</_></rects>
      <tilted>0</tilted></_>
    <_>
      <rects>
        <_>
          19 8 19 14 -1.</_>
        <_>
          19 15 19 7 2.</_></rects>
      <tilted>0</tilted></_>
    <_>
      <rects>
        <_>
          19 9 9 2 -1.</_>
        <_>
          22 9 3 2 3.</_></rects>
      <tilted>0</tilted></_>
    <_>
      <rects>
        <_>
          19 9 9 3 -1.</_>
        <_>
          22 9 3 3 3.</_></rects>
      <tilted>0</tilted></_>
    <_>
      <rects>
        <_>
          19 12 20 7 -1.</_>
        <_>
          29 12 10 7 2.</_></rects>
      <tilted>0</tilted></_>
    <_>
      <rects>
        <_>
          19 13 15 20 -1.</_>
        <_>
          19 23 15 10 2.</_></rects>
      <tilted>0</tilted></_>
    <_>
      <rects>
        <_>
          19 18 12 8 -1.</_>
        <_>
          19 22 12 4 2.</_></rects>
      <tilted>0</tilted></_>
    <_>
      <rects>
        <_>
          20 3 2 6 -1.</_>
        <_>
          20 5 2 2 3.</_></rects>
      <tilted>0</tilted></_>
    <_>
      <rects>
        <_>
          20 5 16 30 -1.</_>
        <_>
          28 5 8 30 2.</_></rects>
      <tilted>0</tilted></_>
    <_>
      <rects>
        <_>
          20 5 20 13 -1.</_>
        <_>
          30 5 10 13 2.</_></rects>
      <tilted>0</tilted></_>
    <_>
      <rects>
        <_>
          20 7 6 6 -1.</_>
        <_>
          20 7 3 3 2.</_>
        <_>
          23 10 3 3 2.</_></rects>
      <tilted>0</tilted></_>
    <_>
      <rects>
        <_>
          20 7 8 4 -1.</_>
        <_>
          20 7 4 2 2.</_>
        <_>
          24 9 4 2 2.</_></rects>
      <tilted>0</tilted></_>
    <_>
      <rects>
        <_>
          20 8 1 6 -1.</_>
        <_>
          20 10 1 2 3.</_></rects>
      <tilted>0</tilted></_>
    <_>
      <rects>
        <_>
          20 9 4 4 -1.</_>
        <_>
          20 9 2 2 2.</_>
        <_>
          22 11 2 2 2.</_></rects>
      <tilted>0</tilted></_>
    <_>
      <rects>
        <_>
          20 17 9 15 -1.</_>
        <_>
          20 22 9 5 3.</_></rects>
      <tilted>0</tilted></_>
    <_>
      <rects>
        <_>
          20 20 17 18 -1.</_>
        <_>
          20 26 17 6 3.</_></rects>
      <tilted>0</tilted></_>
    <_>
      <rects>
        <_>
          20 22 7 9 -1.</_>
        <_>
          20 25 7 3 3.</_></rects>
      <tilted>0</tilted></_>
    <_>
      <rects>
        <_>
          21 5 6 5 -1.</_>
        <_>
          23 5 2 5 3.</_></rects>
      <tilted>0</tilted></_>
    <_>
      <rects>
        <_>
          21 6 6 8 -1.</_>
        <_>
          21 6 3 4 2.</_>
        <_>
          24 10 3 4 2.</_></rects>
      <tilted>0</tilted></_>
    <_>
      <rects>
        <_>
          21 7 1 6 -1.</_>
        <_>
          21 9 1 2 3.</_></rects>
      <tilted>0</tilted></_>
    <_>
      <rects>
        <_>
          21 7 4 4 -1.</_>
        <_>
          21 7 2 2 2.</_>
        <_>
          23 9 2 2 2.</_></rects>
      <tilted>0</tilted></_>
    <_>
      <rects>
        <_>
          21 9 4 4 -1.</_>
        <_>
          21 9 2 2 2.</_>
        <_>
          23 11 2 2 2.</_></rects>
      <tilted>0</tilted></_>
    <_>
      <rects>
        <_>
          21 9 8 2 -1.</_>
        <_>
          21 9 4 1 2.</_>
        <_>
          25 10 4 1 2.</_></rects>
      <tilted>0</tilted></_>
    <_>
      <rects>
        <_>
          21 9 16 9 -1.</_>
        <_>
          29 9 8 9 2.</_></rects>
      <tilted>0</tilted></_>
    <_>
      <rects>
        <_>
          21 10 8 20 -1.</_>
        <_>
          21 20 8 10 2.</_></rects>
      <tilted>0</tilted></_>
    <_>
      <rects>
        <_>
          21 14 22 18 -1.</_>
        <_>
          32 14 11 18 2.</_></rects>
      <tilted>0</tilted></_>
    <_>
      <rects>
        <_>
          21 17 8 15 -1.</_>
        <_>
          21 22 8 5 3.</_></rects>
      <tilted>0</tilted></_>
    <_>
      <rects>
        <_>
          21 23 12 15 -1.</_>
        <_>
          21 28 12 5 3.</_></rects>
      <tilted>0</tilted></_>
    <_>
      <rects>
        <_>
          22 5 6 6 -1.</_>
        <_>
          22 5 3 3 2.</_>
        <_>
          25 8 3 3 2.</_></rects>
      <tilted>0</tilted></_>
    <_>
      <rects>
        <_>
          22 6 6 4 -1.</_>
        <_>
          22 6 3 2 2.</_>
        <_>
          25 8 3 2 2.</_></rects>
      <tilted>0</tilted></_>
    <_>
      <rects>
        <_>
          22 7 9 4 -1.</_>
        <_>
          25 7 3 4 3.</_></rects>
      <tilted>0</tilted></_>
    <_>
      <rects>
        <_>
          22 7 6 8 -1.</_>
        <_>
          22 7 3 4 2.</_>
        <_>
          25 11 3 4 2.</_></rects>
      <tilted>0</tilted></_>
    <_>
      <rects>
        <_>
          22 7 4 16 -1.</_>
        <_>
          22 15 4 8 2.</_></rects>
      <tilted>0</tilted></_>
    <_>
      <rects>
        <_>
          22 10 4 6 -1.</_>
        <_>
          22 12 4 2 3.</_></rects>
      <tilted>0</tilted></_>
    <_>
      <rects>
        <_>
          22 12 6 24 -1.</_>
        <_>
          22 24 6 12 2.</_></rects>
      <tilted>0</tilted></_>
    <_>
      <rects>
        <_>
          22 18 10 3 -1.</_>
        <_>
          27 18 5 3 2.</_></rects>
      <tilted>0</tilted></_>
    <_>
      <rects>
        <_>
          22 23 4 12 -1.</_>
        <_>
          24 23 2 12 2.</_></rects>
      <tilted>0</tilted></_>
    <_>
      <rects>
        <_>
          23 9 6 1 -1.</_>
        <_>
          25 9 2 1 3.</_></rects>
      <tilted>0</tilted></_>
    <_>
      <rects>
        <_>
          23 12 4 20 -1.</_>
        <_>
          23 22 4 10 2.</_></rects>
      <tilted>0</tilted></_>
    <_>
      <rects>
        <_>
          24 3 6 8 -1.</_>
        <_>
          24 3 3 4 2.</_>
        <_>
          27 7 3 4 2.</_></rects>
      <tilted>0</tilted></_>
    <_>
      <rects>
        <_>
          24 5 9 6 -1.</_>
        <_>
          27 5 3 6 3.</_></rects>
      <tilted>0</tilted></_>
    <_>
      <rects>
        <_>
          24 9 10 6 -1.</_>
        <_>
          24 9 5 3 2.</_>
        <_>
          29 12 5 3 2.</_></rects>
      <tilted>0</tilted></_>
    <_>
      <rects>
        <_>
          24 11 3 15 -1.</_>
        <_>
          25 11 1 15 3.</_></rects>
      <tilted>0</tilted></_>
    <_>
      <rects>
        <_>
          24 11 6 6 -1.</_>
        <_>
          24 11 3 3 2.</_>
        <_>
          27 14 3 3 2.</_></rects>
      <tilted>0</tilted></_>
    <_>
      <rects>
        <_>
          24 14 1 4 -1.</_>
        <_>
          24 16 1 2 2.</_></rects>
      <tilted>0</tilted></_>
    <_>
      <rects>
        <_>
          24 14 10 10 -1.</_>
        <_>
          24 14 5 5 2.</_>
        <_>
          29 19 5 5 2.</_></rects>
      <tilted>0</tilted></_>
    <_>
      <rects>
        <_>
          24 17 4 15 -1.</_>
        <_>
          24 22 4 5 3.</_></rects>
      <tilted>0</tilted></_>
    <_>
      <rects>
        <_>
          24 20 2 4 -1.</_>
        <_>
          24 22 2 2 2.</_></rects>
      <tilted>0</tilted></_>
    <_>
      <rects>
        <_>
          24 20 26 12 -1.</_>
        <_>
          24 20 13 6 2.</_>
        <_>
          37 26 13 6 2.</_></rects>
      <tilted>0</tilted></_>
    <_>
      <rects>
        <_>
          24 24 3 13 -1.</_>
        <_>
          25 24 1 13 3.</_></rects>
      <tilted>0</tilted></_>
    <_>
      <rects>
        <_>
          24 25 10 12 -1.</_>
        <_>
          24 29 10 4 3.</_></rects>
      <tilted>0</tilted></_>
    <_>
      <rects>
        <_>
          25 4 6 8 -1.</_>
        <_>
          25 4 3 4 2.</_>
        <_>
          28 8 3 4 2.</_></rects>
      <tilted>0</tilted></_>
    <_>
      <rects>
        <_>
          25 5 1 6 -1.</_>
        <_>
          25 7 1 2 3.</_></rects>
      <tilted>0</tilted></_>
    <_>
      <rects>
        <_>
          25 7 6 6 -1.</_>
        <_>
          25 7 3 3 2.</_>
        <_>
          28 10 3 3 2.</_></rects>
      <tilted>0</tilted></_>
    <_>
      <rects>
        <_>
          25 7 6 8 -1.</_>
        <_>
          25 7 3 4 2.</_>
        <_>
          28 11 3 4 2.</_></rects>
      <tilted>0</tilted></_>
    <_>
      <rects>
        <_>
          25 11 1 4 -1.</_>
        <_>
          25 13 1 2 2.</_></rects>
      <tilted>0</tilted></_>
    <_>
      <rects>
        <_>
          25 11 3 26 -1.</_>
        <_>
          26 11 1 26 3.</_></rects>
      <tilted>0</tilted></_>
    <_>
      <rects>
        <_>
          25 11 3 3 -1.</_>
        <_>
          25 12 3 1 3.</_></rects>
      <tilted>0</tilted></_>
    <_>
      <rects>
        <_>
          25 18 1 2 -1.</_>
        <_>
          25 19 1 1 2.</_></rects>
      <tilted>0</tilted></_>
    <_>
      <rects>
        <_>
          25 18 4 1 -1.</_>
        <_>
          27 18 2 1 2.</_></rects>
      <tilted>0</tilted></_>
    <_>
      <rects>
        <_>
          25 26 6 9 -1.</_>
        <_>
          27 26 2 9 3.</_></rects>
      <tilted>0</tilted></_>
    <_>
      <rects>
        <_>
          26 7 1 6 -1.</_>
        <_>
          26 9 1 2 3.</_></rects>
      <tilted>0</tilted></_>
    <_>
      <rects>
        <_>
          26 10 9 1 -1.</_>
        <_>
          29 10 3 1 3.</_></rects>
      <tilted>0</tilted></_>
    <_>
      <rects>
        <_>
          26 10 10 4 -1.</_>
        <_>
          26 10 5 2 2.</_>
        <_>
          31 12 5 2 2.</_></rects>
      <tilted>0</tilted></_>
    <_>
      <rects>
        <_>
          26 13 1 4 -1.</_>
        <_>
          26 15 1 2 2.</_></rects>
      <tilted>0</tilted></_>
    <_>
      <rects>
        <_>
          26 13 3 23 -1.</_>
        <_>
          27 13 1 23 3.</_></rects>
      <tilted>0</tilted></_>
    <_>
      <rects>
        <_>
          26 15 10 8 -1.</_>
        <_>
          26 15 5 4 2.</_>
        <_>
          31 19 5 4 2.</_></rects>
      <tilted>0</tilted></_>
    <_>
      <rects>
        <_>
          26 16 8 8 -1.</_>
        <_>
          26 16 4 4 2.</_>
        <_>
          30 20 4 4 2.</_></rects>
      <tilted>0</tilted></_>
    <_>
      <rects>
        <_>
          26 18 5 9 -1.</_>
        <_>
          26 21 5 3 3.</_></rects>
      <tilted>0</tilted></_>
    <_>
      <rects>
        <_>
          26 19 3 19 -1.</_>
        <_>
          27 19 1 19 3.</_></rects>
      <tilted>0</tilted></_>
    <_>
      <rects>
        <_>
          26 24 3 3 -1.</_>
        <_>
          27 24 1 3 3.</_></rects>
      <tilted>0</tilted></_>
    <_>
      <rects>
        <_>
          26 25 6 3 -1.</_>
        <_>
          28 25 2 3 3.</_></rects>
      <tilted>0</tilted></_>
    <_>
      <rects>
        <_>
          27 0 7 12 -1.</_>
        <_>
          27 4 7 4 3.</_></rects>
      <tilted>0</tilted></_>
    <_>
      <rects>
        <_>
          27 8 4 6 -1.</_>
        <_>
          27 8 2 3 2.</_>
        <_>
          29 11 2 3 2.</_></rects>
      <tilted>0</tilted></_>
    <_>
      <rects>
        <_>
          27 8 6 6 -1.</_>
        <_>
          27 8 3 3 2.</_>
        <_>
          30 11 3 3 2.</_></rects>
      <tilted>0</tilted></_>
    <_>
      <rects>
        <_>
          27 8 4 6 -1.</_>
        <_>
          27 10 4 2 3.</_></rects>
      <tilted>0</tilted></_>
    <_>
      <rects>
        <_>
          27 9 6 4 -1.</_>
        <_>
          27 9 3 2 2.</_>
        <_>
          30 11 3 2 2.</_></rects>
      <tilted>0</tilted></_>
    <_>
      <rects>
        <_>
          27 9 6 8 -1.</_>
        <_>
          27 9 3 4 2.</_>
        <_>
          30 13 3 4 2.</_></rects>
      <tilted>0</tilted></_>
    <_>
      <rects>
        <_>
          27 10 8 4 -1.</_>
        <_>
          27 10 4 2 2.</_>
        <_>
          31 12 4 2 2.</_></rects>
      <tilted>0</tilted></_>
    <_>
      <rects>
        <_>
          27 11 8 4 -1.</_>
        <_>
          27 11 4 2 2.</_>
        <_>
          31 13 4 2 2.</_></rects>
      <tilted>0</tilted></_>
    <_>
      <rects>
        <_>
          27 27 2 7 -1.</_>
        <_>
          28 27 1 7 2.</_></rects>
      <tilted>0</tilted></_>
    <_>
      <rects>
        <_>
          27 28 3 2 -1.</_>
        <_>
          28 28 1 2 3.</_></rects>
      <tilted>0</tilted></_>
    <_>
      <rects>
        <_>
          28 6 1 6 -1.</_>
        <_>
          28 8 1 2 3.</_></rects>
      <tilted>0</tilted></_>
    <_>
      <rects>
        <_>
          28 8 9 1 -1.</_>
        <_>
          31 8 3 1 3.</_></rects>
      <tilted>0</tilted></_>
    <_>
      <rects>
        <_>
          28 8 9 2 -1.</_>
        <_>
          31 8 3 2 3.</_></rects>
      <tilted>0</tilted></_>
    <_>
      <rects>
        <_>
          28 10 10 4 -1.</_>
        <_>
          28 10 5 2 2.</_>
        <_>
          33 12 5 2 2.</_></rects>
      <tilted>0</tilted></_>
    <_>
      <rects>
        <_>
          28 10 10 6 -1.</_>
        <_>
          28 10 5 3 2.</_>
        <_>
          33 13 5 3 2.</_></rects>
      <tilted>0</tilted></_>
    <_>
      <rects>
        <_>
          28 12 10 4 -1.</_>
        <_>
          28 12 5 2 2.</_>
        <_>
          33 14 5 2 2.</_></rects>
      <tilted>0</tilted></_>
    <_>
      <rects>
        <_>
          28 24 9 10 -1.</_>
        <_>
          31 24 3 10 3.</_></rects>
      <tilted>0</tilted></_>
    <_>
      <rects>
        <_>
          29 6 8 6 -1.</_>
        <_>
          29 6 4 3 2.</_>
        <_>
          33 9 4 3 2.</_></rects>
      <tilted>0</tilted></_>
    <_>
      <rects>
        <_>
          29 7 6 8 -1.</_>
        <_>
          29 7 3 4 2.</_>
        <_>
          32 11 3 4 2.</_></rects>
      <tilted>0</tilted></_>
    <_>
      <rects>
        <_>
          29 14 15 8 -1.</_>
        <_>
          34 14 5 8 3.</_></rects>
      <tilted>0</tilted></_>
    <_>
      <rects>
        <_>
          29 22 2 14 -1.</_>
        <_>
          30 22 1 14 2.</_></rects>
      <tilted>0</tilted></_>
    <_>
      <rects>
        <_>
          30 2 9 36 -1.</_>
        <_>
          30 20 9 18 2.</_></rects>
      <tilted>0</tilted></_>
    <_>
      <rects>
        <_>
          30 4 1 9 -1.</_>
        <_>
          30 7 1 3 3.</_></rects>
      <tilted>0</tilted></_>
    <_>
      <rects>
        <_>
          30 5 6 10 -1.</_>
        <_>
          30 5 3 5 2.</_>
        <_>
          33 10 3 5 2.</_></rects>
      <tilted>0</tilted></_>
    <_>
      <rects>
        <_>
          30 9 6 8 -1.</_>
        <_>
          30 9 3 4 2.</_>
        <_>
          33 13 3 4 2.</_></rects>
      <tilted>0</tilted></_>
    <_>
      <rects>
        <_>
          30 16 3 3 -1.</_>
        <_>
          30 17 3 1 3.</_></rects>
      <tilted>0</tilted></_>
    <_>
      <rects>
        <_>
          31 6 8 6 -1.</_>
        <_>
          31 6 4 3 2.</_>
        <_>
          35 9 4 3 2.</_></rects>
      <tilted>0</tilted></_>
    <_>
      <rects>
        <_>
          31 9 4 4 -1.</_>
        <_>
          31 11 4 2 2.</_></rects>
      <tilted>0</tilted></_>
    <_>
      <rects>
        <_>
          31 12 9 1 -1.</_>
        <_>
          34 12 3 1 3.</_></rects>
      <tilted>0</tilted></_>
    <_>
      <rects>
        <_>
          31 20 5 8 -1.</_>
        <_>
          31 24 5 4 2.</_></rects>
      <tilted>0</tilted></_>
    <_>
      <rects>
        <_>
          31 24 14 4 -1.</_>
        <_>
          38 24 7 4 2.</_></rects>
      <tilted>0</tilted></_>
    <_>
      <rects>
        <_>
          32 11 6 3 -1.</_>
        <_>
          34 11 2 3 3.</_></rects>
      <tilted>0</tilted></_>
    <_>
      <rects>
        <_>
          32 11 10 6 -1.</_>
        <_>
          32 11 5 3 2.</_>
        <_>
          37 14 5 3 2.</_></rects>
      <tilted>0</tilted></_>
    <_>
      <rects>
        <_>
          32 12 10 4 -1.</_>
        <_>
          32 12 5 2 2.</_>
        <_>
          37 14 5 2 2.</_></rects>
      <tilted>0</tilted></_>
    <_>
      <rects>
        <_>
          32 19 3 12 -1.</_>
        <_>
          33 19 1 12 3.</_></rects>
      <tilted>0</tilted></_>
    <_>
      <rects>
        <_>
          32 26 3 6 -1.</_>
        <_>
          32 28 3 2 3.</_></rects>
      <tilted>0</tilted></_>
    <_>
      <rects>
        <_>
          33 8 6 6 -1.</_>
        <_>
          33 8 3 3 2.</_>
        <_>
          36 11 3 3 2.</_></rects>
      <tilted>0</tilted></_>
    <_>
      <rects>
        <_>
          33 8 8 8 -1.</_>
        <_>
          33 8 4 4 2.</_>
        <_>
          37 12 4 4 2.</_></rects>
      <tilted>0</tilted></_>
    <_>
      <rects>
        <_>
          33 16 8 6 -1.</_>
        <_>
          33 16 4 3 2.</_>
        <_>
          37 19 4 3 2.</_></rects>
      <tilted>0</tilted></_>
    <_>
      <rects>
        <_>
          33 17 10 6 -1.</_>
        <_>
          33 17 5 3 2.</_>
        <_>
          38 20 5 3 2.</_></rects>
      <tilted>0</tilted></_>
    <_>
      <rects>
        <_>
          34 13 8 6 -1.</_>
        <_>
          34 13 4 3 2.</_>
        <_>
          38 16 4 3 2.</_></rects>
      <tilted>0</tilted></_>
    <_>
      <rects>
        <_>
          34 13 9 9 -1.</_>
        <_>
          34 16 9 3 3.</_></rects>
      <tilted>0</tilted></_>
    <_>
      <rects>
        <_>
          34 25 6 10 -1.</_>
        <_>
          34 25 3 5 2.</_>
        <_>
          37 30 3 5 2.</_></rects>
      <tilted>0</tilted></_>
    <_>
      <rects>
        <_>
          34 26 12 4 -1.</_>
        <_>
          34 26 6 2 2.</_>
        <_>
          40 28 6 2 2.</_></rects>
      <tilted>0</tilted></_>
    <_>
      <rects>
        <_>
          35 1 15 36 -1.</_>
        <_>
          35 13 15 12 3.</_></rects>
      <tilted>0</tilted></_>
    <_>
      <rects>
        <_>
          35 7 6 6 -1.</_>
        <_>
          35 7 3 3 2.</_>
        <_>
          38 10 3 3 2.</_></rects>
      <tilted>0</tilted></_>
    <_>
      <rects>
        <_>
          35 12 6 4 -1.</_>
        <_>
          35 12 3 2 2.</_>
        <_>
          38 14 3 2 2.</_></rects>
      <tilted>0</tilted></_>
    <_>
      <rects>
        <_>
          35 12 10 4 -1.</_>
        <_>
          35 12 5 2 2.</_>
        <_>
          40 14 5 2 2.</_></rects>
      <tilted>0</tilted></_>
    <_>
      <rects>
        <_>
          35 17 8 8 -1.</_>
        <_>
          35 17 4 4 2.</_>
        <_>
          39 21 4 4 2.</_></rects>
      <tilted>0</tilted></_>
    <_>
      <rects>
        <_>
          35 17 6 6 -1.</_>
        <_>
          35 19 6 2 3.</_></rects>
      <tilted>0</tilted></_>
    <_>
      <rects>
        <_>
          35 24 10 6 -1.</_>
        <_>
          35 24 5 3 2.</_>
        <_>
          40 27 5 3 2.</_></rects>
      <tilted>0</tilted></_>
    <_>
      <rects>
        <_>
          36 11 6 6 -1.</_>
        <_>
          36 11 3 3 2.</_>
        <_>
          39 14 3 3 2.</_></rects>
      <tilted>0</tilted></_>
    <_>
      <rects>
        <_>
          36 14 6 6 -1.</_>
        <_>
          36 14 3 3 2.</_>
        <_>
          39 17 3 3 2.</_></rects>
      <tilted>0</tilted></_>
    <_>
      <rects>
        <_>
          36 16 8 9 -1.</_>
        <_>
          36 19 8 3 3.</_></rects>
      <tilted>0</tilted></_>
    <_>
      <rects>
        <_>
          36 20 8 4 -1.</_>
        <_>
          36 20 4 2 2.</_>
        <_>
          40 22 4 2 2.</_></rects>
      <tilted>0</tilted></_>
    <_>
      <rects>
        <_>
          36 24 6 2 -1.</_>
        <_>
          39 24 3 2 2.</_></rects>
      <tilted>0</tilted></_>
    <_>
      <rects>
        <_>
          37 12 6 4 -1.</_>
        <_>
          37 12 3 2 2.</_>
        <_>
          40 14 3 2 2.</_></rects>
      <tilted>0</tilted></_>
    <_>
      <rects>
        <_>
          37 13 2 2 -1.</_>
        <_>
          37 13 1 1 2.</_>
        <_>
          38 14 1 1 2.</_></rects>
      <tilted>0</tilted></_>
    <_>
      <rects>
        <_>
          37 14 6 6 -1.</_>
        <_>
          37 14 3 3 2.</_>
        <_>
          40 17 3 3 2.</_></rects>
      <tilted>0</tilted></_>
    <_>
      <rects>
        <_>
          37 27 4 4 -1.</_>
        <_>
          37 27 2 2 2.</_>
        <_>
          39 29 2 2 2.</_></rects>
      <tilted>0</tilted></_>
    <_>
      <rects>
        <_>
          38 18 4 4 -1.</_>
        <_>
          38 18 2 2 2.</_>
        <_>
          40 20 2 2 2.</_></rects>
      <tilted>0</tilted></_>
    <_>
      <rects>
        <_>
          38 19 6 6 -1.</_>
        <_>
          38 19 3 3 2.</_>
        <_>
          41 22 3 3 2.</_></rects>
      <tilted>0</tilted></_>
    <_>
      <rects>
        <_>
          38 19 6 7 -1.</_>
        <_>
          41 19 3 7 2.</_></rects>
      <tilted>0</tilted></_>
    <_>
      <rects>
        <_>
          38 20 6 2 -1.</_>
        <_>
          40 20 2 2 3.</_></rects>
      <tilted>0</tilted></_>
    <_>
      <rects>
        <_>
          40 14 1 6 -1.</_>
        <_>
          40 16 1 2 3.</_></rects>
      <tilted>0</tilted></_>
    <_>
      <rects>
        <_>
          40 15 10 8 -1.</_>
        <_>
          40 15 5 4 2.</_>
        <_>
          45 19 5 4 2.</_></rects>
      <tilted>0</tilted></_>
    <_>
      <rects>
        <_>
          40 19 4 6 -1.</_>
        <_>
          40 19 2 3 2.</_>
        <_>
          42 22 2 3 2.</_></rects>
      <tilted>0</tilted></_>
    <_>
      <rects>
        <_>
          40 24 6 5 -1.</_>
        <_>
          42 24 2 5 3.</_></rects>
      <tilted>0</tilted></_>
    <_>
      <rects>
        <_>
          42 15 6 18 -1.</_>
        <_>
          42 15 3 9 2.</_>
        <_>
          45 24 3 9 2.</_></rects>
      <tilted>0</tilted></_>
    <_>
      <rects>
        <_>
          42 20 2 6 -1.</_>
        <_>
          43 20 1 6 2.</_></rects>
      <tilted>0</tilted></_>
    <_>
      <rects>
        <_>
          42 20 6 5 -1.</_>
        <_>
          44 20 2 5 3.</_></rects>
      <tilted>0</tilted></_>
    <_>
      <rects>
        <_>
          43 19 1 6 -1.</_>
        <_>
          43 22 1 3 2.</_></rects>
      <tilted>0</tilted></_>
    <_>
      <rects>
        <_>
          45 13 5 24 -1.</_>
        <_>
          45 25 5 12 2.</_></rects>
      <tilted>0</tilted></_></features></cascade>
</opencv_storage>
