<?xml version="1.0"?>
<opencv_storage>
<cascade>
  <stageType>BOOST</stageType>
  <featureType>HAAR</featureType>
  <height>50</height>
  <width>50</width>
  <stageParams>
    <boostType>GAB</boostType>
    <minHitRate>9.9900001287460327e-01</minHitRate>
    <maxFalseAlarm>5.0000000000000000e-01</maxFalseAlarm>
    <weightTrimRate>9.4999999999999996e-01</weightTrimRate>
    <maxDepth>1</maxDepth>
    <maxWeakCount>100</maxWeakCount></stageParams>
  <featureParams>
    <maxCatCount>0</maxCatCount>
    <featSize>1</featSize>
    <mode>BASIC</mode></featureParams>
  <stageNum>20</stageNum>
  <stages>
    <!-- stage 0 -->
    <_>
      <maxWeakCount>11</maxWeakCount>
      <stageThreshold>-9.3980187177658081e-01</stageThreshold>
      <weakClassifiers>
        <_>
          <internalNodes>
            0 -1 192 4.6614417806267738e-03</internalNodes>
          <leafValues>
            -2.2514285147190094e-01 9.0215826034545898e-01</leafValues></_>
        <_>
          <internalNodes>
            0 -1 220 -4.0935529395937920e-03</internalNodes>
          <leafValues>
            7.4695479869842529e-01 -2.4037335813045502e-01</leafValues></_>
        <_>
          <internalNodes>
            0 -1 157 4.9509955570101738e-03</internalNodes>
          <leafValues>
            -2.3801836371421814e-01 7.3248219490051270e-01</leafValues></_>
        <_>
          <internalNodes>
            0 -1 307 3.1980630010366440e-03</internalNodes>
          <leafValues>
            -3.1446409225463867e-01 5.8881175518035889e-01</leafValues></_>
        <_>
          <internalNodes>
            0 -1 270 -1.6902659554034472e-03</internalNodes>
          <leafValues>
            7.2631889581680298e-01 -2.2653783857822418e-01</leafValues></_>
        <_>
          <internalNodes>
            0 -1 195 -2.9658237472176552e-03</internalNodes>
          <leafValues>
            6.4602833986282349e-01 -2.5069060921669006e-01</leafValues></_>
        <_>
          <internalNodes>
            0 -1 110 -4.9248848110437393e-02</internalNodes>
          <leafValues>
            -7.2553002834320068e-01 2.3862998187541962e-01</leafValues></_>
        <_>
          <internalNodes>
            0 -1 152 2.5204386562108994e-02</internalNodes>
          <leafValues>
            2.1460622549057007e-01 -7.5320714712142944e-01</leafValues></_>
        <_>
          <internalNodes>
            0 -1 300 -1.4578097034245729e-03</internalNodes>
          <leafValues>
            6.8980121612548828e-01 -2.6965793967247009e-01</leafValues></_>
        <_>
          <internalNodes>
            0 -1 292 -8.1072449684143066e-03</internalNodes>
          <leafValues>
            6.2169575691223145e-01 -2.2156295180320740e-01</leafValues></_>
        <_>
          <internalNodes>
            0 -1 227 -2.0628869533538818e-03</internalNodes>
          <leafValues>
            6.8593174219131470e-01 -1.8531125783920288e-01</leafValues></_></weakClassifiers></_>
    <!-- stage 1 -->
    <_>
      <maxWeakCount>15</maxWeakCount>
      <stageThreshold>-1.4217538833618164e+00</stageThreshold>
      <weakClassifiers>
        <_>
          <internalNodes>
            0 -1 180 8.3761252462863922e-03</internalNodes>
          <leafValues>
            -1.2554112076759338e-01 8.4520125389099121e-01</leafValues></_>
        <_>
          <internalNodes>
            0 -1 220 -5.6960647925734520e-03</internalNodes>
          <leafValues>
            7.2152185440063477e-01 -2.0597751438617706e-01</leafValues></_>
        <_>
          <internalNodes>
            0 -1 259 -3.1216086354106665e-03</internalNodes>
          <leafValues>
            8.0132818222045898e-01 -1.5103937685489655e-01</leafValues></_>
        <_>
          <internalNodes>
            0 -1 139 -3.5193533403798938e-04</internalNodes>
          <leafValues>
            2.1044570207595825e-01 -7.2046333551406860e-01</leafValues></_>
        <_>
          <internalNodes>
            0 -1 6 -5.0102435052394867e-02</internalNodes>
          <leafValues>
            -8.4423553943634033e-01 1.5867815911769867e-01</leafValues></_>
        <_>
          <internalNodes>
            0 -1 131 2.9258793219923973e-03</internalNodes>
          <leafValues>
            -2.5628358125686646e-01 5.6283158063888550e-01</leafValues></_>
        <_>
          <internalNodes>
            0 -1 176 -4.2809783481061459e-03</internalNodes>
          <leafValues>
            6.4236366748809814e-01 -2.6896634697914124e-01</leafValues></_>
        <_>
          <internalNodes>
            0 -1 246 -2.9527847655117512e-03</internalNodes>
          <leafValues>
            6.2964570522308350e-01 -1.9356073439121246e-01</leafValues></_>
        <_>
          <internalNodes>
            0 -1 138 -6.0805990360677242e-03</internalNodes>
          <leafValues>
            6.7634963989257812e-01 -1.6134223341941833e-01</leafValues></_>
        <_>
          <internalNodes>
            0 -1 177 1.2741969898343086e-02</internalNodes>
          <leafValues>
            1.7470262944698334e-01 -9.0861505270004272e-01</leafValues></_>
        <_>
          <internalNodes>
            0 -1 30 2.1164014935493469e-02</internalNodes>
          <leafValues>
            1.7867822945117950e-01 -6.6782528162002563e-01</leafValues></_>
        <_>
          <internalNodes>
            0 -1 196 -4.6979845501482487e-03</internalNodes>
          <leafValues>
            5.5013477802276611e-01 -2.3501801490783691e-01</leafValues></_>
        <_>
          <internalNodes>
            0 -1 219 -2.5615803897380829e-03</internalNodes>
          <leafValues>
            4.9990260601043701e-01 -2.6053470373153687e-01</leafValues></_>
        <_>
          <internalNodes>
            0 -1 233 8.2641711924225092e-04</internalNodes>
          <leafValues>
            -2.3745818436145782e-01 4.8598048090934753e-01</leafValues></_>
        <_>
          <internalNodes>
            0 -1 256 8.2293460145592690e-03</internalNodes>
          <leafValues>
            -1.2953263521194458e-01 7.8357601165771484e-01</leafValues></_></weakClassifiers></_>
    <!-- stage 2 -->
    <_>
      <maxWeakCount>16</maxWeakCount>
      <stageThreshold>-1.1748503446578979e+00</stageThreshold>
      <weakClassifiers>
        <_>
          <internalNodes>
            0 -1 169 1.9708961248397827e-02</internalNodes>
          <leafValues>
            -2.4299064651131630e-02 9.1200000047683716e-01</leafValues></_>
        <_>
          <internalNodes>
            0 -1 163 -3.3533874899148941e-02</internalNodes>
          <leafValues>
            -8.8894689083099365e-01 2.4371519684791565e-01</leafValues></_>
        <_>
          <internalNodes>
            0 -1 114 -6.5517136827111244e-03</internalNodes>
          <leafValues>
            6.6445630788803101e-01 -2.5932982563972473e-01</leafValues></_>
        <_>
          <internalNodes>
            0 -1 54 -4.2607650160789490e-02</internalNodes>
          <leafValues>
            -7.1677744388580322e-01 1.5911506116390228e-01</leafValues></_>
        <_>
          <internalNodes>
            0 -1 111 -2.3338496685028076e-03</internalNodes>
          <leafValues>
            4.8076438903808594e-01 -2.3128631711006165e-01</leafValues></_>
        <_>
          <internalNodes>
            0 -1 340 7.8630857169628143e-03</internalNodes>
          <leafValues>
            -1.2040329724550247e-01 6.3417655229568481e-01</leafValues></_>
        <_>
          <internalNodes>
            0 -1 14 -4.6706862747669220e-02</internalNodes>
          <leafValues>
            -6.7354220151901245e-01 1.6258886456489563e-01</leafValues></_>
        <_>
          <internalNodes>
            0 -1 156 -4.4228574261069298e-03</internalNodes>
          <leafValues>
            6.9926339387893677e-01 -2.0584690570831299e-01</leafValues></_>
        <_>
          <internalNodes>
            0 -1 229 -5.5311075411736965e-03</internalNodes>
          <leafValues>
            8.2524538040161133e-01 -1.2195195257663727e-01</leafValues></_>
        <_>
          <internalNodes>
            0 -1 181 -1.6443178057670593e-02</internalNodes>
          <leafValues>
            -8.2755392789840698e-01 1.4895367622375488e-01</leafValues></_>
        <_>
          <internalNodes>
            0 -1 190 4.2824596166610718e-03</internalNodes>
          <leafValues>
            1.6783955693244934e-01 -6.9842839241027832e-01</leafValues></_>
        <_>
          <internalNodes>
            0 -1 95 -1.0239406488835812e-02</internalNodes>
          <leafValues>
            8.8976335525512695e-01 -1.4122959971427917e-01</leafValues></_>
        <_>
          <internalNodes>
            0 -1 158 -1.4729802496731281e-03</internalNodes>
          <leafValues>
            5.5389326810836792e-01 -1.8447062373161316e-01</leafValues></_>
        <_>
          <internalNodes>
            0 -1 104 1.7427846789360046e-02</internalNodes>
          <leafValues>
            2.8248101472854614e-01 -5.7303798198699951e-01</leafValues></_>
        <_>
          <internalNodes>
            0 -1 226 4.1417162865400314e-03</internalNodes>
          <leafValues>
            -2.5207814574241638e-01 6.5098124742507935e-01</leafValues></_>
        <_>
          <internalNodes>
            0 -1 188 -2.5831375387497246e-04</internalNodes>
          <leafValues>
            -6.2877148389816284e-01 2.6774618029594421e-01</leafValues></_></weakClassifiers></_>
    <!-- stage 3 -->
    <_>
      <maxWeakCount>20</maxWeakCount>
      <stageThreshold>-1.0767755508422852e+00</stageThreshold>
      <weakClassifiers>
        <_>
          <internalNodes>
            0 -1 143 1.0751496069133282e-02</internalNodes>
          <leafValues>
            -4.2338710278272629e-02 8.1660902500152588e-01</leafValues></_>
        <_>
          <internalNodes>
            0 -1 231 4.3928963132202625e-03</internalNodes>
          <leafValues>
            -1.8129529058933258e-01 5.9840440750122070e-01</leafValues></_>
        <_>
          <internalNodes>
            0 -1 116 9.2196408659219742e-03</internalNodes>
          <leafValues>
            -1.7399798333644867e-01 6.7762666940689087e-01</leafValues></_>
        <_>
          <internalNodes>
            0 -1 112 -2.2491451090900227e-05</internalNodes>
          <leafValues>
            1.9049113988876343e-01 -6.2477087974548340e-01</leafValues></_>
        <_>
          <internalNodes>
            0 -1 290 1.5542272012680769e-03</internalNodes>
          <leafValues>
            -2.0145136117935181e-01 6.7987149953842163e-01</leafValues></_>
        <_>
          <internalNodes>
            0 -1 267 -9.5670986920595169e-03</internalNodes>
          <leafValues>
            7.5493240356445312e-01 -1.7060333490371704e-01</leafValues></_>
        <_>
          <internalNodes>
            0 -1 93 1.0715522803366184e-03</internalNodes>
          <leafValues>
            2.2864411771297455e-01 -5.6088310480117798e-01</leafValues></_>
        <_>
          <internalNodes>
            0 -1 103 1.6545571852475405e-03</internalNodes>
          <leafValues>
            1.6958920657634735e-01 -6.8386656045913696e-01</leafValues></_>
        <_>
          <internalNodes>
            0 -1 164 -5.6283846497535706e-02</internalNodes>
          <leafValues>
            -8.6549693346023560e-01 1.2612903118133545e-01</leafValues></_>
        <_>
          <internalNodes>
            0 -1 27 -4.6397414989769459e-03</internalNodes>
          <leafValues>
            6.4780962467193604e-01 -2.1873416006565094e-01</leafValues></_>
        <_>
          <internalNodes>
            0 -1 29 1.6713900258764625e-03</internalNodes>
          <leafValues>
            2.3786917328834534e-01 -6.0072845220565796e-01</leafValues></_>
        <_>
          <internalNodes>
            0 -1 297 8.5862111300230026e-03</internalNodes>
          <leafValues>
            -2.1695178747177124e-01 6.0224318504333496e-01</leafValues></_>
        <_>
          <internalNodes>
            0 -1 58 -7.4406056664884090e-03</internalNodes>
          <leafValues>
            7.5835359096527100e-01 -1.3688062131404877e-01</leafValues></_>
        <_>
          <internalNodes>
            0 -1 107 4.5910812914371490e-03</internalNodes>
          <leafValues>
            -1.3257855176925659e-01 7.6612669229507446e-01</leafValues></_>
        <_>
          <internalNodes>
            0 -1 199 7.8959371894598007e-03</internalNodes>
          <leafValues>
            1.6319556534290314e-01 -9.3313038349151611e-01</leafValues></_>
        <_>
          <internalNodes>
            0 -1 194 -4.2643370106816292e-03</internalNodes>
          <leafValues>
            7.0893687009811401e-01 -2.1757543087005615e-01</leafValues></_>
        <_>
          <internalNodes>
            0 -1 134 -9.6743730828166008e-03</internalNodes>
          <leafValues>
            -6.4827227592468262e-01 2.1214726567268372e-01</leafValues></_>
        <_>
          <internalNodes>
            0 -1 130 -7.9920738935470581e-03</internalNodes>
          <leafValues>
            8.4794616699218750e-01 -1.8004655838012695e-01</leafValues></_>
        <_>
          <internalNodes>
            0 -1 299 9.1333105228841305e-04</internalNodes>
          <leafValues>
            2.2689130902290344e-01 -6.1800402402877808e-01</leafValues></_>
        <_>
          <internalNodes>
            0 -1 321 -7.7857373980805278e-04</internalNodes>
          <leafValues>
            -6.5915602445602417e-01 1.6089802980422974e-01</leafValues></_></weakClassifiers></_>
    <!-- stage 4 -->
    <_>
      <maxWeakCount>17</maxWeakCount>
      <stageThreshold>-1.1174066066741943e+00</stageThreshold>
      <weakClassifiers>
        <_>
          <internalNodes>
            0 -1 179 6.3907220028340816e-03</internalNodes>
          <leafValues>
            -4.2399171739816666e-02 7.8109455108642578e-01</leafValues></_>
        <_>
          <internalNodes>
            0 -1 92 -1.0914862155914307e-02</internalNodes>
          <leafValues>
            7.6027303934097290e-01 -1.1402950435876846e-01</leafValues></_>
        <_>
          <internalNodes>
            0 -1 144 1.4455022290349007e-02</internalNodes>
          <leafValues>
            -1.2025833129882812e-01 8.1918781995773315e-01</leafValues></_>
        <_>
          <internalNodes>
            0 -1 225 2.3017665371298790e-03</internalNodes>
          <leafValues>
            -2.1697576344013214e-01 6.4205163717269897e-01</leafValues></_>
        <_>
          <internalNodes>
            0 -1 136 2.3807198740541935e-03</internalNodes>
          <leafValues>
            -2.1124587953090668e-01 6.2355971336364746e-01</leafValues></_>
        <_>
          <internalNodes>
            0 -1 296 4.2111137881875038e-03</internalNodes>
          <leafValues>
            -1.9672802090644836e-01 6.4301794767379761e-01</leafValues></_>
        <_>
          <internalNodes>
            0 -1 90 2.5826685130596161e-02</internalNodes>
          <leafValues>
            1.8405690789222717e-01 -8.5496824979782104e-01</leafValues></_>
        <_>
          <internalNodes>
            0 -1 253 -1.4511253684759140e-02</internalNodes>
          <leafValues>
            7.4355721473693848e-01 -2.0021753013134003e-01</leafValues></_>
        <_>
          <internalNodes>
            0 -1 212 1.0454554110765457e-02</internalNodes>
          <leafValues>
            -1.4082229137420654e-01 7.7838546037673950e-01</leafValues></_>
        <_>
          <internalNodes>
            0 -1 35 1.5091685578227043e-02</internalNodes>
          <leafValues>
            2.4115586280822754e-01 -5.6153714656829834e-01</leafValues></_>
        <_>
          <internalNodes>
            0 -1 273 6.7640247289091349e-04</internalNodes>
          <leafValues>
            -3.2564547657966614e-01 3.7958216667175293e-01</leafValues></_>
        <_>
          <internalNodes>
            0 -1 117 1.5023790765553713e-03</internalNodes>
          <leafValues>
            1.7808887362480164e-01 -6.8713349103927612e-01</leafValues></_>
        <_>
          <internalNodes>
            0 -1 294 3.2096314243972301e-03</internalNodes>
          <leafValues>
            -2.3638492822647095e-01 5.5723011493682861e-01</leafValues></_>
        <_>
          <internalNodes>
            0 -1 63 -4.1564768180251122e-03</internalNodes>
          <leafValues>
            8.6602801084518433e-01 -1.2980251014232635e-01</leafValues></_>
        <_>
          <internalNodes>
            0 -1 314 1.1629993095993996e-03</internalNodes>
          <leafValues>
            -1.5000635385513306e-01 6.0433006286621094e-01</leafValues></_>
        <_>
          <internalNodes>
            0 -1 5 -1.0488934814929962e-01</internalNodes>
          <leafValues>
            -5.1536977291107178e-01 2.1979114413261414e-01</leafValues></_>
        <_>
          <internalNodes>
            0 -1 57 1.0547476820647717e-02</internalNodes>
          <leafValues>
            1.4401632547378540e-01 -8.4595835208892822e-01</leafValues></_></weakClassifiers></_>
    <!-- stage 5 -->
    <_>
      <maxWeakCount>18</maxWeakCount>
      <stageThreshold>-1.0645096302032471e+00</stageThreshold>
      <weakClassifiers>
        <_>
          <internalNodes>
            0 -1 208 -1.1025099083781242e-02</internalNodes>
          <leafValues>
            7.4763405323028564e-01 -4.7008547931909561e-02</leafValues></_>
        <_>
          <internalNodes>
            0 -1 238 -5.4439357481896877e-03</internalNodes>
          <leafValues>
            6.5338677167892456e-01 -1.9167886674404144e-01</leafValues></_>
        <_>
          <internalNodes>
            0 -1 182 7.4376524426043034e-03</internalNodes>
          <leafValues>
            -1.5767192840576172e-01 8.0003881454467773e-01</leafValues></_>
        <_>
          <internalNodes>
            0 -1 207 -6.2725753523409367e-03</internalNodes>
          <leafValues>
            6.8102049827575684e-01 -1.6263490915298462e-01</leafValues></_>
        <_>
          <internalNodes>
            0 -1 286 6.2625892460346222e-03</internalNodes>
          <leafValues>
            -1.7321307957172394e-01 6.4643669128417969e-01</leafValues></_>
        <_>
          <internalNodes>
            0 -1 135 -2.5252694264054298e-02</internalNodes>
          <leafValues>
            -7.9316389560699463e-01 1.2404663860797882e-01</leafValues></_>
        <_>
          <internalNodes>
            0 -1 41 -3.0538742430508137e-03</internalNodes>
          <leafValues>
            8.0685234069824219e-01 -1.2162292748689651e-01</leafValues></_>
        <_>
          <internalNodes>
            0 -1 269 -2.3337658494710922e-03</internalNodes>
          <leafValues>
            4.8552051186561584e-01 -2.4175427854061127e-01</leafValues></_>
        <_>
          <internalNodes>
            0 -1 8 3.5687633790075779e-03</internalNodes>
          <leafValues>
            1.6243176162242889e-01 -7.2594380378723145e-01</leafValues></_>
        <_>
          <internalNodes>
            0 -1 142 1.1889825109392405e-03</internalNodes>
          <leafValues>
            -2.5293967127799988e-01 4.0214654803276062e-01</leafValues></_>
        <_>
          <internalNodes>
            0 -1 42 5.3255494683980942e-02</internalNodes>
          <leafValues>
            1.5719771385192871e-01 -6.6510182619094849e-01</leafValues></_>
        <_>
          <internalNodes>
            0 -1 289 1.2848926708102226e-03</internalNodes>
          <leafValues>
            -2.2833639383316040e-01 4.9841248989105225e-01</leafValues></_>
        <_>
          <internalNodes>
            0 -1 333 1.0085323825478554e-02</internalNodes>
          <leafValues>
            -1.6635812819004059e-01 6.2758070230484009e-01</leafValues></_>
        <_>
          <internalNodes>
            0 -1 161 -3.0579385347664356e-03</internalNodes>
          <leafValues>
            5.2680504322052002e-01 -1.7525742948055267e-01</leafValues></_>
        <_>
          <internalNodes>
            0 -1 125 -5.9695742093026638e-03</internalNodes>
          <leafValues>
            7.2843581438064575e-01 -1.5171518921852112e-01</leafValues></_>
        <_>
          <internalNodes>
            0 -1 155 -3.1876100692898035e-03</internalNodes>
          <leafValues>
            6.1942422389984131e-01 -1.7196792364120483e-01</leafValues></_>
        <_>
          <internalNodes>
            0 -1 129 7.0879524573683739e-03</internalNodes>
          <leafValues>
            1.4974753558635712e-01 -8.5995239019393921e-01</leafValues></_>
        <_>
          <internalNodes>
            0 -1 40 1.4967957977205515e-03</internalNodes>
          <leafValues>
            -2.0706313848495483e-01 5.3070741891860962e-01</leafValues></_></weakClassifiers></_>
    <!-- stage 6 -->
    <_>
      <maxWeakCount>22</maxWeakCount>
      <stageThreshold>-1.1426168680191040e+00</stageThreshold>
      <weakClassifiers>
        <_>
          <internalNodes>
            0 -1 262 1.3257713988423347e-02</internalNodes>
          <leafValues>
            -4.9358340911567211e-03 7.8096950054168701e-01</leafValues></_>
        <_>
          <internalNodes>
            0 -1 201 8.5251163691282272e-03</internalNodes>
          <leafValues>
            -1.0370168834924698e-01 8.0948936939239502e-01</leafValues></_>
        <_>
          <internalNodes>
            0 -1 312 6.6125988960266113e-03</internalNodes>
          <leafValues>
            -2.0185028016567230e-01 6.7871236801147461e-01</leafValues></_>
        <_>
          <internalNodes>
            0 -1 276 2.7652860153466463e-03</internalNodes>
          <leafValues>
            -1.1159804463386536e-01 7.3793447017669678e-01</leafValues></_>
        <_>
          <internalNodes>
            0 -1 277 4.7763595357537270e-03</internalNodes>
          <leafValues>
            -1.6118916869163513e-01 6.9301688671112061e-01</leafValues></_>
        <_>
          <internalNodes>
            0 -1 46 9.8132062703371048e-04</internalNodes>
          <leafValues>
            2.5395724177360535e-01 -4.9295619130134583e-01</leafValues></_>
        <_>
          <internalNodes>
            0 -1 168 -6.7662857472896576e-03</internalNodes>
          <leafValues>
            6.2139576673507690e-01 -1.9752404093742371e-01</leafValues></_>
        <_>
          <internalNodes>
            0 -1 84 -1.7651550471782684e-02</internalNodes>
          <leafValues>
            -9.0206712484359741e-01 1.6238376498222351e-01</leafValues></_>
        <_>
          <internalNodes>
            0 -1 53 3.6603556945919991e-03</internalNodes>
          <leafValues>
            -2.2694335877895355e-01 5.3802406787872314e-01</leafValues></_>
        <_>
          <internalNodes>
            0 -1 338 -3.0025113373994827e-03</internalNodes>
          <leafValues>
            5.6178426742553711e-01 -1.9307436048984528e-01</leafValues></_>
        <_>
          <internalNodes>
            0 -1 32 5.8385641314089298e-03</internalNodes>
          <leafValues>
            -1.2182540446519852e-01 7.8715121746063232e-01</leafValues></_>
        <_>
          <internalNodes>
            0 -1 186 -9.1828992590308189e-03</internalNodes>
          <leafValues>
            6.2000018358230591e-01 -1.6337268054485321e-01</leafValues></_>
        <_>
          <internalNodes>
            0 -1 88 -6.4101055264472961e-02</internalNodes>
          <leafValues>
            -8.2831335067749023e-01 1.3464280962944031e-01</leafValues></_>
        <_>
          <internalNodes>
            0 -1 320 2.3363607469946146e-03</internalNodes>
          <leafValues>
            -2.4665430188179016e-01 4.5249992609024048e-01</leafValues></_>
        <_>
          <internalNodes>
            0 -1 184 -5.0806187093257904e-02</internalNodes>
          <leafValues>
            -7.1719682216644287e-01 1.7773257195949554e-01</leafValues></_>
        <_>
          <internalNodes>
            0 -1 50 -1.8597354646772146e-03</internalNodes>
          <leafValues>
            -4.0761059522628784e-01 2.3780480027198792e-01</leafValues></_>
        <_>
          <internalNodes>
            0 -1 260 1.6328593483194709e-04</internalNodes>
          <leafValues>
            -2.5379356741905212e-01 3.9561581611633301e-01</leafValues></_>
        <_>
          <internalNodes>
            0 -1 11 2.1866451948881149e-02</internalNodes>
          <leafValues>
            -1.5296542644500732e-01 7.1218854188919067e-01</leafValues></_>
        <_>
          <internalNodes>
            0 -1 258 1.2645514216274023e-03</internalNodes>
          <leafValues>
            -2.2572402656078339e-01 4.8391720652580261e-01</leafValues></_>
        <_>
          <internalNodes>
            0 -1 0 -1.7886810004711151e-02</internalNodes>
          <leafValues>
            -5.2670133113861084e-01 2.2433848679065704e-01</leafValues></_>
        <_>
          <internalNodes>
            0 -1 254 3.2762717455625534e-03</internalNodes>
          <leafValues>
            -1.5933324396610260e-01 7.7068513631820679e-01</leafValues></_>
        <_>
          <internalNodes>
            0 -1 285 9.0814841678366065e-04</internalNodes>
          <leafValues>
            -1.8446484208106995e-01 5.3121566772460938e-01</leafValues></_></weakClassifiers></_>
    <!-- stage 7 -->
    <_>
      <maxWeakCount>15</maxWeakCount>
      <stageThreshold>-9.6899342536926270e-01</stageThreshold>
      <weakClassifiers>
        <_>
          <internalNodes>
            0 -1 132 1.1667666956782341e-02</internalNodes>
          <leafValues>
            -2.9069768264889717e-02 8.5501861572265625e-01</leafValues></_>
        <_>
          <internalNodes>
            0 -1 19 -3.0929408967494965e-02</internalNodes>
          <leafValues>
            -5.5936920642852783e-01 3.2766705751419067e-01</leafValues></_>
        <_>
          <internalNodes>
            0 -1 245 7.8033533645793796e-04</internalNodes>
          <leafValues>
            -2.6846590638160706e-01 4.7393530607223511e-01</leafValues></_>
        <_>
          <internalNodes>
            0 -1 293 -6.2295976094901562e-03</internalNodes>
          <leafValues>
            8.6566376686096191e-01 -1.8782615661621094e-01</leafValues></_>
        <_>
          <internalNodes>
            0 -1 153 5.0282394513487816e-03</internalNodes>
          <leafValues>
            -2.0252901315689087e-01 5.1719748973846436e-01</leafValues></_>
        <_>
          <internalNodes>
            0 -1 343 -3.2295677810907364e-03</internalNodes>
          <leafValues>
            7.2094094753265381e-01 -1.9500583410263062e-01</leafValues></_>
        <_>
          <internalNodes>
            0 -1 127 4.7651509521529078e-04</internalNodes>
          <leafValues>
            2.1284680068492889e-01 -6.5889686346054077e-01</leafValues></_>
        <_>
          <internalNodes>
            0 -1 271 -8.6631346493959427e-03</internalNodes>
          <leafValues>
            6.0138440132141113e-01 -2.1158511936664581e-01</leafValues></_>
        <_>
          <internalNodes>
            0 -1 266 -7.1002179756760597e-03</internalNodes>
          <leafValues>
            8.8187336921691895e-01 -1.1544042825698853e-01</leafValues></_>
        <_>
          <internalNodes>
            0 -1 302 1.3138320064172149e-03</internalNodes>
          <leafValues>
            -2.2999456524848938e-01 4.7530654072761536e-01</leafValues></_>
        <_>
          <internalNodes>
            0 -1 240 3.3968696370720863e-03</internalNodes>
          <leafValues>
            -1.5189632773399353e-01 6.9971954822540283e-01</leafValues></_>
        <_>
          <internalNodes>
            0 -1 308 1.4201723970472813e-03</internalNodes>
          <leafValues>
            -1.7826132476329803e-01 6.1935758590698242e-01</leafValues></_>
        <_>
          <internalNodes>
            0 -1 323 3.4810318611562252e-03</internalNodes>
          <leafValues>
            3.1133204698562622e-01 -4.1695943474769592e-01</leafValues></_>
        <_>
          <internalNodes>
            0 -1 303 8.7146172299981117e-03</internalNodes>
          <leafValues>
            -1.8887633085250854e-01 7.3856061697006226e-01</leafValues></_>
        <_>
          <internalNodes>
            0 -1 49 2.3004137910902500e-03</internalNodes>
          <leafValues>
            1.9688554108142853e-01 -6.7233961820602417e-01</leafValues></_></weakClassifiers></_>
    <!-- stage 8 -->
    <_>
      <maxWeakCount>20</maxWeakCount>
      <stageThreshold>-9.8131805658340454e-01</stageThreshold>
      <weakClassifiers>
        <_>
          <internalNodes>
            0 -1 97 -3.9836494252085686e-03</internalNodes>
          <leafValues>
            8.3644860982894897e-01 6.3047282397747040e-02</leafValues></_>
        <_>
          <internalNodes>
            0 -1 218 2.6116924709640443e-04</internalNodes>
          <leafValues>
            2.5689870119094849e-01 -5.4822820425033569e-01</leafValues></_>
        <_>
          <internalNodes>
            0 -1 18 -5.0703138113021851e-03</internalNodes>
          <leafValues>
            8.8759171962738037e-01 -1.3827775418758392e-01</leafValues></_>
        <_>
          <internalNodes>
            0 -1 74 1.6777367563918233e-03</internalNodes>
          <leafValues>
            -2.1746297180652618e-01 5.6703829765319824e-01</leafValues></_>
        <_>
          <internalNodes>
            0 -1 174 1.0703695006668568e-03</internalNodes>
          <leafValues>
            1.9743268191814423e-01 -6.8204438686370850e-01</leafValues></_>
        <_>
          <internalNodes>
            0 -1 197 6.6340416669845581e-03</internalNodes>
          <leafValues>
            1.6233269870281219e-01 -6.6322565078735352e-01</leafValues></_>
        <_>
          <internalNodes>
            0 -1 81 2.0421883091330528e-03</internalNodes>
          <leafValues>
            -1.9765523076057434e-01 6.1465895175933838e-01</leafValues></_>
        <_>
          <internalNodes>
            0 -1 328 1.4021266251802444e-02</internalNodes>
          <leafValues>
            -1.3641057908535004e-01 8.7106549739837646e-01</leafValues></_>
        <_>
          <internalNodes>
            0 -1 278 2.4245469830930233e-03</internalNodes>
          <leafValues>
            -1.8822602927684784e-01 5.3105962276458740e-01</leafValues></_>
        <_>
          <internalNodes>
            0 -1 145 -2.6790755800902843e-03</internalNodes>
          <leafValues>
            6.1156380176544189e-01 -1.8663536012172699e-01</leafValues></_>
        <_>
          <internalNodes>
            0 -1 105 5.3975526243448257e-03</internalNodes>
          <leafValues>
            -1.5484173595905304e-01 7.1015870571136475e-01</leafValues></_>
        <_>
          <internalNodes>
            0 -1 326 3.4790532663464546e-03</internalNodes>
          <leafValues>
            -1.4429278671741486e-01 6.6864138841629028e-01</leafValues></_>
        <_>
          <internalNodes>
            0 -1 36 2.8595786541700363e-02</internalNodes>
          <leafValues>
            1.4902035892009735e-01 -7.9712164402008057e-01</leafValues></_>
        <_>
          <internalNodes>
            0 -1 295 2.2972184233367443e-03</internalNodes>
          <leafValues>
            -2.1894253790378571e-01 4.8430541157722473e-01</leafValues></_>
        <_>
          <internalNodes>
            0 -1 200 -5.9969471767544746e-03</internalNodes>
          <leafValues>
            6.6031861305236816e-01 -1.5417824685573578e-01</leafValues></_>
        <_>
          <internalNodes>
            0 -1 12 8.7575271725654602e-02</internalNodes>
          <leafValues>
            1.4905744791030884e-01 -7.5778013467788696e-01</leafValues></_>
        <_>
          <internalNodes>
            0 -1 33 -9.5512568950653076e-03</internalNodes>
          <leafValues>
            7.5619065761566162e-01 -1.4938426017761230e-01</leafValues></_>
        <_>
          <internalNodes>
            0 -1 187 6.2333419919013977e-03</internalNodes>
          <leafValues>
            1.2857916951179504e-01 -8.6392164230346680e-01</leafValues></_>
        <_>
          <internalNodes>
            0 -1 99 -6.8106767721474171e-03</internalNodes>
          <leafValues>
            6.6430139541625977e-01 -1.6354246437549591e-01</leafValues></_>
        <_>
          <internalNodes>
            0 -1 21 -1.8059078138321638e-03</internalNodes>
          <leafValues>
            -6.4215230941772461e-01 1.7550516128540039e-01</leafValues></_></weakClassifiers></_>
    <!-- stage 9 -->
    <_>
      <maxWeakCount>20</maxWeakCount>
      <stageThreshold>-9.7857362031936646e-01</stageThreshold>
      <weakClassifiers>
        <_>
          <internalNodes>
            0 -1 165 2.8636397793889046e-02</internalNodes>
          <leafValues>
            3.1078610569238663e-02 8.3193278312683105e-01</leafValues></_>
        <_>
          <internalNodes>
            0 -1 237 -2.9538385570049286e-03</internalNodes>
          <leafValues>
            4.5594799518585205e-01 -2.0667886734008789e-01</leafValues></_>
        <_>
          <internalNodes>
            0 -1 318 2.7698413468897343e-03</internalNodes>
          <leafValues>
            -2.2036613523960114e-01 4.2070057988166809e-01</leafValues></_>
        <_>
          <internalNodes>
            0 -1 265 -2.5859987363219261e-03</internalNodes>
          <leafValues>
            4.0322974324226379e-01 -2.5979861617088318e-01</leafValues></_>
        <_>
          <internalNodes>
            0 -1 78 -1.8871281296014786e-02</internalNodes>
          <leafValues>
            -6.2499928474426270e-01 1.4602454006671906e-01</leafValues></_>
        <_>
          <internalNodes>
            0 -1 91 1.4119965955615044e-02</internalNodes>
          <leafValues>
            2.0137976109981537e-01 -4.8035141825675964e-01</leafValues></_>
        <_>
          <internalNodes>
            0 -1 242 -3.4836283884942532e-03</internalNodes>
          <leafValues>
            7.2937875986099243e-01 -1.4585177600383759e-01</leafValues></_>
        <_>
          <internalNodes>
            0 -1 202 -1.8049499485641718e-03</internalNodes>
          <leafValues>
            6.2841856479644775e-01 -1.8544703722000122e-01</leafValues></_>
        <_>
          <internalNodes>
            0 -1 159 2.2778110578656197e-03</internalNodes>
          <leafValues>
            -2.3648849129676819e-01 4.6956032514572144e-01</leafValues></_>
        <_>
          <internalNodes>
            0 -1 209 8.1490364391356707e-04</internalNodes>
          <leafValues>
            1.9802966713905334e-01 -6.0491293668746948e-01</leafValues></_>
        <_>
          <internalNodes>
            0 -1 263 4.1750604286789894e-03</internalNodes>
          <leafValues>
            -2.2756540775299072e-01 5.4954051971435547e-01</leafValues></_>
        <_>
          <internalNodes>
            0 -1 20 -2.0163822919130325e-02</internalNodes>
          <leafValues>
            -4.6727246046066284e-01 2.3456420004367828e-01</leafValues></_>
        <_>
          <internalNodes>
            0 -1 151 -1.1584229068830609e-03</internalNodes>
          <leafValues>
            4.2603224515914917e-01 -2.4408891797065735e-01</leafValues></_>
        <_>
          <internalNodes>
            0 -1 17 3.2821822911500931e-02</internalNodes>
          <leafValues>
            1.4294420182704926e-01 -7.5215578079223633e-01</leafValues></_>
        <_>
          <internalNodes>
            0 -1 113 7.5531052425503731e-03</internalNodes>
          <leafValues>
            -1.3142515718936920e-01 8.3167982101440430e-01</leafValues></_>
        <_>
          <internalNodes>
            0 -1 206 -4.8169821500778198e-02</internalNodes>
          <leafValues>
            -7.7375805377960205e-01 1.5341722965240479e-01</leafValues></_>
        <_>
          <internalNodes>
            0 -1 115 -2.5198650546371937e-03</internalNodes>
          <leafValues>
            5.2417796850204468e-01 -2.2818624973297119e-01</leafValues></_>
        <_>
          <internalNodes>
            0 -1 79 -5.7298041880130768e-02</internalNodes>
          <leafValues>
            6.5561574697494507e-01 -1.4954067766666412e-01</leafValues></_>
        <_>
          <internalNodes>
            0 -1 250 1.8139617168344557e-04</internalNodes>
          <leafValues>
            -2.1389409899711609e-01 4.6605363488197327e-01</leafValues></_>
        <_>
          <internalNodes>
            0 -1 344 -4.0088156238198280e-03</internalNodes>
          <leafValues>
            4.3040034174919128e-01 -2.5165316462516785e-01</leafValues></_></weakClassifiers></_>
    <!-- stage 10 -->
    <_>
      <maxWeakCount>27</maxWeakCount>
      <stageThreshold>-1.4733340740203857e+00</stageThreshold>
      <weakClassifiers>
        <_>
          <internalNodes>
            0 -1 170 3.1150178983807564e-02</internalNodes>
          <leafValues>
            7.8481011092662811e-02 8.7532466650009155e-01</leafValues></_>
        <_>
          <internalNodes>
            0 -1 102 -1.4111323282122612e-02</internalNodes>
          <leafValues>
            9.8497676849365234e-01 -3.9180979132652283e-02</leafValues></_>
        <_>
          <internalNodes>
            0 -1 137 1.7278459854424000e-03</internalNodes>
          <leafValues>
            1.3754780590534210e-01 -6.7139810323715210e-01</leafValues></_>
        <_>
          <internalNodes>
            0 -1 34 -4.8555722460150719e-03</internalNodes>
          <leafValues>
            6.7665398120880127e-01 -1.3122150301933289e-01</leafValues></_>
        <_>
          <internalNodes>
            0 -1 346 2.5519619230180979e-03</internalNodes>
          <leafValues>
            -1.6434498131275177e-01 5.5787241458892822e-01</leafValues></_>
        <_>
          <internalNodes>
            0 -1 70 -3.4627621062099934e-03</internalNodes>
          <leafValues>
            6.9512355327606201e-01 -1.3376799225807190e-01</leafValues></_>
        <_>
          <internalNodes>
            0 -1 332 -1.6066310927271843e-02</internalNodes>
          <leafValues>
            8.9703267812728882e-01 -6.7986749112606049e-02</leafValues></_>
        <_>
          <internalNodes>
            0 -1 24 -5.9612166136503220e-02</internalNodes>
          <leafValues>
            -6.0958069562911987e-01 1.7055933177471161e-01</leafValues></_>
        <_>
          <internalNodes>
            0 -1 10 6.5776959061622620e-02</internalNodes>
          <leafValues>
            1.6146802902221680e-01 -6.3463163375854492e-01</leafValues></_>
        <_>
          <internalNodes>
            0 -1 44 -1.0139923542737961e-02</internalNodes>
          <leafValues>
            6.9956839084625244e-01 -1.4941681921482086e-01</leafValues></_>
        <_>
          <internalNodes>
            0 -1 243 -4.3736519291996956e-03</internalNodes>
          <leafValues>
            -6.6707754135131836e-01 1.5829150378704071e-01</leafValues></_>
        <_>
          <internalNodes>
            0 -1 94 3.3715539611876011e-03</internalNodes>
          <leafValues>
            -1.8063926696777344e-01 5.8098345994949341e-01</leafValues></_>
        <_>
          <internalNodes>
            0 -1 128 -1.0134575422853231e-03</internalNodes>
          <leafValues>
            4.7116690874099731e-01 -1.8371784687042236e-01</leafValues></_>
        <_>
          <internalNodes>
            0 -1 71 4.9804709851741791e-03</internalNodes>
          <leafValues>
            -1.2183394283056259e-01 8.5068631172180176e-01</leafValues></_>
        <_>
          <internalNodes>
            0 -1 64 -8.7521033128723502e-04</internalNodes>
          <leafValues>
            -5.2442163228988647e-01 2.0296616852283478e-01</leafValues></_>
        <_>
          <internalNodes>
            0 -1 121 6.5512578003108501e-03</internalNodes>
          <leafValues>
            1.9756187498569489e-01 -4.5890036225318909e-01</leafValues></_>
        <_>
          <internalNodes>
            0 -1 204 -7.3945010080933571e-03</internalNodes>
          <leafValues>
            6.5447771549224854e-01 -1.4451904594898224e-01</leafValues></_>
        <_>
          <internalNodes>
            0 -1 25 -4.2366161942481995e-03</internalNodes>
          <leafValues>
            8.1750631332397461e-01 -9.6927896142005920e-02</leafValues></_>
        <_>
          <internalNodes>
            0 -1 342 4.0961406193673611e-03</internalNodes>
          <leafValues>
            -1.6487862169742584e-01 5.3533756732940674e-01</leafValues></_>
        <_>
          <internalNodes>
            0 -1 48 5.8120256289839745e-04</internalNodes>
          <leafValues>
            -2.3789499700069427e-01 4.0465256571769714e-01</leafValues></_>
        <_>
          <internalNodes>
            0 -1 339 3.3864918805193156e-05</internalNodes>
          <leafValues>
            3.1033298373222351e-01 -2.9885676503181458e-01</leafValues></_>
        <_>
          <internalNodes>
            0 -1 331 1.4319948386400938e-03</internalNodes>
          <leafValues>
            -1.6506177186965942e-01 5.9692120552062988e-01</leafValues></_>
        <_>
          <internalNodes>
            0 -1 23 7.1446207584813237e-05</internalNodes>
          <leafValues>
            2.5948396325111389e-01 -3.5820931196212769e-01</leafValues></_>
        <_>
          <internalNodes>
            0 -1 59 -1.8892814405262470e-03</internalNodes>
          <leafValues>
            -5.4530304670333862e-01 1.6938638687133789e-01</leafValues></_>
        <_>
          <internalNodes>
            0 -1 87 4.4425241649150848e-03</internalNodes>
          <leafValues>
            -1.9656983017921448e-01 4.8844012618064880e-01</leafValues></_>
        <_>
          <internalNodes>
            0 -1 3 -4.3426711112260818e-02</internalNodes>
          <leafValues>
            -7.7162814140319824e-01 1.3994072377681732e-01</leafValues></_>
        <_>
          <internalNodes>
            0 -1 141 5.9775668196380138e-03</internalNodes>
          <leafValues>
            1.1644177138805389e-01 -6.5619224309921265e-01</leafValues></_></weakClassifiers></_>
    <!-- stage 11 -->
    <_>
      <maxWeakCount>15</maxWeakCount>
      <stageThreshold>-8.3806902170181274e-01</stageThreshold>
      <weakClassifiers>
        <_>
          <internalNodes>
            0 -1 56 -4.7406844794750214e-02</internalNodes>
          <leafValues>
            -3.8720539212226868e-01 4.2812255024909973e-01</leafValues></_>
        <_>
          <internalNodes>
            0 -1 167 4.4126261025667191e-02</internalNodes>
          <leafValues>
            -1.2940610945224762e-01 9.0095764398574829e-01</leafValues></_>
        <_>
          <internalNodes>
            0 -1 247 6.7569591919891536e-05</internalNodes>
          <leafValues>
            2.4406860768795013e-01 -4.4984385371208191e-01</leafValues></_>
        <_>
          <internalNodes>
            0 -1 66 6.0778092592954636e-03</internalNodes>
          <leafValues>
            -1.8920406699180603e-01 6.8775850534439087e-01</leafValues></_>
        <_>
          <internalNodes>
            0 -1 198 9.6964919939637184e-03</internalNodes>
          <leafValues>
            1.9822990894317627e-01 -5.1583045721054077e-01</leafValues></_>
        <_>
          <internalNodes>
            0 -1 210 -2.0527318120002747e-03</internalNodes>
          <leafValues>
            5.0453430414199829e-01 -1.8997916579246521e-01</leafValues></_>
        <_>
          <internalNodes>
            0 -1 341 -6.5250280313193798e-03</internalNodes>
          <leafValues>
            6.2555503845214844e-01 -1.5618927776813507e-01</leafValues></_>
        <_>
          <internalNodes>
            0 -1 298 6.6355979070067406e-03</internalNodes>
          <leafValues>
            -1.1776056140661240e-01 7.1452558040618896e-01</leafValues></_>
        <_>
          <internalNodes>
            0 -1 146 -1.2006219476461411e-02</internalNodes>
          <leafValues>
            5.7514739036560059e-01 -1.6796503961086273e-01</leafValues></_>
        <_>
          <internalNodes>
            0 -1 86 -1.4212850946933031e-03</internalNodes>
          <leafValues>
            3.6171317100524902e-01 -2.5933814048767090e-01</leafValues></_>
        <_>
          <internalNodes>
            0 -1 325 1.6579829156398773e-02</internalNodes>
          <leafValues>
            -1.2185368686914444e-01 7.9930353164672852e-01</leafValues></_>
        <_>
          <internalNodes>
            0 -1 281 5.0054779276251793e-03</internalNodes>
          <leafValues>
            -1.3266591727733612e-01 6.3623452186584473e-01</leafValues></_>
        <_>
          <internalNodes>
            0 -1 288 -3.2543740235269070e-03</internalNodes>
          <leafValues>
            5.7266092300415039e-01 -1.8192823231220245e-01</leafValues></_>
        <_>
          <internalNodes>
            0 -1 328 -7.3258788324892521e-03</internalNodes>
          <leafValues>
            6.2008929252624512e-01 -1.5172538161277771e-01</leafValues></_>
        <_>
          <internalNodes>
            0 -1 211 -1.6668466851115227e-03</internalNodes>
          <leafValues>
            -6.6847139596939087e-01 1.5026430785655975e-01</leafValues></_></weakClassifiers></_>
    <!-- stage 12 -->
    <_>
      <maxWeakCount>19</maxWeakCount>
      <stageThreshold>-9.5715934038162231e-01</stageThreshold>
      <weakClassifiers>
        <_>
          <internalNodes>
            0 -1 178 -3.9227521046996117e-03</internalNodes>
          <leafValues>
            6.9347494840621948e-01 -2.9637761414051056e-02</leafValues></_>
        <_>
          <internalNodes>
            0 -1 334 1.4029856771230698e-02</internalNodes>
          <leafValues>
            2.5436794757843018e-01 -4.7294929623603821e-01</leafValues></_>
        <_>
          <internalNodes>
            0 -1 255 6.1896853148937225e-03</internalNodes>
          <leafValues>
            -2.0699514448642731e-01 5.4384058713912964e-01</leafValues></_>
        <_>
          <internalNodes>
            0 -1 232 1.8349751830101013e-02</internalNodes>
          <leafValues>
            -3.1610128283500671e-01 4.7462967038154602e-01</leafValues></_>
        <_>
          <internalNodes>
            0 -1 175 5.0705913454294205e-03</internalNodes>
          <leafValues>
            -1.2258947640657425e-01 7.1696680784225464e-01</leafValues></_>
        <_>
          <internalNodes>
            0 -1 133 -2.7222605422139168e-03</internalNodes>
          <leafValues>
            -7.1960520744323730e-01 1.9329433143138885e-01</leafValues></_>
        <_>
          <internalNodes>
            0 -1 119 -8.2854554057121277e-03</internalNodes>
          <leafValues>
            7.5468677282333374e-01 -1.6006995737552643e-01</leafValues></_>
        <_>
          <internalNodes>
            0 -1 52 7.5825631618499756e-02</internalNodes>
          <leafValues>
            2.1486490964889526e-01 -5.3339868783950806e-01</leafValues></_>
        <_>
          <internalNodes>
            0 -1 216 -9.2894062399864197e-03</internalNodes>
          <leafValues>
            3.8162812590599060e-01 -2.7735581994056702e-01</leafValues></_>
        <_>
          <internalNodes>
            0 -1 73 4.8619252629578114e-03</internalNodes>
          <leafValues>
            4.4036319851875305e-01 -2.8913739323616028e-01</leafValues></_>
        <_>
          <internalNodes>
            0 -1 313 -1.3107352424412966e-03</internalNodes>
          <leafValues>
            5.5401760339736938e-01 -1.7432072758674622e-01</leafValues></_>
        <_>
          <internalNodes>
            0 -1 222 -9.3605322763323784e-03</internalNodes>
          <leafValues>
            4.5442229509353638e-01 -2.3526671528816223e-01</leafValues></_>
        <_>
          <internalNodes>
            0 -1 311 5.9535764157772064e-03</internalNodes>
          <leafValues>
            1.6283012926578522e-01 -7.9718595743179321e-01</leafValues></_>
        <_>
          <internalNodes>
            0 -1 185 -3.1759825651533902e-04</internalNodes>
          <leafValues>
            -4.6637403964996338e-01 1.9162273406982422e-01</leafValues></_>
        <_>
          <internalNodes>
            0 -1 230 -2.2992382291704416e-03</internalNodes>
          <leafValues>
            5.3968268632888794e-01 -1.8337321281433105e-01</leafValues></_>
        <_>
          <internalNodes>
            0 -1 217 7.4729295447468758e-03</internalNodes>
          <leafValues>
            -1.6340284049510956e-01 6.8788778781890869e-01</leafValues></_>
        <_>
          <internalNodes>
            0 -1 223 6.5071682911366224e-04</internalNodes>
          <leafValues>
            2.3270773887634277e-01 -4.9593040347099304e-01</leafValues></_>
        <_>
          <internalNodes>
            0 -1 67 4.0822578594088554e-03</internalNodes>
          <leafValues>
            -2.4922934174537659e-01 4.1822412610054016e-01</leafValues></_>
        <_>
          <internalNodes>
            0 -1 140 -1.7771457787603140e-03</internalNodes>
          <leafValues>
            5.1618510484695435e-01 -2.1290533244609833e-01</leafValues></_></weakClassifiers></_>
    <!-- stage 13 -->
    <_>
      <maxWeakCount>19</maxWeakCount>
      <stageThreshold>-1.0536910295486450e+00</stageThreshold>
      <weakClassifiers>
        <_>
          <internalNodes>
            0 -1 189 -3.9862841367721558e-04</internalNodes>
          <leafValues>
            -3.0288460850715637e-01 4.8180243372917175e-01</leafValues></_>
        <_>
          <internalNodes>
            0 -1 122 2.9934672638773918e-03</internalNodes>
          <leafValues>
            -1.7428056895732880e-01 6.3220012187957764e-01</leafValues></_>
        <_>
          <internalNodes>
            0 -1 287 1.5724562108516693e-02</internalNodes>
          <leafValues>
            -1.2993238866329193e-01 7.7651810646057129e-01</leafValues></_>
        <_>
          <internalNodes>
            0 -1 274 1.0474504902958870e-02</internalNodes>
          <leafValues>
            -1.5934686362743378e-01 7.4340450763702393e-01</leafValues></_>
        <_>
          <internalNodes>
            0 -1 194 4.1398811154067516e-03</internalNodes>
          <leafValues>
            -2.1225942671298981e-01 5.1303178071975708e-01</leafValues></_>
        <_>
          <internalNodes>
            0 -1 120 7.9565644264221191e-03</internalNodes>
          <leafValues>
            2.0975184440612793e-01 -6.1058062314987183e-01</leafValues></_>
        <_>
          <internalNodes>
            0 -1 85 -1.1461652815341949e-02</internalNodes>
          <leafValues>
            -5.7157200574874878e-01 1.7491562664508820e-01</leafValues></_>
        <_>
          <internalNodes>
            0 -1 26 -1.8568780273199081e-02</internalNodes>
          <leafValues>
            -4.5670709013938904e-01 2.4992220103740692e-01</leafValues></_>
        <_>
          <internalNodes>
            0 -1 162 -1.0811714455485344e-02</internalNodes>
          <leafValues>
            -8.4243249893188477e-01 1.1761428415775299e-01</leafValues></_>
        <_>
          <internalNodes>
            0 -1 173 1.8051084131002426e-02</internalNodes>
          <leafValues>
            1.4654102921485901e-01 -6.1988383531570435e-01</leafValues></_>
        <_>
          <internalNodes>
            0 -1 327 7.9584931954741478e-03</internalNodes>
          <leafValues>
            -1.4940354228019714e-01 7.0993852615356445e-01</leafValues></_>
        <_>
          <internalNodes>
            0 -1 241 1.1779706692323089e-03</internalNodes>
          <leafValues>
            -1.9962076842784882e-01 4.6950086951255798e-01</leafValues></_>
        <_>
          <internalNodes>
            0 -1 319 -5.7932958006858826e-03</internalNodes>
          <leafValues>
            6.8298077583312988e-01 -1.9010958075523376e-01</leafValues></_>
        <_>
          <internalNodes>
            0 -1 69 -5.3136780858039856e-02</internalNodes>
          <leafValues>
            -5.4641783237457275e-01 2.1223182976245880e-01</leafValues></_>
        <_>
          <internalNodes>
            0 -1 172 6.3184089958667755e-04</internalNodes>
          <leafValues>
            1.5421864390373230e-01 -6.1151009798049927e-01</leafValues></_>
        <_>
          <internalNodes>
            0 -1 337 4.9352832138538361e-04</internalNodes>
          <leafValues>
            -2.1481126546859741e-01 5.2509582042694092e-01</leafValues></_>
        <_>
          <internalNodes>
            0 -1 83 1.0644635185599327e-02</internalNodes>
          <leafValues>
            1.7814220488071442e-01 -6.7972511053085327e-01</leafValues></_>
        <_>
          <internalNodes>
            0 -1 251 -1.1369611602276564e-03</internalNodes>
          <leafValues>
            -8.3029866218566895e-01 9.8328582942485809e-02</leafValues></_>
        <_>
          <internalNodes>
            0 -1 310 1.4198560267686844e-02</internalNodes>
          <leafValues>
            -1.6048941016197205e-01 7.7128225564956665e-01</leafValues></_></weakClassifiers></_>
    <!-- stage 14 -->
    <_>
      <maxWeakCount>16</maxWeakCount>
      <stageThreshold>-9.3835824728012085e-01</stageThreshold>
      <weakClassifiers>
        <_>
          <internalNodes>
            0 -1 4 -4.7266151756048203e-02</internalNodes>
          <leafValues>
            -4.2521995306015015e-01 4.6786004304885864e-01</leafValues></_>
        <_>
          <internalNodes>
            0 -1 261 -8.6143398657441139e-03</internalNodes>
          <leafValues>
            5.0157105922698975e-01 -2.3540760576725006e-01</leafValues></_>
        <_>
          <internalNodes>
            0 -1 291 -3.8111109752207994e-03</internalNodes>
          <leafValues>
            7.2644907236099243e-01 -1.3935816287994385e-01</leafValues></_>
        <_>
          <internalNodes>
            0 -1 15 -1.8455114215612411e-02</internalNodes>
          <leafValues>
            -4.8869842290878296e-01 2.2460475564002991e-01</leafValues></_>
        <_>
          <internalNodes>
            0 -1 149 2.8820004314184189e-02</internalNodes>
          <leafValues>
            -2.2179251909255981e-01 5.7869869470596313e-01</leafValues></_>
        <_>
          <internalNodes>
            0 -1 345 -1.5951739624142647e-02</internalNodes>
          <leafValues>
            7.8812634944915771e-01 -1.6818022727966309e-01</leafValues></_>
        <_>
          <internalNodes>
            0 -1 347 4.5277988538146019e-03</internalNodes>
          <leafValues>
            -1.0318652540445328e-01 8.9792549610137939e-01</leafValues></_>
        <_>
          <internalNodes>
            0 -1 282 7.7334670349955559e-03</internalNodes>
          <leafValues>
            -9.7642399370670319e-02 7.7155184745788574e-01</leafValues></_>
        <_>
          <internalNodes>
            0 -1 228 -5.2923639304935932e-03</internalNodes>
          <leafValues>
            6.7751443386077881e-01 -1.4369131624698639e-01</leafValues></_>
        <_>
          <internalNodes>
            0 -1 330 -6.0841739177703857e-03</internalNodes>
          <leafValues>
            7.7776497602462769e-01 -1.1815936863422394e-01</leafValues></_>
        <_>
          <internalNodes>
            0 -1 38 3.9076120592653751e-03</internalNodes>
          <leafValues>
            1.4797060191631317e-01 -8.2032001018524170e-01</leafValues></_>
        <_>
          <internalNodes>
            0 -1 301 -2.4414854124188423e-03</internalNodes>
          <leafValues>
            8.2927662134170532e-01 -1.4486026763916016e-01</leafValues></_>
        <_>
          <internalNodes>
            0 -1 62 5.4651144891977310e-03</internalNodes>
          <leafValues>
            2.5460469722747803e-01 -4.5342814922332764e-01</leafValues></_>
        <_>
          <internalNodes>
            0 -1 335 -1.1249139206483960e-03</internalNodes>
          <leafValues>
            5.1721489429473877e-01 -2.3476755619049072e-01</leafValues></_>
        <_>
          <internalNodes>
            0 -1 214 8.6407235357910395e-04</internalNodes>
          <leafValues>
            -2.1351638436317444e-01 4.8328796029090881e-01</leafValues></_>
        <_>
          <internalNodes>
            0 -1 183 5.4083263967186213e-04</internalNodes>
          <leafValues>
            -1.5430220961570740e-01 6.3861811161041260e-01</leafValues></_></weakClassifiers></_>
    <!-- stage 15 -->
    <_>
      <maxWeakCount>16</maxWeakCount>
      <stageThreshold>-9.8278594017028809e-01</stageThreshold>
      <weakClassifiers>
        <_>
          <internalNodes>
            0 -1 257 6.1026839539408684e-03</internalNodes>
          <leafValues>
            1.7274472862482071e-02 7.8030300140380859e-01</leafValues></_>
        <_>
          <internalNodes>
            0 -1 191 1.0907043702900410e-02</internalNodes>
          <leafValues>
            2.1324288845062256e-01 -7.0669692754745483e-01</leafValues></_>
        <_>
          <internalNodes>
            0 -1 305 5.2312063053250313e-03</internalNodes>
          <leafValues>
            -1.6214069724082947e-01 8.0827254056930542e-01</leafValues></_>
        <_>
          <internalNodes>
            0 -1 37 -2.2814297117292881e-03</internalNodes>
          <leafValues>
            6.2147533893585205e-01 -1.7619290947914124e-01</leafValues></_>
        <_>
          <internalNodes>
            0 -1 65 -1.1645907070487738e-03</internalNodes>
          <leafValues>
            5.5953407287597656e-01 -1.7973493039608002e-01</leafValues></_>
        <_>
          <internalNodes>
            0 -1 182 1.0477525182068348e-02</internalNodes>
          <leafValues>
            -8.7135754525661469e-02 8.8223737478256226e-01</leafValues></_>
        <_>
          <internalNodes>
            0 -1 306 -2.3307143710553646e-03</internalNodes>
          <leafValues>
            5.7190948724746704e-01 -1.7644169926643372e-01</leafValues></_>
        <_>
          <internalNodes>
            0 -1 96 -1.0566508397459984e-02</internalNodes>
          <leafValues>
            5.9630197286605835e-01 -1.5626691281795502e-01</leafValues></_>
        <_>
          <internalNodes>
            0 -1 7 1.0499425698071718e-03</internalNodes>
          <leafValues>
            2.3624345660209656e-01 -4.4616141915321350e-01</leafValues></_>
        <_>
          <internalNodes>
            0 -1 148 -2.5031149853020906e-03</internalNodes>
          <leafValues>
            5.6045323610305786e-01 -1.8767796456813812e-01</leafValues></_>
        <_>
          <internalNodes>
            0 -1 348 -1.3337584678083658e-03</internalNodes>
          <leafValues>
            4.6162182092666626e-01 -2.2455801069736481e-01</leafValues></_>
        <_>
          <internalNodes>
            0 -1 350 -1.7240459565073252e-03</internalNodes>
          <leafValues>
            6.9444739818572998e-01 -1.1829198896884918e-01</leafValues></_>
        <_>
          <internalNodes>
            0 -1 351 8.8224542560055852e-04</internalNodes>
          <leafValues>
            -2.0387896895408630e-01 4.8777863383293152e-01</leafValues></_>
        <_>
          <internalNodes>
            0 -1 353 9.9160266108810902e-04</internalNodes>
          <leafValues>
            1.9388774037361145e-01 -5.8482855558395386e-01</leafValues></_>
        <_>
          <internalNodes>
            0 -1 124 7.1244779974222183e-03</internalNodes>
          <leafValues>
            -1.5561315417289734e-01 6.7478477954864502e-01</leafValues></_>
        <_>
          <internalNodes>
            0 -1 123 -2.8032664209604263e-02</internalNodes>
          <leafValues>
            -7.4902635812759399e-01 1.5799945592880249e-01</leafValues></_></weakClassifiers></_>
    <!-- stage 16 -->
    <_>
      <maxWeakCount>18</maxWeakCount>
      <stageThreshold>-1.0787924528121948e+00</stageThreshold>
      <weakClassifiers>
        <_>
          <internalNodes>
            0 -1 106 -1.2508621439337730e-02</internalNodes>
          <leafValues>
            -4.0175953507423401e-01 4.6135067939758301e-01</leafValues></_>
        <_>
          <internalNodes>
            0 -1 171 -1.8704618560150266e-04</internalNodes>
          <leafValues>
            -4.7829657793045044e-01 2.8680571913719177e-01</leafValues></_>
        <_>
          <internalNodes>
            0 -1 280 3.0009453184902668e-03</internalNodes>
          <leafValues>
            -1.8294125795364380e-01 6.2188059091567993e-01</leafValues></_>
        <_>
          <internalNodes>
            0 -1 98 -1.7144415527582169e-02</internalNodes>
          <leafValues>
            -4.8685511946678162e-01 1.9880266487598419e-01</leafValues></_>
        <_>
          <internalNodes>
            0 -1 45 3.3635877072811127e-02</internalNodes>
          <leafValues>
            1.1890691518783569e-01 -7.5733309984207153e-01</leafValues></_>
        <_>
          <internalNodes>
            0 -1 275 1.8303643446415663e-03</internalNodes>
          <leafValues>
            -2.9818886518478394e-01 3.8993135094642639e-01</leafValues></_>
        <_>
          <internalNodes>
            0 -1 154 2.0651188679039478e-03</internalNodes>
          <leafValues>
            2.2353813052177429e-01 -6.3795089721679688e-01</leafValues></_>
        <_>
          <internalNodes>
            0 -1 61 -5.3490616381168365e-02</internalNodes>
          <leafValues>
            -5.2266716957092285e-01 1.9850817322731018e-01</leafValues></_>
        <_>
          <internalNodes>
            0 -1 51 -2.4587713414803147e-04</internalNodes>
          <leafValues>
            -4.9088710546493530e-01 2.0670433342456818e-01</leafValues></_>
        <_>
          <internalNodes>
            0 -1 304 2.5264404248446226e-03</internalNodes>
          <leafValues>
            -1.3799047470092773e-01 7.5069773197174072e-01</leafValues></_>
        <_>
          <internalNodes>
            0 -1 2 -1.3903450220823288e-02</internalNodes>
          <leafValues>
            -4.3681225180625916e-01 2.7476328611373901e-01</leafValues></_>
        <_>
          <internalNodes>
            0 -1 224 1.1732147540897131e-03</internalNodes>
          <leafValues>
            -2.1936197578907013e-01 5.0262206792831421e-01</leafValues></_>
        <_>
          <internalNodes>
            0 -1 1 -1.4666721224784851e-02</internalNodes>
          <leafValues>
            -3.9240968227386475e-01 2.8067481517791748e-01</leafValues></_>
        <_>
          <internalNodes>
            0 -1 349 -9.5595186576247215e-03</internalNodes>
          <leafValues>
            8.1310731172561646e-01 -1.3898633420467377e-01</leafValues></_>
        <_>
          <internalNodes>
            0 -1 213 -7.7489839168265462e-04</internalNodes>
          <leafValues>
            4.9979329109191895e-01 -1.8473029136657715e-01</leafValues></_>
        <_>
          <internalNodes>
            0 -1 60 -5.4666865617036819e-03</internalNodes>
          <leafValues>
            5.7468682527542114e-01 -1.7405028641223907e-01</leafValues></_>
        <_>
          <internalNodes>
            0 -1 352 2.6725145289674401e-04</internalNodes>
          <leafValues>
            1.6882900893688202e-01 -6.6797906160354614e-01</leafValues></_>
        <_>
          <internalNodes>
            0 -1 324 -8.3670031744986773e-04</internalNodes>
          <leafValues>
            -6.4858722686767578e-01 1.5244360268115997e-01</leafValues></_></weakClassifiers></_>
    <!-- stage 17 -->
    <_>
      <maxWeakCount>20</maxWeakCount>
      <stageThreshold>-1.3199421167373657e+00</stageThreshold>
      <weakClassifiers>
        <_>
          <internalNodes>
            0 -1 76 1.2203333899378777e-02</internalNodes>
          <leafValues>
            4.1930729150772095e-01 -6.5258216857910156e-01</leafValues></_>
        <_>
          <internalNodes>
            0 -1 166 -5.2072688937187195e-02</internalNodes>
          <leafValues>
            8.6762648820877075e-01 -1.5545469522476196e-01</leafValues></_>
        <_>
          <internalNodes>
            0 -1 82 -1.9285693764686584e-02</internalNodes>
          <leafValues>
            -5.1803267002105713e-01 2.4678634107112885e-01</leafValues></_>
        <_>
          <internalNodes>
            0 -1 150 -5.3446302190423012e-03</internalNodes>
          <leafValues>
            8.0443006753921509e-01 -1.6711355745792389e-01</leafValues></_>
        <_>
          <internalNodes>
            0 -1 28 2.3743385449051857e-02</internalNodes>
          <leafValues>
            1.9209702312946320e-01 -7.3883253335952759e-01</leafValues></_>
        <_>
          <internalNodes>
            0 -1 268 -2.9491167515516281e-03</internalNodes>
          <leafValues>
            4.4862589240074158e-01 -2.7979165315628052e-01</leafValues></_>
        <_>
          <internalNodes>
            0 -1 75 -6.0719363391399384e-03</internalNodes>
          <leafValues>
            6.3244920969009399e-01 -1.4099162817001343e-01</leafValues></_>
        <_>
          <internalNodes>
            0 -1 72 1.4181536389514804e-03</internalNodes>
          <leafValues>
            2.0592179894447327e-01 -5.3054988384246826e-01</leafValues></_>
        <_>
          <internalNodes>
            0 -1 244 -3.4752761712297797e-04</internalNodes>
          <leafValues>
            -5.8998489379882812e-01 1.9411532580852509e-01</leafValues></_>
        <_>
          <internalNodes>
            0 -1 283 4.8107840120792389e-03</internalNodes>
          <leafValues>
            -1.6869278252124786e-01 6.3989579677581787e-01</leafValues></_>
        <_>
          <internalNodes>
            0 -1 284 -4.0532099083065987e-03</internalNodes>
          <leafValues>
            5.7165294885635376e-01 -1.6666437685489655e-01</leafValues></_>
        <_>
          <internalNodes>
            0 -1 234 -1.9786627963185310e-03</internalNodes>
          <leafValues>
            4.2567473649978638e-01 -2.6768717169761658e-01</leafValues></_>
        <_>
          <internalNodes>
            0 -1 221 9.5347955357283354e-04</internalNodes>
          <leafValues>
            -2.1709504723548889e-01 5.3637242317199707e-01</leafValues></_>
        <_>
          <internalNodes>
            0 -1 316 4.0020523592829704e-03</internalNodes>
          <leafValues>
            -2.5074014067649841e-01 4.3440389633178711e-01</leafValues></_>
        <_>
          <internalNodes>
            0 -1 272 1.2245189398527145e-02</internalNodes>
          <leafValues>
            -1.2705731391906738e-01 7.5365030765533447e-01</leafValues></_>
        <_>
          <internalNodes>
            0 -1 31 -3.6018881946802139e-03</internalNodes>
          <leafValues>
            7.6565212011337280e-01 -1.2188107520341873e-01</leafValues></_>
        <_>
          <internalNodes>
            0 -1 16 2.4406968150287867e-03</internalNodes>
          <leafValues>
            -2.4952854216098785e-01 4.3012142181396484e-01</leafValues></_>
        <_>
          <internalNodes>
            0 -1 205 -2.4130862206220627e-02</internalNodes>
          <leafValues>
            -5.6720346212387085e-01 1.9875757396221161e-01</leafValues></_>
        <_>
          <internalNodes>
            0 -1 215 -1.3834123965352774e-03</internalNodes>
          <leafValues>
            5.0617116689682007e-01 -2.2240926325321198e-01</leafValues></_>
        <_>
          <internalNodes>
            0 -1 89 -1.3354683760553598e-03</internalNodes>
          <leafValues>
            5.4453015327453613e-01 -1.8468572199344635e-01</leafValues></_></weakClassifiers></_>
    <!-- stage 18 -->
    <_>
      <maxWeakCount>13</maxWeakCount>
      <stageThreshold>-1.1687214374542236e+00</stageThreshold>
      <weakClassifiers>
        <_>
          <internalNodes>
            0 -1 109 5.8395687490701675e-02</internalNodes>
          <leafValues>
            4.8108926415443420e-01 -8.3064514398574829e-01</leafValues></_>
        <_>
          <internalNodes>
            0 -1 100 8.9458087459206581e-03</internalNodes>
          <leafValues>
            -2.2282779216766357e-01 8.3671224117279053e-01</leafValues></_>
        <_>
          <internalNodes>
            0 -1 77 -2.8203055262565613e-02</internalNodes>
          <leafValues>
            -8.3559995889663696e-01 2.3657655715942383e-01</leafValues></_>
        <_>
          <internalNodes>
            0 -1 203 -5.9310831129550934e-03</internalNodes>
          <leafValues>
            4.8616823554039001e-01 -2.9097393155097961e-01</leafValues></_>
        <_>
          <internalNodes>
            0 -1 193 3.2765741925686598e-03</internalNodes>
          <leafValues>
            -2.5703120231628418e-01 6.1098378896713257e-01</leafValues></_>
        <_>
          <internalNodes>
            0 -1 322 -5.2868397906422615e-03</internalNodes>
          <leafValues>
            6.4647817611694336e-01 -2.3196424543857574e-01</leafValues></_>
        <_>
          <internalNodes>
            0 -1 317 -8.6439744336530566e-05</internalNodes>
          <leafValues>
            -5.7593047618865967e-01 2.8903323411941528e-01</leafValues></_>
        <_>
          <internalNodes>
            0 -1 248 3.0032740905880928e-03</internalNodes>
          <leafValues>
            -2.2625111043453217e-01 6.8819659948348999e-01</leafValues></_>
        <_>
          <internalNodes>
            0 -1 235 -1.3759534806013107e-02</internalNodes>
          <leafValues>
            6.1477899551391602e-01 -1.8671646714210510e-01</leafValues></_>
        <_>
          <internalNodes>
            0 -1 264 5.6244162842631340e-03</internalNodes>
          <leafValues>
            -2.1245224773883820e-01 7.6537996530532837e-01</leafValues></_>
        <_>
          <internalNodes>
            0 -1 236 -5.5249473080039024e-03</internalNodes>
          <leafValues>
            -2.6414945721626282e-01 5.1340210437774658e-01</leafValues></_>
        <_>
          <internalNodes>
            0 -1 126 -6.9875409826636314e-03</internalNodes>
          <leafValues>
            8.0672323703765869e-01 -1.8197475373744965e-01</leafValues></_>
        <_>
          <internalNodes>
            0 -1 9 -1.6073645092546940e-03</internalNodes>
          <leafValues>
            -4.8093473911285400e-01 3.3677163720130920e-01</leafValues></_></weakClassifiers></_>
    <!-- stage 19 -->
    <_>
      <maxWeakCount>22</maxWeakCount>
      <stageThreshold>-1.0193538665771484e+00</stageThreshold>
      <weakClassifiers>
        <_>
          <internalNodes>
            0 -1 55 -1.0877978987991810e-02</internalNodes>
          <leafValues>
            7.3333334922790527e-01 2.2660098969936371e-02</leafValues></_>
        <_>
          <internalNodes>
            0 -1 101 -2.0888630300760269e-02</internalNodes>
          <leafValues>
            -5.0461006164550781e-01 2.6095566153526306e-01</leafValues></_>
        <_>
          <internalNodes>
            0 -1 336 -6.0850800946354866e-03</internalNodes>
          <leafValues>
            6.2112295627593994e-01 -1.9384577870368958e-01</leafValues></_>
        <_>
          <internalNodes>
            0 -1 22 -7.9589728266000748e-03</internalNodes>
          <leafValues>
            8.9889955520629883e-01 -1.2967023253440857e-01</leafValues></_>
        <_>
          <internalNodes>
            0 -1 118 4.6527488157153130e-03</internalNodes>
          <leafValues>
            1.6807802021503448e-01 -6.8525862693786621e-01</leafValues></_>
        <_>
          <internalNodes>
            0 -1 249 -7.5276023708283901e-03</internalNodes>
          <leafValues>
            -7.0740962028503418e-01 1.3599379360675812e-01</leafValues></_>
        <_>
          <internalNodes>
            0 -1 68 1.2109505478292704e-03</internalNodes>
          <leafValues>
            2.1866197884082794e-01 -4.9620831012725830e-01</leafValues></_>
        <_>
          <internalNodes>
            0 -1 48 1.3606665888801217e-03</internalNodes>
          <leafValues>
            -2.0615559816360474e-01 6.0798978805541992e-01</leafValues></_>
        <_>
          <internalNodes>
            0 -1 47 -4.0053892880678177e-03</internalNodes>
          <leafValues>
            5.9868651628494263e-01 -1.6246725618839264e-01</leafValues></_>
        <_>
          <internalNodes>
            0 -1 108 -5.0186295993626118e-03</internalNodes>
          <leafValues>
            5.3802531957626343e-01 -2.0212955772876740e-01</leafValues></_>
        <_>
          <internalNodes>
            0 -1 279 -1.2050005607306957e-03</internalNodes>
          <leafValues>
            5.0823879241943359e-01 -1.7855438590049744e-01</leafValues></_>
        <_>
          <internalNodes>
            0 -1 309 7.1892384439706802e-03</internalNodes>
          <leafValues>
            -1.3727033138275146e-01 7.9003417491912842e-01</leafValues></_>
        <_>
          <internalNodes>
            0 -1 43 1.7744625220075250e-03</internalNodes>
          <leafValues>
            1.9640961289405823e-01 -6.1246579885482788e-01</leafValues></_>
        <_>
          <internalNodes>
            0 -1 160 -4.9343295395374298e-03</internalNodes>
          <leafValues>
            4.6348878741264343e-01 -2.2556824982166290e-01</leafValues></_>
        <_>
          <internalNodes>
            0 -1 13 8.9466772973537445e-02</internalNodes>
          <leafValues>
            1.5858499705791473e-01 -7.0291984081268311e-01</leafValues></_>
        <_>
          <internalNodes>
            0 -1 252 1.6698974650353193e-04</internalNodes>
          <leafValues>
            1.7504282295703888e-01 -5.4860258102416992e-01</leafValues></_>
        <_>
          <internalNodes>
            0 -1 315 -2.6795016601681709e-03</internalNodes>
          <leafValues>
            5.1682084798812866e-01 -1.9645693898200989e-01</leafValues></_>
        <_>
          <internalNodes>
            0 -1 80 -1.6838150331750512e-03</internalNodes>
          <leafValues>
            -7.6173293590545654e-01 1.5417727828025818e-01</leafValues></_>
        <_>
          <internalNodes>
            0 -1 147 -2.5961969513446093e-03</internalNodes>
          <leafValues>
            7.6483190059661865e-01 -1.4872029423713684e-01</leafValues></_>
        <_>
          <internalNodes>
            0 -1 239 1.3485134113579988e-03</internalNodes>
          <leafValues>
            -1.6704045236110687e-01 5.6253260374069214e-01</leafValues></_>
        <_>
          <internalNodes>
            0 -1 39 1.3977403752505779e-02</internalNodes>
          <leafValues>
            1.6297070682048798e-01 -7.7583867311477661e-01</leafValues></_>
        <_>
          <internalNodes>
            0 -1 329 -4.4002183713018894e-03</internalNodes>
          <leafValues>
            6.4475983381271362e-01 -1.7678225040435791e-01</leafValues></_></weakClassifiers></_></stages>
  <features>
    <_>
      <rects>
        <_>
          0 0 46 5 -1.</_>
        <_>
          23 0 23 5 2.</_></rects>
      <tilted>0</tilted></_>
    <_>
      <rects>
        <_>
          0 5 15 40 -1.</_>
        <_>
          5 5 5 40 3.</_></rects>
      <tilted>0</tilted></_>
    <_>
      <rects>
        <_>
          0 19 28 15 -1.</_>
        <_>
          0 24 28 5 3.</_></rects>
      <tilted>0</tilted></_>
    <_>
      <rects>
        <_>
          1 20 41 10 -1.</_>
        <_>
          1 25 41 5 2.</_></rects>
      <tilted>0</tilted></_>
    <_>
      <rects>
        <_>
          1 22 39 17 -1.</_>
        <_>
          14 22 13 17 3.</_></rects>
      <tilted>0</tilted></_>
    <_>
      <rects>
        <_>
          2 19 43 30 -1.</_>
        <_>
          2 29 43 10 3.</_></rects>
      <tilted>0</tilted></_>
    <_>
      <rects>
        <_>
          2 21 37 12 -1.</_>
        <_>
          2 27 37 6 2.</_></rects>
      <tilted>0</tilted></_>
    <_>
      <rects>
        <_>
          2 22 29 3 -1.</_>
        <_>
          2 23 29 1 3.</_></rects>
      <tilted>0</tilted></_>
    <_>
      <rects>
        <_>
          2 26 44 3 -1.</_>
        <_>
          2 27 44 1 3.</_></rects>
      <tilted>0</tilted></_>
    <_>
      <rects>
        <_>
          3 0 1 18 -1.</_>
        <_>
          3 9 1 9 2.</_></rects>
      <tilted>0</tilted></_>
    <_>
      <rects>
        <_>
          3 9 39 24 -1.</_>
        <_>
          16 9 13 24 3.</_></rects>
      <tilted>0</tilted></_>
    <_>
      <rects>
        <_>
          3 9 34 10 -1.</_>
        <_>
          3 9 17 5 2.</_>
        <_>
          20 14 17 5 2.</_></rects>
      <tilted>0</tilted></_>
    <_>
      <rects>
        <_>
          3 10 36 17 -1.</_>
        <_>
          15 10 12 17 3.</_></rects>
      <tilted>0</tilted></_>
    <_>
      <rects>
        <_>
          3 13 42 21 -1.</_>
        <_>
          17 13 14 21 3.</_></rects>
      <tilted>0</tilted></_>
    <_>
      <rects>
        <_>
          3 20 37 12 -1.</_>
        <_>
          3 26 37 6 2.</_></rects>
      <tilted>0</tilted></_>
    <_>
      <rects>
        <_>
          3 23 26 10 -1.</_>
        <_>
          3 28 26 5 2.</_></rects>
      <tilted>0</tilted></_>
    <_>
      <rects>
        <_>
          3 25 18 4 -1.</_>
        <_>
          9 25 6 4 3.</_></rects>
      <tilted>0</tilted></_>
    <_>
      <rects>
        <_>
          4 18 24 20 -1.</_>
        <_>
          12 18 8 20 3.</_></rects>
      <tilted>0</tilted></_>
    <_>
      <rects>
        <_>
          4 21 10 6 -1.</_>
        <_>
          4 21 5 3 2.</_>
        <_>
          9 24 5 3 2.</_></rects>
      <tilted>0</tilted></_>
    <_>
      <rects>
        <_>
          4 22 30 15 -1.</_>
        <_>
          14 22 10 15 3.</_></rects>
      <tilted>0</tilted></_>
    <_>
      <rects>
        <_>
          4 24 21 17 -1.</_>
        <_>
          11 24 7 17 3.</_></rects>
      <tilted>0</tilted></_>
    <_>
      <rects>
        <_>
          4 26 22 3 -1.</_>
        <_>
          4 27 22 1 3.</_></rects>
      <tilted>0</tilted></_>
    <_>
      <rects>
        <_>
          4 27 15 2 -1.</_>
        <_>
          9 27 5 2 3.</_></rects>
      <tilted>0</tilted></_>
    <_>
      <rects>
        <_>
          4 49 4 1 -1.</_>
        <_>
          6 49 2 1 2.</_></rects>
      <tilted>0</tilted></_>
    <_>
      <rects>
        <_>
          5 11 36 27 -1.</_>
        <_>
          17 11 12 27 3.</_></rects>
      <tilted>0</tilted></_>
    <_>
      <rects>
        <_>
          5 20 6 8 -1.</_>
        <_>
          5 20 3 4 2.</_>
        <_>
          8 24 3 4 2.</_></rects>
      <tilted>0</tilted></_>
    <_>
      <rects>
        <_>
          5 22 21 16 -1.</_>
        <_>
          12 22 7 16 3.</_></rects>
      <tilted>0</tilted></_>
    <_>
      <rects>
        <_>
          5 23 8 8 -1.</_>
        <_>
          5 23 4 4 2.</_>
        <_>
          9 27 4 4 2.</_></rects>
      <tilted>0</tilted></_>
    <_>
      <rects>
        <_>
          5 23 32 5 -1.</_>
        <_>
          21 23 16 5 2.</_></rects>
      <tilted>0</tilted></_>
    <_>
      <rects>
        <_>
          5 23 33 3 -1.</_>
        <_>
          5 24 33 1 3.</_></rects>
      <tilted>0</tilted></_>
    <_>
      <rects>
        <_>
          5 24 30 12 -1.</_>
        <_>
          15 24 10 12 3.</_></rects>
      <tilted>0</tilted></_>
    <_>
      <rects>
        <_>
          5 25 8 2 -1.</_>
        <_>
          9 25 4 2 2.</_></rects>
      <tilted>0</tilted></_>
    <_>
      <rects>
        <_>
          6 9 8 12 -1.</_>
        <_>
          6 9 4 6 2.</_>
        <_>
          10 15 4 6 2.</_></rects>
      <tilted>0</tilted></_>
    <_>
      <rects>
        <_>
          6 19 8 12 -1.</_>
        <_>
          6 19 4 6 2.</_>
        <_>
          10 25 4 6 2.</_></rects>
      <tilted>0</tilted></_>
    <_>
      <rects>
        <_>
          6 23 12 2 -1.</_>
        <_>
          10 23 4 2 3.</_></rects>
      <tilted>0</tilted></_>
    <_>
      <rects>
        <_>
          6 23 26 8 -1.</_>
        <_>
          19 23 13 8 2.</_></rects>
      <tilted>0</tilted></_>
    <_>
      <rects>
        <_>
          6 25 27 12 -1.</_>
        <_>
          15 25 9 12 3.</_></rects>
      <tilted>0</tilted></_>
    <_>
      <rects>
        <_>
          6 26 12 1 -1.</_>
        <_>
          10 26 4 1 3.</_></rects>
      <tilted>0</tilted></_>
    <_>
      <rects>
        <_>
          6 27 33 3 -1.</_>
        <_>
          6 28 33 1 3.</_></rects>
      <tilted>0</tilted></_>
    <_>
      <rects>
        <_>
          7 21 35 12 -1.</_>
        <_>
          7 27 35 6 2.</_></rects>
      <tilted>0</tilted></_>
    <_>
      <rects>
        <_>
          7 24 9 1 -1.</_>
        <_>
          10 24 3 1 3.</_></rects>
      <tilted>0</tilted></_>
    <_>
      <rects>
        <_>
          7 26 12 1 -1.</_>
        <_>
          11 26 4 1 3.</_></rects>
      <tilted>0</tilted></_>
    <_>
      <rects>
        <_>
          8 19 33 20 -1.</_>
        <_>
          19 19 11 20 3.</_></rects>
      <tilted>0</tilted></_>
    <_>
      <rects>
        <_>
          8 22 26 3 -1.</_>
        <_>
          8 23 26 1 3.</_></rects>
      <tilted>0</tilted></_>
    <_>
      <rects>
        <_>
          8 24 12 3 -1.</_>
        <_>
          12 24 4 3 3.</_></rects>
      <tilted>0</tilted></_>
    <_>
      <rects>
        <_>
          8 25 27 14 -1.</_>
        <_>
          17 25 9 14 3.</_></rects>
      <tilted>0</tilted></_>
    <_>
      <rects>
        <_>
          8 25 35 3 -1.</_>
        <_>
          8 26 35 1 3.</_></rects>
      <tilted>0</tilted></_>
    <_>
      <rects>
        <_>
          8 27 12 2 -1.</_>
        <_>
          12 27 4 2 3.</_></rects>
      <tilted>0</tilted></_>
    <_>
      <rects>
        <_>
          8 28 9 1 -1.</_>
        <_>
          11 28 3 1 3.</_></rects>
      <tilted>0</tilted></_>
    <_>
      <rects>
        <_>
          8 28 38 3 -1.</_>
        <_>
          8 29 38 1 3.</_></rects>
      <tilted>0</tilted></_>
    <_>
      <rects>
        <_>
          8 29 41 6 -1.</_>
        <_>
          8 31 41 2 3.</_></rects>
      <tilted>0</tilted></_>
    <_>
      <rects>
        <_>
          9 0 8 1 -1.</_>
        <_>
          13 0 4 1 2.</_></rects>
      <tilted>0</tilted></_>
    <_>
      <rects>
        <_>
          9 10 38 28 -1.</_>
        <_>
          28 10 19 28 2.</_></rects>
      <tilted>0</tilted></_>
    <_>
      <rects>
        <_>
          9 13 14 6 -1.</_>
        <_>
          9 13 7 3 2.</_>
        <_>
          16 16 7 3 2.</_></rects>
      <tilted>0</tilted></_>
    <_>
      <rects>
        <_>
          9 14 30 22 -1.</_>
        <_>
          19 14 10 22 3.</_></rects>
      <tilted>0</tilted></_>
    <_>
      <rects>
        <_>
          9 17 12 7 -1.</_>
        <_>
          13 17 4 7 3.</_></rects>
      <tilted>0</tilted></_>
    <_>
      <rects>
        <_>
          9 17 36 19 -1.</_>
        <_>
          21 17 12 19 3.</_></rects>
      <tilted>0</tilted></_>
    <_>
      <rects>
        <_>
          9 21 37 8 -1.</_>
        <_>
          9 25 37 4 2.</_></rects>
      <tilted>0</tilted></_>
    <_>
      <rects>
        <_>
          9 25 12 3 -1.</_>
        <_>
          13 25 4 3 3.</_></rects>
      <tilted>0</tilted></_>
    <_>
      <rects>
        <_>
          9 25 41 3 -1.</_>
        <_>
          9 26 41 1 3.</_></rects>
      <tilted>0</tilted></_>
    <_>
      <rects>
        <_>
          10 12 5 12 -1.</_>
        <_>
          10 16 5 4 3.</_></rects>
      <tilted>0</tilted></_>
    <_>
      <rects>
        <_>
          10 17 34 14 -1.</_>
        <_>
          10 24 34 7 2.</_></rects>
      <tilted>0</tilted></_>
    <_>
      <rects>
        <_>
          10 23 36 3 -1.</_>
        <_>
          28 23 18 3 2.</_></rects>
      <tilted>0</tilted></_>
    <_>
      <rects>
        <_>
          10 24 9 2 -1.</_>
        <_>
          13 24 3 2 3.</_></rects>
      <tilted>0</tilted></_>
    <_>
      <rects>
        <_>
          10 24 10 3 -1.</_>
        <_>
          10 25 10 1 3.</_></rects>
      <tilted>0</tilted></_>
    <_>
      <rects>
        <_>
          10 26 12 1 -1.</_>
        <_>
          16 26 6 1 2.</_></rects>
      <tilted>0</tilted></_>
    <_>
      <rects>
        <_>
          10 28 15 3 -1.</_>
        <_>
          15 28 5 3 3.</_></rects>
      <tilted>0</tilted></_>
    <_>
      <rects>
        <_>
          10 29 14 14 -1.</_>
        <_>
          10 29 7 7 2.</_>
        <_>
          17 36 7 7 2.</_></rects>
      <tilted>0</tilted></_>
    <_>
      <rects>
        <_>
          11 4 27 3 -1.</_>
        <_>
          11 5 27 1 3.</_></rects>
      <tilted>0</tilted></_>
    <_>
      <rects>
        <_>
          11 10 36 26 -1.</_>
        <_>
          23 10 12 26 3.</_></rects>
      <tilted>0</tilted></_>
    <_>
      <rects>
        <_>
          11 14 2 12 -1.</_>
        <_>
          11 18 2 4 3.</_></rects>
      <tilted>0</tilted></_>
    <_>
      <rects>
        <_>
          11 19 6 8 -1.</_>
        <_>
          11 19 3 4 2.</_>
        <_>
          14 23 3 4 2.</_></rects>
      <tilted>0</tilted></_>
    <_>
      <rects>
        <_>
          11 19 34 3 -1.</_>
        <_>
          11 20 34 1 3.</_></rects>
      <tilted>0</tilted></_>
    <_>
      <rects>
        <_>
          11 20 21 8 -1.</_>
        <_>
          18 20 7 8 3.</_></rects>
      <tilted>0</tilted></_>
    <_>
      <rects>
        <_>
          11 21 3 8 -1.</_>
        <_>
          11 25 3 4 2.</_></rects>
      <tilted>0</tilted></_>
    <_>
      <rects>
        <_>
          11 22 9 5 -1.</_>
        <_>
          14 22 3 5 3.</_></rects>
      <tilted>0</tilted></_>
    <_>
      <rects>
        <_>
          11 22 30 3 -1.</_>
        <_>
          26 22 15 3 2.</_></rects>
      <tilted>0</tilted></_>
    <_>
      <rects>
        <_>
          11 22 34 6 -1.</_>
        <_>
          28 22 17 6 2.</_></rects>
      <tilted>0</tilted></_>
    <_>
      <rects>
        <_>
          11 24 27 12 -1.</_>
        <_>
          20 24 9 12 3.</_></rects>
      <tilted>0</tilted></_>
    <_>
      <rects>
        <_>
          11 26 22 20 -1.</_>
        <_>
          11 36 22 10 2.</_></rects>
      <tilted>0</tilted></_>
    <_>
      <rects>
        <_>
          12 8 14 2 -1.</_>
        <_>
          12 9 14 1 2.</_></rects>
      <tilted>0</tilted></_>
    <_>
      <rects>
        <_>
          12 11 14 4 -1.</_>
        <_>
          12 11 7 2 2.</_>
        <_>
          19 13 7 2 2.</_></rects>
      <tilted>0</tilted></_>
    <_>
      <rects>
        <_>
          12 19 28 13 -1.</_>
        <_>
          26 19 14 13 2.</_></rects>
      <tilted>0</tilted></_>
    <_>
      <rects>
        <_>
          12 20 26 12 -1.</_>
        <_>
          12 26 26 6 2.</_></rects>
      <tilted>0</tilted></_>
    <_>
      <rects>
        <_>
          12 22 21 11 -1.</_>
        <_>
          19 22 7 11 3.</_></rects>
      <tilted>0</tilted></_>
    <_>
      <rects>
        <_>
          12 24 20 11 -1.</_>
        <_>
          22 24 10 11 2.</_></rects>
      <tilted>0</tilted></_>
    <_>
      <rects>
        <_>
          12 26 8 7 -1.</_>
        <_>
          16 26 4 7 2.</_></rects>
      <tilted>0</tilted></_>
    <_>
      <rects>
        <_>
          13 16 3 12 -1.</_>
        <_>
          13 20 3 4 3.</_></rects>
      <tilted>0</tilted></_>
    <_>
      <rects>
        <_>
          13 16 30 20 -1.</_>
        <_>
          23 16 10 20 3.</_></rects>
      <tilted>0</tilted></_>
    <_>
      <rects>
        <_>
          13 19 1 12 -1.</_>
        <_>
          13 23 1 4 3.</_></rects>
      <tilted>0</tilted></_>
    <_>
      <rects>
        <_>
          13 19 29 18 -1.</_>
        <_>
          13 28 29 9 2.</_></rects>
      <tilted>0</tilted></_>
    <_>
      <rects>
        <_>
          13 22 24 11 -1.</_>
        <_>
          21 22 8 11 3.</_></rects>
      <tilted>0</tilted></_>
    <_>
      <rects>
        <_>
          13 23 10 10 -1.</_>
        <_>
          13 23 5 5 2.</_>
        <_>
          18 28 5 5 2.</_></rects>
      <tilted>0</tilted></_>
    <_>
      <rects>
        <_>
          13 24 22 3 -1.</_>
        <_>
          13 25 22 1 3.</_></rects>
      <tilted>0</tilted></_>
    <_>
      <rects>
        <_>
          13 25 10 6 -1.</_>
        <_>
          13 25 5 3 2.</_>
        <_>
          18 28 5 3 2.</_></rects>
      <tilted>0</tilted></_>
    <_>
      <rects>
        <_>
          13 28 12 8 -1.</_>
        <_>
          13 28 6 4 2.</_>
        <_>
          19 32 6 4 2.</_></rects>
      <tilted>0</tilted></_>
    <_>
      <rects>
        <_>
          13 29 6 14 -1.</_>
        <_>
          13 36 6 7 2.</_></rects>
      <tilted>0</tilted></_>
    <_>
      <rects>
        <_>
          13 30 15 1 -1.</_>
        <_>
          18 30 5 1 3.</_></rects>
      <tilted>0</tilted></_>
    <_>
      <rects>
        <_>
          14 3 18 13 -1.</_>
        <_>
          20 3 6 13 3.</_></rects>
      <tilted>0</tilted></_>
    <_>
      <rects>
        <_>
          14 15 3 15 -1.</_>
        <_>
          14 20 3 5 3.</_></rects>
      <tilted>0</tilted></_>
    <_>
      <rects>
        <_>
          14 19 15 2 -1.</_>
        <_>
          19 19 5 2 3.</_></rects>
      <tilted>0</tilted></_>
    <_>
      <rects>
        <_>
          14 21 34 12 -1.</_>
        <_>
          14 25 34 4 3.</_></rects>
      <tilted>0</tilted></_>
    <_>
      <rects>
        <_>
          14 22 10 8 -1.</_>
        <_>
          14 22 5 4 2.</_>
        <_>
          19 26 5 4 2.</_></rects>
      <tilted>0</tilted></_>
    <_>
      <rects>
        <_>
          14 22 26 3 -1.</_>
        <_>
          14 23 26 1 3.</_></rects>
      <tilted>0</tilted></_>
    <_>
      <rects>
        <_>
          14 23 24 10 -1.</_>
        <_>
          22 23 8 10 3.</_></rects>
      <tilted>0</tilted></_>
    <_>
      <rects>
        <_>
          14 24 10 8 -1.</_>
        <_>
          14 24 5 4 2.</_>
        <_>
          19 28 5 4 2.</_></rects>
      <tilted>0</tilted></_>
    <_>
      <rects>
        <_>
          14 24 30 6 -1.</_>
        <_>
          14 27 30 3 2.</_></rects>
      <tilted>0</tilted></_>
    <_>
      <rects>
        <_>
          14 26 8 8 -1.</_>
        <_>
          14 26 4 4 2.</_>
        <_>
          18 30 4 4 2.</_></rects>
      <tilted>0</tilted></_>
    <_>
      <rects>
        <_>
          14 27 9 6 -1.</_>
        <_>
          17 27 3 6 3.</_></rects>
      <tilted>0</tilted></_>
    <_>
      <rects>
        <_>
          15 13 30 19 -1.</_>
        <_>
          25 13 10 19 3.</_></rects>
      <tilted>0</tilted></_>
    <_>
      <rects>
        <_>
          15 14 33 22 -1.</_>
        <_>
          26 14 11 22 3.</_></rects>
      <tilted>0</tilted></_>
    <_>
      <rects>
        <_>
          15 16 10 6 -1.</_>
        <_>
          15 16 5 3 2.</_>
        <_>
          20 19 5 3 2.</_></rects>
      <tilted>0</tilted></_>
    <_>
      <rects>
        <_>
          15 18 22 16 -1.</_>
        <_>
          15 26 22 8 2.</_></rects>
      <tilted>0</tilted></_>
    <_>
      <rects>
        <_>
          15 20 3 12 -1.</_>
        <_>
          15 24 3 4 3.</_></rects>
      <tilted>0</tilted></_>
    <_>
      <rects>
        <_>
          15 20 6 14 -1.</_>
        <_>
          15 20 3 7 2.</_>
        <_>
          18 27 3 7 2.</_></rects>
      <tilted>0</tilted></_>
    <_>
      <rects>
        <_>
          15 21 2 12 -1.</_>
        <_>
          15 25 2 4 3.</_></rects>
      <tilted>0</tilted></_>
    <_>
      <rects>
        <_>
          15 21 15 2 -1.</_>
        <_>
          20 21 5 2 3.</_></rects>
      <tilted>0</tilted></_>
    <_>
      <rects>
        <_>
          15 21 20 3 -1.</_>
        <_>
          15 22 20 1 3.</_></rects>
      <tilted>0</tilted></_>
    <_>
      <rects>
        <_>
          15 21 30 8 -1.</_>
        <_>
          15 25 30 4 2.</_></rects>
      <tilted>0</tilted></_>
    <_>
      <rects>
        <_>
          15 22 8 8 -1.</_>
        <_>
          15 22 4 4 2.</_>
        <_>
          19 26 4 4 2.</_></rects>
      <tilted>0</tilted></_>
    <_>
      <rects>
        <_>
          15 23 16 8 -1.</_>
        <_>
          23 23 8 8 2.</_></rects>
      <tilted>0</tilted></_>
    <_>
      <rects>
        <_>
          15 24 16 8 -1.</_>
        <_>
          23 24 8 8 2.</_></rects>
      <tilted>0</tilted></_>
    <_>
      <rects>
        <_>
          15 26 12 1 -1.</_>
        <_>
          19 26 4 1 3.</_></rects>
      <tilted>0</tilted></_>
    <_>
      <rects>
        <_>
          15 26 24 14 -1.</_>
        <_>
          23 26 8 14 3.</_></rects>
      <tilted>0</tilted></_>
    <_>
      <rects>
        <_>
          15 27 9 5 -1.</_>
        <_>
          18 27 3 5 3.</_></rects>
      <tilted>0</tilted></_>
    <_>
      <rects>
        <_>
          15 28 9 4 -1.</_>
        <_>
          18 28 3 4 3.</_></rects>
      <tilted>0</tilted></_>
    <_>
      <rects>
        <_>
          16 11 4 38 -1.</_>
        <_>
          16 11 2 19 2.</_>
        <_>
          18 30 2 19 2.</_></rects>
      <tilted>0</tilted></_>
    <_>
      <rects>
        <_>
          16 15 19 22 -1.</_>
        <_>
          16 26 19 11 2.</_></rects>
      <tilted>0</tilted></_>
    <_>
      <rects>
        <_>
          16 18 1 15 -1.</_>
        <_>
          16 23 1 5 3.</_></rects>
      <tilted>0</tilted></_>
    <_>
      <rects>
        <_>
          16 18 8 16 -1.</_>
        <_>
          16 26 8 8 2.</_></rects>
      <tilted>0</tilted></_>
    <_>
      <rects>
        <_>
          16 21 6 10 -1.</_>
        <_>
          16 21 3 5 2.</_>
        <_>
          19 26 3 5 2.</_></rects>
      <tilted>0</tilted></_>
    <_>
      <rects>
        <_>
          16 22 9 2 -1.</_>
        <_>
          19 22 3 2 3.</_></rects>
      <tilted>0</tilted></_>
    <_>
      <rects>
        <_>
          16 23 12 4 -1.</_>
        <_>
          20 23 4 4 3.</_></rects>
      <tilted>0</tilted></_>
    <_>
      <rects>
        <_>
          16 23 30 1 -1.</_>
        <_>
          31 23 15 1 2.</_></rects>
      <tilted>0</tilted></_>
    <_>
      <rects>
        <_>
          16 25 18 9 -1.</_>
        <_>
          25 25 9 9 2.</_></rects>
      <tilted>0</tilted></_>
    <_>
      <rects>
        <_>
          16 26 24 10 -1.</_>
        <_>
          24 26 8 10 3.</_></rects>
      <tilted>0</tilted></_>
    <_>
      <rects>
        <_>
          16 29 9 3 -1.</_>
        <_>
          19 29 3 3 3.</_></rects>
      <tilted>0</tilted></_>
    <_>
      <rects>
        <_>
          16 30 17 3 -1.</_>
        <_>
          16 31 17 1 3.</_></rects>
      <tilted>0</tilted></_>
    <_>
      <rects>
        <_>
          16 31 12 3 -1.</_>
        <_>
          20 31 4 3 3.</_></rects>
      <tilted>0</tilted></_>
    <_>
      <rects>
        <_>
          17 14 8 24 -1.</_>
        <_>
          17 26 8 12 2.</_></rects>
      <tilted>0</tilted></_>
    <_>
      <rects>
        <_>
          17 16 8 6 -1.</_>
        <_>
          17 16 4 3 2.</_>
        <_>
          21 19 4 3 2.</_></rects>
      <tilted>0</tilted></_>
    <_>
      <rects>
        <_>
          17 19 21 16 -1.</_>
        <_>
          17 27 21 8 2.</_></rects>
      <tilted>0</tilted></_>
    <_>
      <rects>
        <_>
          17 20 6 3 -1.</_>
        <_>
          19 20 2 3 3.</_></rects>
      <tilted>0</tilted></_>
    <_>
      <rects>
        <_>
          17 23 12 8 -1.</_>
        <_>
          17 23 6 4 2.</_>
        <_>
          23 27 6 4 2.</_></rects>
      <tilted>0</tilted></_>
    <_>
      <rects>
        <_>
          17 24 15 3 -1.</_>
        <_>
          22 24 5 3 3.</_></rects>
      <tilted>0</tilted></_>
    <_>
      <rects>
        <_>
          17 29 6 5 -1.</_>
        <_>
          20 29 3 5 2.</_></rects>
      <tilted>0</tilted></_>
    <_>
      <rects>
        <_>
          17 29 12 7 -1.</_>
        <_>
          21 29 4 7 3.</_></rects>
      <tilted>0</tilted></_>
    <_>
      <rects>
        <_>
          17 30 15 1 -1.</_>
        <_>
          22 30 5 1 3.</_></rects>
      <tilted>0</tilted></_>
    <_>
      <rects>
        <_>
          17 35 18 4 -1.</_>
        <_>
          17 35 9 2 2.</_>
        <_>
          26 37 9 2 2.</_></rects>
      <tilted>0</tilted></_>
    <_>
      <rects>
        <_>
          18 3 19 24 -1.</_>
        <_>
          18 15 19 12 2.</_></rects>
      <tilted>0</tilted></_>
    <_>
      <rects>
        <_>
          18 15 2 15 -1.</_>
        <_>
          18 20 2 5 3.</_></rects>
      <tilted>0</tilted></_>
    <_>
      <rects>
        <_>
          18 15 10 4 -1.</_>
        <_>
          18 15 5 2 2.</_>
        <_>
          23 17 5 2 2.</_></rects>
      <tilted>0</tilted></_>
    <_>
      <rects>
        <_>
          18 16 24 17 -1.</_>
        <_>
          26 16 8 17 3.</_></rects>
      <tilted>0</tilted></_>
    <_>
      <rects>
        <_>
          18 17 9 6 -1.</_>
        <_>
          21 17 3 6 3.</_></rects>
      <tilted>0</tilted></_>
    <_>
      <rects>
        <_>
          18 23 27 4 -1.</_>
        <_>
          18 25 27 2 2.</_></rects>
      <tilted>0</tilted></_>
    <_>
      <rects>
        <_>
          18 24 6 6 -1.</_>
        <_>
          18 24 3 3 2.</_>
        <_>
          21 27 3 3 2.</_></rects>
      <tilted>0</tilted></_>
    <_>
      <rects>
        <_>
          18 24 8 6 -1.</_>
        <_>
          18 24 4 3 2.</_>
        <_>
          22 27 4 3 2.</_></rects>
      <tilted>0</tilted></_>
    <_>
      <rects>
        <_>
          18 25 12 2 -1.</_>
        <_>
          22 25 4 2 3.</_></rects>
      <tilted>0</tilted></_>
    <_>
      <rects>
        <_>
          18 26 6 2 -1.</_>
        <_>
          20 26 2 2 3.</_></rects>
      <tilted>0</tilted></_>
    <_>
      <rects>
        <_>
          18 26 12 1 -1.</_>
        <_>
          22 26 4 1 3.</_></rects>
      <tilted>0</tilted></_>
    <_>
      <rects>
        <_>
          18 29 9 4 -1.</_>
        <_>
          21 29 3 4 3.</_></rects>
      <tilted>0</tilted></_>
    <_>
      <rects>
        <_>
          18 32 12 2 -1.</_>
        <_>
          22 32 4 2 3.</_></rects>
      <tilted>0</tilted></_>
    <_>
      <rects>
        <_>
          19 4 28 6 -1.</_>
        <_>
          19 6 28 2 3.</_></rects>
      <tilted>0</tilted></_>
    <_>
      <rects>
        <_>
          19 17 20 15 -1.</_>
        <_>
          29 17 10 15 2.</_></rects>
      <tilted>0</tilted></_>
    <_>
      <rects>
        <_>
          19 18 30 18 -1.</_>
        <_>
          29 18 10 18 3.</_></rects>
      <tilted>0</tilted></_>
    <_>
      <rects>
        <_>
          19 19 10 16 -1.</_>
        <_>
          19 19 5 8 2.</_>
        <_>
          24 27 5 8 2.</_></rects>
      <tilted>0</tilted></_>
    <_>
      <rects>
        <_>
          19 19 18 7 -1.</_>
        <_>
          25 19 6 7 3.</_></rects>
      <tilted>0</tilted></_>
    <_>
      <rects>
        <_>
          19 19 12 16 -1.</_>
        <_>
          19 19 6 8 2.</_>
        <_>
          25 27 6 8 2.</_></rects>
      <tilted>0</tilted></_>
    <_>
      <rects>
        <_>
          19 21 8 14 -1.</_>
        <_>
          19 21 4 7 2.</_>
        <_>
          23 28 4 7 2.</_></rects>
      <tilted>0</tilted></_>
    <_>
      <rects>
        <_>
          19 21 10 12 -1.</_>
        <_>
          19 21 5 6 2.</_>
        <_>
          24 27 5 6 2.</_></rects>
      <tilted>0</tilted></_>
    <_>
      <rects>
        <_>
          19 21 10 14 -1.</_>
        <_>
          19 21 5 7 2.</_>
        <_>
          24 28 5 7 2.</_></rects>
      <tilted>0</tilted></_>
    <_>
      <rects>
